{"learner":{"attributes":{"best_iteration":"199","best_ntree_limit":"200","scikit_learn":"{\"n_estimators\": 200, \"objective\": \"reg:squarederror\", \"max_depth\": 10, \"max_leaves\": null, \"max_bin\": null, \"grow_policy\": null, \"learning_rate\": null, \"verbosity\": null, \"booster\": null, \"tree_method\": null, \"gamma\": 2.0020905436478342, \"min_child_weight\": 3.0, \"max_delta_step\": null, \"subsample\": null, \"sampling_method\": null, \"colsample_bytree\": 0.6181055424035217, \"colsample_bylevel\": null, \"colsample_bynode\": null, \"reg_alpha\": 32.0, \"reg_lambda\": 0.16231887925590902, \"scale_pos_weight\": null, \"base_score\": null, \"missing\": NaN, \"num_parallel_tree\": null, \"random_state\": null, \"n_jobs\": null, \"monotone_constraints\": null, \"interaction_constraints\": null, \"importance_type\": null, \"gpu_id\": null, \"validate_parameters\": null, \"predictor\": null, \"enable_categorical\": false, \"feature_types\": null, \"max_cat_to_onehot\": null, \"max_cat_threshold\": null, \"eval_metric\": null, \"early_stopping_rounds\": null, \"callbacks\": null, \"_estimator_type\": \"regressor\"}"},"feature_names":["LIMIT_BAL","SEX","EDUCATION","MARRIAGE","AGE","BILL_AMT6","PAY_AMT6"],"feature_types":["int","int","int","int","int","int","int"],"gradient_booster":{"model":{"gbtree_model_param":{"num_parallel_tree":"1","num_trees":"200","size_leaf_vector":"0"},"tree_info":[0,0,0,0,0,0,0,0,0,0,0,0,0,0,0,0,0,0,0,0,0,0,0,0,0,0,0,0,0,0,0,0,0,0,0,0,0,0,0,0,0,0,0,0,0,0,0,0,0,0,0,0,0,0,0,0,0,0,0,0,0,0,0,0,0,0,0,0,0,0,0,0,0,0,0,0,0,0,0,0,0,0,0,0,0,0,0,0,0,0,0,0,0,0,0,0,0,0,0,0,0,0,0,0,0,0,0,0,0,0,0,0,0,0,0,0,0,0,0,0,0,0,0,0,0,0,0,0,0,0,0,0,0,0,0,0,0,0,0,0,0,0,0,0,0,0,0,0,0,0,0,0,0,0,0,0,0,0,0,0,0,0,0,0,0,0,0,0,0,0,0,0,0,0,0,0,0,0,0,0,0,0,0,0,0,0,0,0,0,0,0,0,0,0,0,0,0,0,0,0],"trees":[{"base_weights":[-2.7687314E-1,-2.3816276E-1,-3.3004984E-1,-2.3829994E-1,-0E0],"categories":[],"categories_nodes":[],"categories_segments":[],"categories_sizes":[],"default_left":[1,1,0,1,1],"id":0,"left_children":[1,-1,-1,-1,-1],"loss_changes":[3.1208618E1,7.034912E-1,0E0,0E0,0E0],"parents":[2147483647,0,0,1,1],"right_children":[2,-1,-1,-1,-1],"split_conditions":[2.0005E3,-7.144883E-2,-9.901496E-2,-7.148998E-2,-0E0],"split_indices":[6,4,0,2147483647,2147483647],"split_type":[0,0,0,0,0],"sum_hessian":[2.4E4,1.4238E4,9.762E3,1.4234E4,4E0],"tree_param":{"num_deleted":"2","num_feature":"7","num_nodes":"5","size_leaf_vector":"0"}},{"base_weights":[-1.9421233E-1,-1.295258E-1,-2.4718015E-1,-5.0130524E-2,-1.6146106E-1,-0E0,-2.4733669E-1,-0E0,-7.331903E-2,-1.8905231E-1,-1.00617744E-1,-2.4780105E-1,-0E0,-7.760922E-2,-0E0,-0E0,-1.1718072E-1,-0E0,-7.832888E-2,-0E0,-1.1913338E-1,-1.2650584E-1,-0E0],"categories":[],"categories_nodes":[],"categories_segments":[],"categories_sizes":[],"default_left":[1,1,1,1,1,1,1,0,1,0,1,1,1,1,1,0,1,1,1,1,1,1,1],"id":1,"left_children":[1,3,-1,7,9,-1,-1,-1,-1,-1,15,-1,-1,-1,-1,-1,-1,-1,-1,-1,-1,-1,-1],"loss_changes":[7.017206E1,2.131401E1,6.3342285E-1,3.0439177E0,3.5063324E0,0E0,5.7507324E-1,0E0,7.771044E-1,0E0,3.324173E0,0E0,0E0,6.1647415E-2,0E0,0E0,7.306938E-1,0E0,0E0,0E0,5.804291E-1,0E0,0E0],"parents":[2147483647,0,0,1,1,2,2,3,3,4,4,6,6,8,8,10,10,13,13,16,16,20,20],"right_children":[2,4,-1,8,10,-1,-1,-1,-1,-1,16,-1,-1,-1,-1,-1,-1,-1,-1,-1,-1,-1,-1],"split_conditions":[1.25E5,4.5E4,-7.415405E-2,5E-1,3.0961E4,-0E0,-7.420101E-2,-0E0,-2.199571E-2,-5.6715697E-2,5.5E4,-7.434032E-2,-0E0,-2.3282766E-2,-0E0,-0E0,-3.5154216E-2,-0E0,-2.3498664E-2,-0E0,-3.5740018E-2,-3.7951753E-2,-0E0],"split_indices":[0,0,5,3,5,2147483647,2147483647,0,0,0,0,2147483647,2147483647,2147483647,2147483647,0,5,2147483647,2147483647,2147483647,2147483647,2147483647,2147483647],"split_type":[0,0,0,0,0,0,0,0,0,0,0,0,0,0,0,0,0,0,0,0,0,0,0],"sum_hessian":[2.4E4,1.1077E4,1.2923E4,3.465E3,7.612E3,6E0,1.2917E4,1.279E3,2.186E3,4.875E3,2.737E3,1.2878E4,3.9E1,2.08E3,1.06E2,4.77E2,2.26E3,2.8E1,2.052E3,2.2E1,2.238E3,2.021E3,2.17E2],"tree_param":{"num_deleted":"12","num_feature":"7","num_nodes":"23","size_leaf_vector":"0"}},{"base_weights":[-1.3744967E-1,-7.396585E-2,-1.638589E-1,-3.62545E-2,-9.899372E-2,-1.7776844E-1,-1.1845398E-1,-7.47714E-2,-0E0,-1.20591566E-1,-0E0,-0E0,-1.7792343E-1,-0E0,-1.2895261E-1,-0E0,-8.5403964E-2,-0E0,-3.1873842E-3,-0E0,-1.2130979E-1,-0E0,-8.90801E-3,-1.779667E-1,-0E0,-1.3002601E-1,-0E0,-0E0,-8.813641E-2,-7.494122E-3,-0E0,-1.1043545E-2,-0E0,-0E0,-1.303432E-1,-0E0,-8.178045E-3],"categories":[],"categories_nodes":[],"categories_segments":[],"categories_sizes":[],"default_left":[1,1,1,1,1,1,1,1,1,1,1,1,1,0,1,1,1,1,1,1,1,1,1,1,1,1,1,1,1,1,1,1,1,1,1,1,1],"id":2,"left_children":[1,3,5,7,9,-1,13,-1,-1,-1,-1,-1,-1,-1,-1,-1,-1,-1,-1,-1,-1,-1,-1,-1,-1,-1,-1,-1,-1,-1,-1,-1,-1,-1,-1,-1,-1],"loss_changes":[3.2625366E1,2.662609E0,9.970703E-1,2.5018787E0,4.822605E0,4.4891357E-1,4.3925133E0,7.418475E-1,2.0310326E-2,3.352356E-2,6.389175E-2,0E0,9.213257E-2,0E0,4.5347595E-1,0E0,2.5840855E-1,0E0,3.5804495E-2,0E0,0E0,0E0,2.9549316E-2,0E0,0E0,1.06529236E-1,0E0,0E0,0E0,9.171326E-3,0E0,0E0,0E0,0E0,0E0,0E0,0E0],"parents":[2147483647,0,0,1,1,2,2,3,3,4,4,5,5,6,6,7,7,8,8,9,9,10,10,12,12,14,14,16,16,18,18,22,22,25,25,29,29],"right_children":[2,4,6,8,10,-1,14,-1,-1,-1,-1,-1,-1,-1,-1,-1,-1,-1,-1,-1,-1,-1,-1,-1,-1,-1,-1,-1,-1,-1,-1,-1,-1,-1,-1,-1,-1],"split_conditions":[7.5E4,4.5E4,6.7776E4,7.8055E3,3.1044E4,-5.3330533E-2,1.05E5,-2.243142E-2,-0E0,-3.617747E-2,-0E0,-0E0,-5.337703E-2,-0E0,-3.8685784E-2,-0E0,-2.562119E-2,-0E0,-9.562153E-4,-0E0,-3.639294E-2,-0E0,-2.6724031E-3,-5.339001E-2,-0E0,-3.9007805E-2,-0E0,-0E0,-2.6440924E-2,-2.2482367E-3,-0E0,-3.3130636E-3,-0E0,-0E0,-3.910296E-2,-0E0,-2.4534136E-3],"split_indices":[0,0,5,5,5,5,0,0,5,5,5,2147483647,2147483647,0,5,2147483647,2147483647,2147483647,2147483647,2147483647,2147483647,2147483647,2147483647,2147483647,2147483647,2147483647,2147483647,2147483647,2147483647,2147483647,2147483647,2147483647,2147483647,2147483647,2147483647,2147483647,2147483647],"split_type":[0,0,0,0,0,0,0,0,0,0,0,0,0,0,0,0,0,0,0,0,0,0,0,0,0,0,0,0,0,0,0,0,0,0,0,0,0],"sum_hessian":[2.4E4,7.407E3,1.6593E4,3.465E3,3.942E3,1.2162E4,4.431E3,1.262E3,2.203E3,2.988E3,9.54E2,7E0,1.2155E4,4.28E2,4.003E3,1.93E2,1.069E3,2.04E2,1.999E3,3.3E1,2.955E3,1.49E2,8.05E2,1.2152E4,3E0,3.964E3,3.9E1,3.2E1,1.037E3,9.99E2,1E3,7.66E2,3.9E1,1.3E1,3.951E3,2.3E1,9.76E2],"tree_param":{"num_deleted":"24","num_feature":"7","num_nodes":"37","size_leaf_vector":"0"}},{"base_weights":[-9.82886E-2,-9.91088E-2,-0E0,-9.936119E-2,-0E0,-0E0,-9.943334E-2],"categories":[],"categories_nodes":[],"categories_segments":[],"categories_sizes":[],"default_left":[1,1,1,1,1,1,1],"id":3,"left_children":[-1,-1,-1,-1,-1,-1,-1],"loss_changes":[1.1648865E0,8.2302856E-1,0E0,2.7053833E-1,0E0,0E0,0E0],"parents":[2147483647,0,0,1,1,3,3],"right_children":[-1,-1,-1,-1,-1,-1,-1],"split_conditions":[-2.9486582E-2,-2.973264E-2,-0E0,-2.9808357E-2,-0E0,-0E0,-2.9830003E-2],"split_indices":[4,2147483647,2147483647,2147483647,2147483647,2147483647,2147483647],"split_type":[0,0,0,0,0,0,0],"sum_hessian":[2.4E4,2.3723E4,2.77E2,2.3686E4,3.7E1,7E0,2.3679E4],"tree_param":{"num_deleted":"6","num_feature":"7","num_nodes":"7","size_leaf_vector":"0"}},{"base_weights":[-6.8802215E-2,-3.669725E-2,-9.964544E-2,-0E0,-4.9296614E-2,-2.544111E-2,-1.17630884E-1,-4.8756696E-2,4.7015704E-2,-0E0,-5.222171E-2,-3.5184484E-2,-0E0,-1.2590376E-1,-0E0,-0E0,-5.3453468E-2,-0E0,6.804294E-2,-5.6012914E-2,-0E0,-4.5943223E-2,-0E0,-0E0,-1.2596728E-1,-0E0,-8.072363E-4,-5.9355587E-2,-0E0,6.423864E-4,-0E0,6.927155E-2,-0E0,-1.1447544E-2,-6.414024E-2,-4.760616E-2,-0E0,-1.2628222E-1,-0E0,-0E0,-5.0494517E-3,-6.560556E-2,-0E0,1.5318421E-2,-0E0,-4.2211734E-2,-0E0,-0E0,-6.702919E-2,-0E0,-4.87978E-2,-1.2632512E-1,-0E0,-8.744118E-3,-0E0,-0E0,-6.589942E-2,-4.3876626E-2,-0E0,-6.7234084E-2,-0E0,-0E0,-1.11472765E-2,-0E0,-4.5463033E-2,-1.2424055E-2,-0E0,-4.8129868E-2,-0E0,-1.3010309E-2,-0E0],"categories":[],"categories_nodes":[],"categories_segments":[],"categories_sizes":[],"default_left":[1,1,1,1,1,1,1,1,1,0,1,1,1,1,1,1,1,1,1,1,1,1,1,1,1,1,1,1,1,1,1,1,1,1,1,1,1,1,1,1,1,1,1,1,1,1,1,1,1,1,1,1,1,1,1,1,1,1,1,1,1,1,1,1,1,1,1,1,1,1,1],"id":4,"left_children":[1,3,5,7,9,-1,13,-1,-1,-1,-1,-1,-1,-1,-1,-1,-1,-1,-1,-1,-1,-1,-1,-1,-1,-1,-1,-1,-1,-1,-1,-1,-1,-1,-1,-1,-1,-1,-1,-1,-1,-1,-1,-1,-1,-1,-1,-1,-1,-1,-1,-1,-1,-1,-1,-1,-1,-1,-1,-1,-1,-1,-1,-1,-1,-1,-1,-1,-1,-1,-1],"loss_changes":[1.9401894E1,5.5569725E0,1.1078918E1,7.301306E0,2.0706139E0,1.3417723E0,5.8351364E0,5.7334924E-1,7.411866E-1,0E0,1.8201771E0,8.720319E-1,0E0,6.947327E-2,4.4973078E-4,0E0,2.940998E-1,9.043957E-5,1.267829E-1,5.790367E-1,0E0,2.5944996E-1,0E0,0E0,8.558655E-2,0E0,1.6637376E-2,2.0232296E-1,0E0,4.1012097E-2,0E0,0E0,0E0,5.81928E-1,4.9967575E-1,1.0708189E-1,0E0,9.796143E-3,0E0,0E0,3.0941937E-2,3.0453205E-2,0E0,0E0,0E0,4.549384E-2,0E0,0E0,1.2341881E-1,0E0,0E0,0E0,0E0,2.6796713E-2,0E0,0E0,0E0,4.1632295E-2,0E0,0E0,0E0,0E0,1.7350502E-2,0E0,3.8800955E-2,5.0111413E-3,0E0,0E0,0E0,0E0,0E0],"parents":[2147483647,0,0,1,1,2,2,3,3,4,4,5,5,6,6,7,7,8,8,10,10,11,11,13,13,14,14,16,16,17,17,18,18,19,19,21,21,24,24,26,26,27,27,29,29,33,33,34,34,35,35,37,37,40,40,41,41,45,45,48,48,53,53,57,57,62,62,64,64,65,65],"right_children":[2,4,6,8,10,-1,14,-1,-1,-1,-1,-1,-1,-1,-1,-1,-1,-1,-1,-1,-1,-1,-1,-1,-1,-1,-1,-1,-1,-1,-1,-1,-1,-1,-1,-1,-1,-1,-1,-1,-1,-1,-1,-1,-1,-1,-1,-1,-1,-1,-1,-1,-1,-1,-1,-1,-1,-1,-1,-1,-1,-1,-1,-1,-1,-1,-1,-1,-1,-1,-1],"split_conditions":[1.45E5,3E0,2.75E1,1.0215E3,1.3E4,-7.6323333E-3,1.853315E5,-1.462701E-2,1.4104712E-2,-0E0,-1.5666515E-2,-1.0555346E-2,-0E0,-3.7771128E-2,-0E0,-0E0,-1.6036041E-2,-0E0,2.0412883E-2,-1.6803876E-2,-0E0,-1.3782968E-2,-0E0,-0E0,-3.7790187E-2,-0E0,-2.4217089E-4,-1.7806677E-2,-0E0,1.9271592E-4,-0E0,2.0781465E-2,-0E0,-3.4342634E-3,-1.9242072E-2,-1.4281848E-2,-0E0,-3.7884668E-2,-0E0,-0E0,-1.5148356E-3,-1.9681668E-2,-0E0,4.5955265E-3,-0E0,-1.2663521E-2,-0E0,-0E0,-2.010876E-2,-0E0,-1.4639341E-2,-3.7897535E-2,-0E0,-2.6232353E-3,-0E0,-0E0,-1.9769825E-2,-1.3162988E-2,-0E0,-2.0170227E-2,-0E0,-0E0,-3.344183E-3,-0E0,-1.3638911E-2,-3.7272165E-3,-0E0,-1.4438961E-2,-0E0,-3.9030928E-3,-0E0],"split_indices":[0,6,6,5,0,5,5,5,5,0,5,2147483647,2147483647,5,0,2147483647,2147483647,2147483647,2147483647,2147483647,2147483647,2147483647,2147483647,2147483647,2147483647,2147483647,2147483647,2147483647,2147483647,2147483647,2147483647,2147483647,2147483647,2147483647,2147483647,2147483647,2147483647,2147483647,2147483647,2147483647,2147483647,2147483647,2147483647,2147483647,2147483647,2147483647,2147483647,2147483647,2147483647,2147483647,2147483647,2147483647,2147483647,2147483647,2147483647,2147483647,2147483647,2147483647,2147483647,2147483647,2147483647,2147483647,2147483647,2147483647,2147483647,2147483647,2147483647,2147483647,2147483647,2147483647,2147483647],"split_type":[0,0,0,0,0,0,0,0,0,0,0,0,0,0,0,0,0,0,0,0,0,0,0,0,0,0,0,0,0,0,0,0,0,0,0,0,0,0,0,0,0,0,0,0,0,0,0,0,0,0,0,0,0,0,0,0,0,0,0,0,0,0,0,0,0,0,0,0,0,0,0],"sum_hessian":[2.4E4,1.2268E4,1.1732E4,3.183E3,9.085E3,2.636E3,9.096E3,1.587E3,1.596E3,2.3E2,8.855E3,2.462E3,1.74E2,8.308E3,7.88E2,6.6E1,1.521E3,6.74E2,9.22E2,8.277E3,5.78E2,1.857E3,6.05E2,4E0,8.304E3,9.8E1,6.9E2,1.317E3,2.04E2,2.19E2,4.55E2,9.16E2,6E0,1.884E3,6.393E3,1.844E3,1.3E1,8.268E3,3.6E1,2E1,6.7E2,1.125E3,1.92E2,1.75E2,4.4E1,4.65E2,1.419E3,4.28E2,5.965E3,4.4E1,1.8E3,8.263E3,5E0,6.28E2,4.2E1,3E0,1.122E3,4.54E2,1.1E1,5.956E3,9E0,2.6E1,6.02E2,1.1E1,4.43E2,5.97E2,5E0,4.12E2,3.1E1,5.74E2,2.3E1],"tree_param":{"num_deleted":"58","num_feature":"7","num_nodes":"71","size_leaf_vector":"0"}},{"base_weights":[-4.907942E-2,-0E0,-5.737647E-2,-1.3695284E-2,7.991597E-3,-4.4214826E-2,-8.648992E-2,-2.455248E-2,-0E0,1.2910456E-2,-0E0,-5.1296845E-2,-0E0,-0E0,-1.0016967E-1,-0E0,-3.128239E-2,-0E0,1.582025E-2,-5.486652E-2,-0E0,-1.10060185E-1,-0E0,-0E0,-3.524537E-2,1.6938671E-2,-0E0,-0E0,-5.5521913E-2,-1.1232296E-1,-0E0,-0E0,1.7768372E-2,-0E0,-1.1274067E-1,-0E0,2.374406E-2],"categories":[],"categories_nodes":[],"categories_segments":[],"categories_sizes":[],"default_left":[1,1,1,1,1,1,1,1,1,1,1,1,0,0,1,1,1,1,1,1,1,1,0,1,1,1,1,1,1,1,1,1,1,1,1,1,1],"id":5,"left_children":[1,-1,5,-1,-1,11,13,-1,-1,-1,-1,-1,-1,-1,21,-1,-1,-1,-1,-1,-1,-1,-1,-1,-1,-1,-1,-1,-1,-1,-1,-1,-1,-1,-1,-1,-1],"loss_changes":[9.791641E0,3.774385E-1,3.6855087E0,3.9452267E-1,1.61178E-1,4.781084E0,4.8794975E0,2.4180454E-1,0E0,1.4615807E-1,0E0,1.0723648E0,0E0,0E0,2.4073792E0,0E0,2.0416117E-1,0E0,3.6139786E-3,3.8445663E-1,0E0,1.1962357E0,0E0,0E0,0E0,2.0388842E-2,0E0,0E0,0E0,9.77478E-2,0E0,0E0,2.0458272E-1,0E0,0E0,0E0,0E0],"parents":[2147483647,0,0,1,1,2,2,3,3,4,4,5,5,6,6,7,7,9,9,11,11,14,14,16,16,18,18,19,19,21,21,25,25,29,29,32,32],"right_children":[2,-1,6,-1,-1,12,14,-1,-1,-1,-1,-1,-1,-1,22,-1,-1,-1,-1,-1,-1,-1,-1,-1,-1,-1,-1,-1,-1,-1,-1,-1,-1,-1,-1,-1,-1],"split_conditions":[4.5E4,-0E0,2.45E5,-4.1085854E-3,2.3974793E-3,8.6024E4,1.18E2,-7.365744E-3,-0E0,3.873137E-3,-0E0,-1.5389054E-2,-0E0,-0E0,1.926845E5,-0E0,-9.384718E-3,-0E0,4.7460753E-3,-1.6459957E-2,-0E0,-3.3018056E-2,-0E0,-0E0,-1.0573612E-2,5.0816014E-3,-0E0,-0E0,-1.6656574E-2,-3.369689E-2,-0E0,-0E0,5.330512E-3,-0E0,-3.3822205E-2,-0E0,7.1232184E-3],"split_indices":[0,5,0,2147483647,2147483647,5,5,2147483647,2147483647,2147483647,2147483647,4,0,0,5,2147483647,2147483647,2147483647,2147483647,2147483647,2147483647,4,0,2147483647,2147483647,2147483647,2147483647,2147483647,2147483647,2147483647,2147483647,2147483647,2147483647,2147483647,2147483647,2147483647,2147483647],"split_type":[0,0,0,0,0,0,0,0,0,0,0,0,0,0,0,0,0,0,0,0,0,0,0,0,0,0,0,0,0,0,0,0,0,0,0,0,0],"sum_hessian":[2.4E4,3.465E3,2.0535E4,1.262E3,2.203E3,1.4899E4,5.636E3,1.047E3,2.15E2,1.811E3,3.92E2,1.2886E4,2.013E3,9.48E2,4.688E3,1.55E2,8.92E2,2.1E1,1.79E3,1.162E4,1.266E3,4.082E3,6.06E2,2.5E1,8.67E2,1.574E3,2.16E2,1.48E2,1.1472E4,4.014E3,6.8E1,7.9E1,1.495E3,2.2E1,3.992E3,2.95E2,1.2E3],"tree_param":{"num_deleted":"26","num_feature":"7","num_nodes":"37","size_leaf_vector":"0"}},{"base_weights":[-3.520105E-2,-1.5095076E-2,-5.3497564E-2,2.0459101E-4,-3.003129E-2,-1.6283818E-2,-6.1799366E-2,-3.2133493E-3,2.3496812E-2,-0E0,-3.2051504E-2,-2.3655029E-2,-0E0,-7.292082E-2,-1.2420385E-2,-0E0,-1.1926974E-2,-0E0,2.7847847E-2,-3.3937752E-2,-0E0,-3.458715E-2,-0E0,-7.300362E-2,-0E0,-0E0,-2.569977E-2,-1.6570672E-2,-0E0,2.8327867E-2,-0E0,-0E0,-3.484393E-2,-0E0,-3.4752328E-2,-0E0,-2.9896414E-2,-0E0,-1.8383488E-2,-3.2460455E-2,-0E0,-3.2691382E-2,-0E0,-3.318178E-2,-0E0,-3.330234E-2,-0E0],"categories":[],"categories_nodes":[],"categories_segments":[],"categories_sizes":[],"default_left":[1,1,1,1,1,1,1,1,1,1,1,1,1,1,1,1,1,1,1,1,1,1,1,1,1,1,1,1,1,1,1,1,1,1,1,1,1,1,1,1,1,1,1,1,1,1,1],"id":6,"left_children":[1,3,5,-1,-1,-1,13,-1,-1,-1,-1,-1,-1,-1,-1,-1,-1,-1,-1,-1,-1,-1,-1,-1,-1,-1,-1,-1,-1,-1,-1,-1,-1,-1,-1,-1,-1,-1,-1,-1,-1,-1,-1,-1,-1,-1,-1],"loss_changes":[6.6338253E0,3.757965E0,1.1257248E0,1.0473124E0,6.236825E-1,5.701101E-1,2.1505623E0,3.1032246E-1,1.6248906E-1,0E0,6.5650415E-1,7.553021E-1,0E0,5.9947968E-2,5.395571E-1,0E0,2.21876E-1,0E0,2.5691032E-2,3.158512E-1,0E0,1.5077114E-2,0E0,0E0,0E0,0E0,2.5128043E-1,1.23931944E-1,0E0,0E0,0E0,0E0,0E0,0E0,0E0,0E0,1.5585387E-1,0E0,0E0,2.2515059E-3,0E0,1.2345314E-2,0E0,4.9910545E-3,0E0,0E0,0E0],"parents":[2147483647,0,0,1,1,2,2,3,3,4,4,5,5,6,6,7,7,8,8,10,10,11,11,13,13,14,14,16,16,18,18,19,19,21,21,26,26,27,27,36,36,39,39,41,41,43,43],"right_children":[2,4,6,-1,-1,-1,14,-1,-1,-1,-1,-1,-1,-1,-1,-1,-1,-1,-1,-1,-1,-1,-1,-1,-1,-1,-1,-1,-1,-1,-1,-1,-1,-1,-1,-1,-1,-1,-1,-1,-1,-1,-1,-1,-1,-1,-1],"split_conditions":[1.45E5,5E-1,5.805E2,6.137731E-5,-9.009387E-3,-4.8851455E-3,1.13716E5,-9.6400484E-4,7.049044E-3,-0E0,-9.615451E-3,-7.096509E-3,-0E0,-2.1876248E-2,-3.7261157E-3,-0E0,-3.5780924E-3,-0E0,8.354355E-3,-1.0181326E-2,-0E0,-1.0376145E-2,-0E0,-2.1901086E-2,-0E0,-0E0,-7.709931E-3,-4.971202E-3,-0E0,8.49836E-3,-0E0,-0E0,-1.04531795E-2,-0E0,-1.0425699E-2,-0E0,-8.968924E-3,-0E0,-5.5150464E-3,-9.738137E-3,-0E0,-9.807415E-3,-0E0,-9.9545345E-3,-0E0,-9.990702E-3,-0E0],"split_indices":[0,3,5,1,0,5,5,2147483647,2147483647,2147483647,2147483647,2147483647,2147483647,0,0,2147483647,2147483647,2147483647,2147483647,2147483647,2147483647,2147483647,2147483647,2147483647,2147483647,2147483647,2147483647,2147483647,2147483647,2147483647,2147483647,2147483647,2147483647,2147483647,2147483647,2147483647,2147483647,2147483647,2147483647,2147483647,2147483647,2147483647,2147483647,2147483647,2147483647,2147483647,2147483647],"split_type":[0,0,0,0,0,0,0,0,0,0,0,0,0,0,0,0,0,0,0,0,0,0,0,0,0,0,0,0,0,0,0,0,0,0,0,0,0,0,0,0,0,0,0,0,0,0,0],"sum_hessian":[2.4E4,1.2268E4,1.1732E4,5.002E3,7.266E3,2.843E3,8.889E3,3.164E3,1.838E3,2.8E2,6.986E3,2.366E3,4.77E2,6.726E3,2.163E3,7.53E2,2.411E3,3.2E2,1.518E3,6.801E3,1.85E2,1.738E3,6.28E2,6.722E3,4E0,8.41E2,1.322E3,2.057E3,3.54E2,1.499E3,1.9E1,8.9E1,6.712E3,4E0,1.734E3,6.4E1,1.258E3,1.9E1,2.038E3,1.215E3,4.3E1,1.2E3,1.5E1,1.176E3,2.4E1,1.172E3,4E0],"tree_param":{"num_deleted":"38","num_feature":"7","num_nodes":"47","size_leaf_vector":"0"}},{"base_weights":[-2.5440995E-2,-0E0,-3.070466E-2,1.0365044E-2,-0E0,-3.4327466E-2,-0E0,-0E0,1.1109211E-2,-2.084303E-3,-0E0,-1.7658947E-2,-4.369722E-2,-7.562706E-3,-0E0,-2.6203435E-2,-0E0,-0E0,-4.4009253E-2,-0E0,-9.029465E-3,-0E0,-2.6254546E-2,-0E0,-5.5399467E-3,-0E0,2.1633678E-3,-7.4319835E-3,-0E0],"categories":[],"categories_nodes":[],"categories_segments":[],"categories_sizes":[],"default_left":[1,1,1,1,1,1,0,1,1,1,1,1,1,1,1,1,1,1,1,1,1,1,1,1,1,1,1,1,1],"id":7,"left_children":[1,-1,5,-1,-1,-1,-1,-1,-1,-1,-1,-1,-1,-1,-1,-1,-1,-1,-1,-1,-1,-1,-1,-1,-1,-1,-1,-1,-1],"loss_changes":[3.8260946E0,1.4580557E-1,2.354044E0,2.1070927E-2,8.706719E-3,9.144306E-1,0E0,0E0,0E0,7.869578E-2,0E0,9.024632E-1,1.9235802E-1,2.015043E-2,0E0,1.1027336E-2,5.939208E-2,0E0,0E0,0E0,0E0,0E0,0E0,4.620078E-3,4.119868E-2,0E0,0E0,0E0,0E0],"parents":[2147483647,0,0,1,1,2,2,3,3,4,4,5,5,9,9,11,11,12,12,13,13,15,15,16,16,23,23,24,24],"right_children":[2,-1,6,-1,-1,-1,-1,-1,-1,-1,-1,-1,-1,-1,-1,-1,-1,-1,-1,-1,-1,-1,-1,-1,-1,-1,-1,-1,-1],"split_conditions":[4.5E4,-0E0,4.85E1,3.1095133E-3,-0E0,-1.029824E-2,-0E0,-0E0,3.3327632E-3,-6.252909E-4,-0E0,-5.297684E-3,-1.3109166E-2,-2.268812E-3,-0E0,-7.861031E-3,-0E0,-0E0,-1.3202776E-2,-0E0,-2.7088395E-3,-0E0,-7.8763645E-3,-0E0,-1.6619841E-3,-0E0,6.4901036E-4,-2.229595E-3,-0E0],"split_indices":[0,3,4,2147483647,2147483647,0,0,2147483647,2147483647,2147483647,2147483647,2147483647,2147483647,2147483647,2147483647,2147483647,2147483647,2147483647,2147483647,2147483647,2147483647,2147483647,2147483647,2147483647,2147483647,2147483647,2147483647,2147483647,2147483647],"split_type":[0,0,0,0,0,0,0,0,0,0,0,0,0,0,0,0,0,0,0,0,0,0,0,0,0,0,0,0,0],"sum_hessian":[2.4E4,3.465E3,2.0535E4,1.357E3,2.108E3,1.8427E4,2.108E3,5E0,1.352E3,2.004E3,1.04E2,7.86E3,1.0567E4,1.528E3,4.76E2,4.884E3,2.976E3,5E1,1.0517E4,2.09E2,1.319E3,3E0,4.881E3,1.041E3,1.935E3,5.4E1,9.87E2,1.821E3,1.14E2],"tree_param":{"num_deleted":"24","num_feature":"7","num_nodes":"29","size_leaf_vector":"0"}},{"base_weights":[-1.7534144E-2,1.8688926E-3,-3.1791635E-2,-4.5533758E-4,4.153477E-2,-1.6720483E-2,-4.8079826E-2,-1.1179762E-2,5.506647E-4,6.677438E-2,-0E0,-4.273178E-2,-3.918385E-3,-5.30644E-2,-0E0,-2.0240454E-2,-0E0,1.2378277E-2,-0E0,7.54445E-2,-0E0,-0E0,-4.603295E-2,-0E0,-1.2907347E-2,-5.4323975E-2,-0E0,-0E0,-2.3534361E-2,2.0673374E-2,-0E0,-0E0,-7.62664E-3,7.702015E-2,-0E0,-5.3011186E-2,-0E0,-9.034751E-3,3.9988975E-3,-2.757796E-2,-0E0,-0E0,-5.4728426E-2,-2.4989603E-2,-0E0,2.963771E-2,-0E0,-0E0,3.8705517E-3,-0E0,-1.209753E-2,-0E0,7.736499E-2,-0E0,-5.5869497E-2,-0E0,-1.5533668E-2,9.984659E-3,-0E0,-2.9507607E-2,-0E0,-5.486678E-2,-0E0,-2.8894326E-2,-0E0,3.2340515E-2,-0E0,1.2420213E-2,-0E0,-1.2469367E-2,-0E0,-0E0,-5.658835E-2,-2.0998698E-2,-0E0,1.494236E-2,-0E0,-0E0,-3.0900527E-2,-3.0649336E-2,-0E0,-0E0,5.4332666E-2,-0E0,1.2828533E-2,-5.7607852E-2,-0E0,-0E0,-2.3416447E-2,1.5984101E-2,-0E0,1.2955455E-2,-0E0,-0E0,1.6776048E-2,-0E0,1.6968753E-2],"categories":[],"categories_nodes":[],"categories_segments":[],"categories_sizes":[],"default_left":[1,1,1,1,1,1,1,1,1,1,1,1,1,1,1,1,1,1,1,1,1,1,1,1,1,1,1,1,1,1,1,1,1,1,1,1,1,1,1,1,1,1,1,1,1,1,1,1,1,1,1,1,1,1,1,1,1,1,1,1,1,1,1,1,1,1,1,1,1,1,1,1,1,1,1,1,1,1,1,1,1,1,1,1,1,1,1,1,1,1,1,1,1,1,1,1,1],"id":8,"left_children":[1,3,-1,-1,-1,-1,-1,-1,-1,-1,-1,-1,-1,-1,-1,-1,-1,-1,-1,-1,-1,-1,-1,-1,-1,-1,-1,-1,-1,-1,-1,-1,-1,-1,-1,-1,-1,-1,-1,-1,-1,-1,-1,-1,-1,-1,-1,-1,-1,-1,-1,-1,-1,-1,-1,-1,-1,-1,-1,-1,-1,-1,-1,-1,-1,-1,-1,-1,-1,-1,-1,-1,-1,-1,-1,-1,-1,-1,-1,-1,-1,-1,-1,-1,-1,-1,-1,-1,-1,-1,-1,-1,-1,-1,-1,-1,-1],"loss_changes":[7.5969086E0,2.1641147E0,1.555748E0,4.2582926E-1,1.9750645E0,1.4043143E0,8.9126205E-1,7.73087E-1,2.5575605E-1,7.6605797E-1,0E0,4.0009975E-1,3.1467754E-1,2.8178215E-1,0E0,3.4009564E-1,0E0,3.271784E-1,1.0255546E-1,1.8459225E-1,0E0,0E0,2.5539017E-1,1.1873875E-1,5.955482E-1,1.0197544E-1,0E0,0E0,1.2505746E-1,3.899719E-1,0E0,1.5837528E-2,6.825902E-2,1.6025066E-2,0E0,2.4269867E-1,0E0,1.18594795E-1,1.675669E-1,1.205132E-1,0E0,0E0,6.863308E-2,6.984413E-2,0E0,4.3557942E-2,0E0,0E0,1.2672529E-1,0E0,5.530879E-3,0E0,0E0,0E0,9.436321E-2,0E0,1.4491127E-1,1.8404289E-1,0E0,1.0280061E-1,0E0,0E0,0E0,1.4567006E-1,0E0,1.782155E-1,0E0,2.286598E-3,0E0,0E0,0E0,0E0,2.9157162E-2,7.124576E-2,0E0,1.0702878E-2,0E0,0E0,0E0,0E0,0E0,0E0,0E0,0E0,2.3768395E-3,0E0,0E0,0E0,0E0,4.529059E-3,0E0,0E0,0E0,0E0,6.5490007E-3,0E0,0E0],"parents":[2147483647,0,0,1,1,2,2,3,3,4,4,5,5,6,6,7,7,8,8,9,9,11,11,12,12,13,13,15,15,17,17,18,18,19,19,22,22,23,23,24,24,25,25,28,28,29,29,31,31,32,32,33,33,35,35,37,37,38,38,39,39,42,42,43,43,45,45,48,48,50,50,54,54,56,56,57,57,59,59,63,63,65,65,67,67,72,72,73,73,75,75,84,84,89,89,94,94],"right_children":[2,4,-1,-1,-1,-1,-1,-1,-1,-1,-1,-1,-1,-1,-1,-1,-1,-1,-1,-1,-1,-1,-1,-1,-1,-1,-1,-1,-1,-1,-1,-1,-1,-1,-1,-1,-1,-1,-1,-1,-1,-1,-1,-1,-1,-1,-1,-1,-1,-1,-1,-1,-1,-1,-1,-1,-1,-1,-1,-1,-1,-1,-1,-1,-1,-1,-1,-1,-1,-1,-1,-1,-1,-1,-1,-1,-1,-1,-1,-1,-1,-1,-1,-1,-1,-1,-1,-1,-1,-1,-1,-1,-1,-1,-1,-1,-1],"split_conditions":[9.255E2,2.14085E4,-9.537491E-3,-1.3660127E-4,1.2460432E-2,-5.0161453E-3,-1.4423949E-2,-3.3539287E-3,1.6519942E-4,2.0032316E-2,-0E0,-1.2819535E-2,-1.1755156E-3,-1.591932E-2,-0E0,-6.0721366E-3,-0E0,3.7134832E-3,-0E0,2.263335E-2,-0E0,-0E0,-1.3809886E-2,-0E0,-3.872204E-3,-1.6297193E-2,-0E0,-0E0,-7.0603085E-3,6.2020123E-3,-0E0,-0E0,-2.287992E-3,2.3106046E-2,-0E0,-1.5903357E-2,-0E0,-2.7104253E-3,1.1996693E-3,-8.273388E-3,-0E0,-0E0,-1.6418528E-2,-7.4968813E-3,-0E0,8.891313E-3,-0E0,-0E0,1.1611655E-3,-0E0,-3.629259E-3,-0E0,2.3209497E-2,-0E0,-1.676085E-2,-0E0,-4.6601007E-3,2.995398E-3,-0E0,-8.852283E-3,-0E0,-1.6460035E-2,-0E0,-8.668298E-3,-0E0,9.702155E-3,-0E0,3.726064E-3,-0E0,-3.7408103E-3,-0E0,-0E0,-1.6976506E-2,-6.29961E-3,-0E0,4.4827084E-3,-0E0,-0E0,-9.270159E-3,-9.194802E-3,-0E0,-0E0,1.6299801E-2,-0E0,3.84856E-3,-1.7282356E-2,-0E0,-0E0,-7.024934E-3,4.7952305E-3,-0E0,3.8866366E-3,-0E0,-0E0,5.0328146E-3,-0E0,5.090626E-3],"split_indices":[6,5,0,5,6,2147483647,2147483647,2147483647,2147483647,2147483647,2147483647,2147483647,2147483647,2147483647,2147483647,2147483647,2147483647,2147483647,2147483647,2147483647,2147483647,2147483647,2147483647,2147483647,2147483647,2147483647,2147483647,2147483647,2147483647,2147483647,2147483647,2147483647,2147483647,2147483647,2147483647,2147483647,2147483647,2147483647,2147483647,2147483647,2147483647,2147483647,2147483647,2147483647,2147483647,2147483647,2147483647,2147483647,2147483647,2147483647,2147483647,2147483647,2147483647,2147483647,2147483647,2147483647,2147483647,2147483647,2147483647,2147483647,2147483647,2147483647,2147483647,2147483647,2147483647,2147483647,2147483647,2147483647,2147483647,2147483647,2147483647,2147483647,2147483647,2147483647,2147483647,2147483647,2147483647,2147483647,2147483647,2147483647,2147483647,2147483647,2147483647,2147483647,2147483647,2147483647,2147483647,2147483647,2147483647,2147483647,2147483647,2147483647,2147483647,2147483647,2147483647,2147483647,2147483647],"split_type":[0,0,0,0,0,0,0,0,0,0,0,0,0,0,0,0,0,0,0,0,0,0,0,0,0,0,0,0,0,0,0,0,0,0,0,0,0,0,0,0,0,0,0,0,0,0,0,0,0,0,0,0,0,0,0,0,0,0,0,0,0,0,0,0,0,0,0,0,0,0,0,0,0,0,0,0,0,0,0,0,0,0,0,0,0,0,0,0,0,0,0,0,0,0,0,0,0],"sum_hessian":[2.4E4,9.215E3,1.4785E4,7.943E3,1.272E3,8.7E3,6.085E3,3.409E3,4.534E3,9.35E2,3.37E2,2.045E3,6.655E3,5.312E3,7.73E2,2.927E3,4.82E2,1.678E3,2.856E3,8.67E2,6.8E1,9.4E1,1.951E3,4.153E3,2.502E3,5.164E3,1.48E2,1.48E2,2.779E3,1.367E3,3.11E2,1.093E3,1.763E3,8.63E2,4E0,1.562E3,3.89E2,7.97E2,3.356E3,1.331E3,1.171E3,4.2E1,5.122E3,2.665E3,1.14E2,1.109E3,2.58E2,3.6E1,1.057E3,5.96E2,1.167E3,5E0,8.58E2,7.8E1,1.484E3,3.6E1,7.61E2,2.219E3,1.137E3,1.301E3,3E1,5.119E3,3E0,2.077E3,5.88E2,9.73E2,1.36E2,9.24E2,1.33E2,1.134E3,3.3E1,8E0,1.476E3,7.45E2,1.6E1,1.815E3,4.04E2,7E0,1.294E3,2.001E3,7.6E1,5.68E2,4.05E2,4.4E1,8.8E2,1.433E3,4.3E1,1.6E1,7.29E2,1.628E3,1.87E2,8.77E2,3E0,1.34E2,1.494E3,1.1E1,1.483E3],"tree_param":{"num_deleted":"92","num_feature":"7","num_nodes":"97","size_leaf_vector":"0"}},{"base_weights":[-1.2273882E-2,2.6668474E-4,-2.225425E-2,-1.1043163E-2,1.2418784E-2,-4.071885E-2,-1.2163088E-2,-2.7135275E-2,-0E0,2.8011456E-2,-0E0,-4.1406054E-2,-0E0,-2.287151E-2,-0E0,-0E0,-3.1985603E-2,-0E0,5.6443196E-2,-0E0,-6.711646E-4,-0E0,-4.2149026E-2,-3.794365E-2,-0E0,3.0736513E-3,-7.6514287E-3,-3.30565E-2,-0E0,4.3511796E-3,-0E0,5.8643557E-2,-0E0,-0E0,7.0454935E-3,-7.3375977E-3,-0E0,-0E0,-4.2223815E-2,-0E0,-4.048611E-2,-5.027577E-4,-0E0,-0E0,1.2564689E-2,-1.2262145E-2,-0E0,-3.3982106E-2,-0E0,-0E0,8.73532E-3,-0E0,5.970396E-2,-0E0,1.3200477E-2,-1.462779E-2,-0E0,-0E0,-4.230713E-2,-0E0,-4.213991E-2,-0E0,-1.1160781E-3,2.6457913E-2,-0E0,-1.3458276E-2,-0E0,6.0317423E-2,-0E0,1.515845E-2,-0E0,-0E0,-1.53719E-2,-4.274053E-2,-0E0,-0E0,-1.6862062E-3,3.595559E-2,-0E0,-0E0,-1.4168834E-2,6.04528E-2,-0E0,1.728665E-2,-0E0,-0E0,-4.3208063E-2,-2.3390364E-3,-0E0,-0E0,4.4072602E-2,-1.4921834E-2,-0E0,-0E0,1.742676E-2,-4.511658E-3,-0E0,-4.6982616E-3,-0E0],"categories":[],"categories_nodes":[],"categories_segments":[],"categories_sizes":[],"default_left":[1,1,1,1,1,1,1,1,1,1,1,1,1,1,1,1,1,1,1,1,1,1,1,1,1,1,1,1,1,1,1,1,1,1,1,1,1,1,1,1,1,1,1,1,1,1,1,1,1,1,1,1,1,1,1,1,1,1,1,1,1,1,1,1,1,1,1,1,1,1,1,1,1,1,1,1,1,1,1,1,1,1,1,1,1,1,1,1,1,1,1,1,1,1,1,1,1,1,1],"id":9,"left_children":[1,-1,-1,-1,-1,-1,-1,-1,-1,-1,-1,-1,-1,-1,-1,-1,-1,-1,-1,-1,-1,-1,-1,-1,-1,-1,-1,-1,-1,-1,-1,-1,-1,-1,-1,-1,-1,-1,-1,-1,-1,-1,-1,-1,-1,-1,-1,-1,-1,-1,-1,-1,-1,-1,-1,-1,-1,-1,-1,-1,-1,-1,-1,-1,-1,-1,-1,-1,-1,-1,-1,-1,-1,-1,-1,-1,-1,-1,-1,-1,-1,-1,-1,-1,-1,-1,-1,-1,-1,-1,-1,-1,-1,-1,-1,-1,-1,-1,-1],"loss_changes":[3.7074506E0,1.3105593E0,1.0626063E0,9.5392835E-1,1.2475212E0,1.6304588E-1,1.159412E0,4.1780412E-1,0E0,1.7952249E0,7.068478E-4,1.3149405E-1,0E0,9.146538E-1,1.7443036E-1,0E0,1.04212046E-1,1.6342048E-2,2.6488924E-1,6.523367E-2,8.11392E-2,0E0,1.6302586E-2,4.126904E-1,5.9454504E-4,3.6093777E-1,1.539313E-1,6.353903E-2,0E0,3.250606E-2,0E0,1.3555384E-1,0E0,0E0,9.841781E-2,1.3344476E-1,0E0,0E0,4.840374E-3,0E0,2.6091003E-1,2.189641E-3,0E0,0E0,2.5192797E-1,5.5164874E-2,0E0,0E0,0E0,0E0,0E0,0E0,6.415033E-2,0E0,5.0079927E-2,2.1279141E-2,0E0,0E0,0E0,0E0,1.0232782E-1,0E0,3.5625012E-3,3.43401E-1,0E0,3.7554026E-2,0E0,1.5130043E-3,0E0,2.7471542E-2,0E0,0E0,0E0,8.998394E-2,0E0,0E0,2.189103E-3,2.90492E-1,0E0,0E0,3.0224264E-2,0E0,0E0,2.4073422E-3,0E0,0E0,0E0,1.7542344E-2,0E0,0E0,0E0,0E0,0E0,0E0,0E0,2.0914432E-3,0E0,0E0,0E0],"parents":[2147483647,0,0,1,1,2,2,3,3,4,4,5,5,6,6,7,7,9,9,10,10,11,11,13,13,14,14,16,16,17,17,18,18,19,19,20,20,22,22,23,23,24,24,25,25,26,26,27,27,29,29,31,31,34,34,35,35,38,38,40,40,41,41,44,44,45,45,52,52,54,54,55,55,60,60,62,62,63,63,65,65,67,67,69,69,73,73,76,76,77,77,80,80,83,83,87,87,95,95],"right_children":[2,-1,-1,-1,-1,-1,-1,-1,-1,-1,-1,-1,-1,-1,-1,-1,-1,-1,-1,-1,-1,-1,-1,-1,-1,-1,-1,-1,-1,-1,-1,-1,-1,-1,-1,-1,-1,-1,-1,-1,-1,-1,-1,-1,-1,-1,-1,-1,-1,-1,-1,-1,-1,-1,-1,-1,-1,-1,-1,-1,-1,-1,-1,-1,-1,-1,-1,-1,-1,-1,-1,-1,-1,-1,-1,-1,-1,-1,-1,-1,-1,-1,-1,-1,-1,-1,-1,-1,-1,-1,-1,-1,-1,-1,-1,-1,-1,-1,-1],"split_conditions":[9.255E2,8.0005426E-5,-6.676275E-3,-3.312949E-3,3.7256354E-3,-1.2215655E-2,-3.6489265E-3,-8.140583E-3,-0E0,8.403437E-3,-0E0,-1.2421817E-2,-0E0,-6.861453E-3,-0E0,-0E0,-9.595681E-3,-0E0,1.6932959E-2,-0E0,-2.013494E-4,-0E0,-1.2644708E-2,-1.1383096E-2,-0E0,9.2209544E-4,-2.2954287E-3,-9.916951E-3,-0E0,1.305354E-3,-0E0,1.7593067E-2,-0E0,-0E0,2.1136482E-3,-2.2012794E-3,-0E0,-0E0,-1.2667145E-2,-0E0,-1.2145833E-2,-1.5082733E-4,-0E0,-0E0,3.7694068E-3,-3.6786436E-3,-0E0,-1.0194632E-2,-0E0,-0E0,2.620596E-3,-0E0,1.7911188E-2,-0E0,3.9601433E-3,-4.388337E-3,-0E0,-0E0,-1.26921395E-2,-0E0,-1.2641974E-2,-0E0,-3.3482345E-4,7.9373745E-3,-0E0,-4.037483E-3,-0E0,1.8095227E-2,-0E0,4.5475354E-3,-0E0,-0E0,-4.6115704E-3,-1.282216E-2,-0E0,-0E0,-5.058619E-4,1.0786677E-2,-0E0,-0E0,-4.2506503E-3,1.813584E-2,-0E0,5.1859953E-3,-0E0,-0E0,-1.296242E-2,-7.0171093E-4,-0E0,-0E0,1.3221781E-2,-4.4765505E-3,-0E0,-0E0,5.2280286E-3,-1.3534975E-3,-0E0,-1.4094785E-3,-0E0],"split_indices":[6,5,5,2147483647,2147483647,2147483647,2147483647,2147483647,2147483647,2147483647,2147483647,2147483647,2147483647,2147483647,2147483647,2147483647,2147483647,2147483647,2147483647,2147483647,2147483647,2147483647,2147483647,2147483647,2147483647,2147483647,2147483647,2147483647,2147483647,2147483647,2147483647,2147483647,2147483647,2147483647,2147483647,2147483647,2147483647,2147483647,2147483647,2147483647,2147483647,2147483647,2147483647,2147483647,2147483647,2147483647,2147483647,2147483647,2147483647,2147483647,2147483647,2147483647,2147483647,2147483647,2147483647,2147483647,2147483647,2147483647,2147483647,2147483647,2147483647,2147483647,2147483647,2147483647,2147483647,2147483647,2147483647,2147483647,2147483647,2147483647,2147483647,2147483647,2147483647,2147483647,2147483647,2147483647,2147483647,2147483647,2147483647,2147483647,2147483647,2147483647,2147483647,2147483647,2147483647,2147483647,2147483647,2147483647,2147483647,2147483647,2147483647,2147483647,2147483647,2147483647,2147483647,2147483647,2147483647,2147483647,2147483647],"split_type":[0,0,0,0,0,0,0,0,0,0,0,0,0,0,0,0,0,0,0,0,0,0,0,0,0,0,0,0,0,0,0,0,0,0,0,0,0,0,0,0,0,0,0,0,0,0,0,0,0,0,0,0,0,0,0,0,0,0,0,0,0,0,0,0,0,0,0,0,0,0,0,0,0,0,0,0,0,0,0,0,0,0,0,0,0,0,0,0,0,0,0,0,0,0,0,0,0,0,0],"sum_hessian":[2.4E4,9.215E3,1.4785E4,3.409E3,5.806E3,4.104E3,1.0681E4,1.86E3,1.549E3,2.731E3,3.075E3,4.064E3,4E1,5.237E3,5.444E3,1.13E2,1.747E3,1.495E3,1.236E3,1.506E3,1.569E3,6.8E1,3.996E3,2.538E3,2.699E3,2.939E3,2.505E3,1.731E3,1.6E1,8.63E2,6.32E2,1.222E3,1.4E1,1.92E2,1.314E3,1.52E3,4.9E1,5E0,3.991E3,5.7E1,2.481E3,2.352E3,3.47E2,4.77E2,2.462E3,1.999E3,5.06E2,1.693E3,3.8E1,2.23E2,6.4E2,5E0,1.217E3,3.75E2,9.39E2,1.006E3,5.14E2,1.3E1,3.978E3,4.4E1,2.437E3,1.17E2,2.235E3,9.15E2,1.547E3,1.964E3,3.5E1,1.21E3,7E0,9.3E2,9E0,5E0,1.001E3,2.425E3,1.2E1,3E0,2.232E3,7.61E2,1.54E2,5E0,1.959E3,1.205E3,5E0,8.07E2,1.23E2,4E0,2.421E3,1.56E3,6.72E2,1.05E2,6.56E2,1.902E3,5.7E1,5E0,8.02E2,1.281E3,2.79E2,1.276E3,5E0],"tree_param":{"num_deleted":"96","num_feature":"7","num_nodes":"99","size_leaf_vector":"0"}},{"base_weights":[-8.191767E-3,-0E0,-2.6049852E-2,-1.4994712E-2,9.523981E-3,-0E0,-3.419402E-2,-2.0523733E-2,-0E0,-0E0,2.1560382E-2,-3.8655426E-2,-0E0,-0E0,-2.3016242E-2,-7.2589023E-3,3.0694301E-3,2.3520332E-2,-0E0,-4.0512968E-2,-0E0,-0E0,-2.4489153E-2,-0E0,-1.861655E-2,7.4788183E-3,-0E0,2.4844471E-2,-0E0,-0E0,-4.0936094E-2,-2.6321208E-2,-0E0,-2.0674396E-2,-0E0,-0E0,1.3256993E-2,2.5353333E-2,-0E0,-4.1047912E-2,-0E0,-2.7312007E-2,-0E0,-0E0,-2.0802354E-2,-0E0,1.7395332E-2,-0E0,2.5594948E-2,-0E0,1.766325E-2],"categories":[],"categories_nodes":[],"categories_segments":[],"categories_sizes":[],"default_left":[1,1,1,1,1,1,1,1,1,1,1,1,1,1,1,1,1,1,1,1,1,1,1,1,1,1,1,1,1,1,1,1,1,1,1,1,1,1,1,1,1,1,1,1,1,1,1,1,1,1,1],"id":10,"left_children":[1,3,-1,-1,-1,-1,-1,-1,-1,-1,-1,-1,-1,-1,-1,-1,-1,-1,-1,-1,-1,-1,-1,-1,-1,-1,-1,-1,-1,-1,-1,-1,-1,-1,-1,-1,-1,-1,-1,-1,-1,-1,-1,-1,-1,-1,-1,-1,-1,-1,-1],"loss_changes":[2.9585576E0,2.5819468E0,1.5567012E0,1.025377E0,1.2784984E0,0E0,5.8957624E-1,5.327687E-1,0E0,1.4506105E-1,2.818184E-1,5.3616524E-1,0E0,0E0,3.1433916E-1,4.1164726E-1,8.397347E-2,1.5157819E-1,0E0,9.026146E-2,0E0,0E0,2.7501512E-1,0E0,1.0491389E-1,1.8738106E-1,0E0,1.0209441E-1,0E0,0E0,3.1738758E-2,1.5730596E-1,0E0,6.1565638E-3,0E0,0E0,1.7919749E-1,4.8304796E-2,0E0,0E0,0E0,0E0,0E0,0E0,0E0,0E0,1.1372685E-2,0E0,0E0,0E0,0E0],"parents":[2147483647,0,0,1,1,2,2,3,3,4,4,6,6,7,7,9,9,10,10,11,11,14,14,15,15,16,16,17,17,19,19,22,22,24,24,25,25,27,27,30,30,31,31,33,33,36,36,37,37,46,46],"right_children":[2,4,-1,-1,-1,-1,-1,-1,-1,-1,-1,-1,-1,-1,-1,-1,-1,-1,-1,-1,-1,-1,-1,-1,-1,-1,-1,-1,-1,-1,-1,-1,-1,-1,-1,-1,-1,-1,-1,-1,-1,-1,-1,-1,-1,-1,-1,-1,-1,-1,-1],"split_conditions":[2.25E5,1.2969E4,-7.814956E-3,-4.4984138E-3,2.8571945E-3,-0E0,-1.0258206E-2,-6.15712E-3,-0E0,-0E0,6.468115E-3,-1.1596628E-2,-0E0,-0E0,-6.904873E-3,-2.1776708E-3,9.208291E-4,7.0561E-3,-0E0,-1.2153891E-2,-0E0,-0E0,-7.346746E-3,-0E0,-5.584965E-3,2.2436455E-3,-0E0,7.4533415E-3,-0E0,-0E0,-1.2280828E-2,-7.896363E-3,-0E0,-6.202319E-3,-0E0,-0E0,3.977098E-3,7.606E-3,-0E0,-1.2314375E-2,-0E0,-8.193603E-3,-0E0,-0E0,-6.2407064E-3,-0E0,5.2186E-3,-0E0,7.6784845E-3,-0E0,5.298975E-3],"split_indices":[0,5,5,4,4,2147483647,2147483647,2147483647,2147483647,2147483647,2147483647,2147483647,2147483647,2147483647,2147483647,2147483647,2147483647,2147483647,2147483647,2147483647,2147483647,2147483647,2147483647,2147483647,2147483647,2147483647,2147483647,2147483647,2147483647,2147483647,2147483647,2147483647,2147483647,2147483647,2147483647,2147483647,2147483647,2147483647,2147483647,2147483647,2147483647,2147483647,2147483647,2147483647,2147483647,2147483647,2147483647,2147483647,2147483647,2147483647,2147483647],"split_type":[0,0,0,0,0,0,0,0,0,0,0,0,0,0,0,0,0,0,0,0,0,0,0,0,0,0,0,0,0,0,0,0,0,0,0,0,0,0,0,0,0,0,0,0,0,0,0,0,0,0,0],"sum_hessian":[2.4E4,1.7267E4,6.733E3,7.572E3,9.695E3,1.494E3,5.239E3,6.476E3,1.096E3,5.053E3,4.642E3,4.494E3,7.45E2,3.21E2,6.155E3,2.252E3,2.801E3,4.41E3,2.32E2,4.418E3,7.6E1,1.94E2,5.961E3,7.22E2,1.53E3,1.973E3,8.28E2,4.198E3,2.12E2,3.7E1,4.381E3,5.557E3,4.04E2,1.486E3,4.4E1,2.79E2,1.694E3,4.19E3,8E0,4.376E3,5E0,5.372E3,1.85E2,4E0,1.482E3,1.18E2,1.576E3,5E0,4.185E3,1.1E1,1.565E3],"tree_param":{"num_deleted":"46","num_feature":"7","num_nodes":"51","size_leaf_vector":"0"}},{"base_weights":[-5.734303E-3,-1.5079804E-2,5.1999576E-3,-0E0,-2.083777E-2,-5.6814263E-3,1.9637147E-2,-0E0,-2.8418278E-2,-0E0,-1.5218135E-2,3.165997E-2,-0E0,-4.5445104E-4,-0E0,-2.9517733E-2,-0E0,-0E0,-1.922894E-2,3.4326952E-2,-0E0,-5.1027117E-3,-0E0,-2.9917771E-2,-0E0,-0E0,-1.9959867E-2,3.6805093E-2,-0E0,-7.584943E-3,-0E0,-3.005964E-2,-0E0,-0E0,-2.0280432E-2,-0E0,-1.0248266E-2,-1.1351237E-2,-0E0],"categories":[],"categories_nodes":[],"categories_segments":[],"categories_sizes":[],"default_left":[1,1,1,1,1,1,1,1,1,1,1,1,1,1,1,1,1,1,1,1,1,1,1,1,1,1,1,1,1,1,1,1,1,1,1,1,1,1,1],"id":11,"left_children":[1,-1,-1,-1,-1,-1,-1,-1,-1,-1,-1,-1,-1,-1,-1,-1,-1,-1,-1,-1,-1,-1,-1,-1,-1,-1,-1,-1,-1,-1,-1,-1,-1,-1,-1,-1,-1,-1,-1],"loss_changes":[2.7686517E0,1.2704585E0,1.9362168E0,0E0,1.2849402E0,5.010947E-1,1.5166831E0,5.5558776E-4,3.9224482E-1,0E0,2.7962685E-1,4.1566944E-1,0E0,5.894471E-2,0E0,1.3830662E-1,0E0,0E0,3.020513E-2,2.8415704E-1,0E0,6.943683E-2,0E0,3.9034367E-2,0E0,0E0,1.7836928E-2,0E0,0E0,9.4052136E-2,0E0,0E0,0E0,0E0,0E0,0E0,4.1433036E-2,0E0,0E0],"parents":[2147483647,0,0,1,1,2,2,4,4,5,5,6,6,7,7,8,8,10,10,11,11,13,13,15,15,18,18,19,19,21,21,23,23,26,26,29,29,36,36],"right_children":[2,-1,-1,-1,-1,-1,-1,-1,-1,-1,-1,-1,-1,-1,-1,-1,-1,-1,-1,-1,-1,-1,-1,-1,-1,-1,-1,-1,-1,-1,-1,-1,-1,-1,-1,-1,-1,-1,-1],"split_conditions":[5E-1,-4.5239413E-3,1.5599873E-3,-0E0,-6.2513314E-3,-1.704428E-3,5.8911443E-3,-0E0,-8.525484E-3,-0E0,-4.5654406E-3,9.497991E-3,-0E0,-1.3633532E-4,-0E0,-8.8553205E-3,-0E0,-0E0,-5.7686823E-3,1.0298086E-2,-0E0,-1.5308136E-3,-0E0,-8.975332E-3,-0E0,-0E0,-5.9879604E-3,1.1041529E-2,-0E0,-2.275483E-3,-0E0,-9.017892E-3,-0E0,-0E0,-6.0841297E-3,-0E0,-3.07448E-3,-3.4053712E-3,-0E0],"split_indices":[1,0,4,2147483647,2147483647,2147483647,2147483647,2147483647,2147483647,2147483647,2147483647,2147483647,2147483647,2147483647,2147483647,2147483647,2147483647,2147483647,2147483647,2147483647,2147483647,2147483647,2147483647,2147483647,2147483647,2147483647,2147483647,2147483647,2147483647,2147483647,2147483647,2147483647,2147483647,2147483647,2147483647,2147483647,2147483647,2147483647,2147483647],"split_type":[0,0,0,0,0,0,0,0,0,0,0,0,0,0,0,0,0,0,0,0,0,0,0,0,0,0,0,0,0,0,0,0,0,0,0,0,0,0,0],"sum_hessian":[2.4E4,1.4518E4,9.482E3,3.989E3,1.0529E4,4.143E3,5.339E3,3.277E3,7.252E3,1.402E3,2.741E3,3.567E3,1.772E3,2.69E3,5.87E2,7.172E3,8E1,2.68E2,2.473E3,3.387E3,1.8E2,2.285E3,4.05E2,7.136E3,3.6E1,1.02E2,2.371E3,3.156E3,2.31E2,2.241E3,4.4E1,7.112E3,2.4E1,3.1E1,2.34E3,1.18E2,2.123E3,2.052E3,7.1E1],"tree_param":{"num_deleted":"36","num_feature":"7","num_nodes":"39","size_leaf_vector":"0"}},{"base_weights":[-3.6140315E-3,-1.3387405E-2,4.2835246E-3,-2.389491E-2,-0E0,-1.9453944E-3,1.8939283E-2,-0E0,-3.573855E-2,-0E0,-8.446141E-3,2.5852254E-2,-0E0,-2.91154E-3,-0E0,-0E0,-3.732459E-2,-0E0,5.882562E-4,-9.922844E-3,-0E0,-0E0,2.685062E-2,-6.5061958E-3,-0E0,-3.7692938E-2,-0E0,2.6902685E-2,-0E0],"categories":[],"categories_nodes":[],"categories_segments":[],"categories_sizes":[],"default_left":[1,1,1,1,1,1,1,1,1,1,1,1,1,1,1,1,1,1,1,1,1,1,1,1,1,1,1,1,1],"id":12,"left_children":[1,-1,-1,-1,-1,-1,-1,-1,-1,-1,-1,-1,-1,-1,-1,-1,-1,-1,-1,-1,-1,-1,-1,-1,-1,-1,-1,-1,-1],"loss_changes":[2.1438046E0,1.4547265E0,1.5902772E0,1.3768601E0,0E0,3.1179264E-1,6.909833E-1,1.0495982E-2,3.660288E-1,5.205084E-4,1.0587278E-1,1.758337E-2,0E0,2.9301636E-2,0E0,0E0,7.5315475E-2,0E0,0E0,0E0,0E0,0E0,3.130436E-3,0E0,0E0,0E0,0E0,0E0,0E0],"parents":[2147483647,0,0,1,1,2,2,3,3,5,5,6,6,7,7,8,8,9,9,10,10,11,11,13,13,16,16,22,22],"right_children":[2,-1,-1,-1,-1,-1,-1,-1,-1,-1,-1,-1,-1,-1,-1,-1,-1,-1,-1,-1,-1,-1,-1,-1,-1,-1,-1,-1,-1],"split_conditions":[3.45E1,-4.016222E-3,1.2850574E-3,-7.168473E-3,-0E0,-5.8361836E-4,5.681785E-3,-0E0,-1.0721565E-2,-0E0,-2.5338423E-3,7.7556763E-3,-0E0,-8.73462E-4,-0E0,-0E0,-1.1197377E-2,-0E0,1.7647687E-4,-2.9768534E-3,-0E0,-0E0,8.055187E-3,-1.9518588E-3,-0E0,-1.1307882E-2,-0E0,8.070806E-3,-0E0],"split_indices":[4,2,1,2147483647,2147483647,2147483647,2147483647,2147483647,2147483647,2147483647,2147483647,2147483647,2147483647,2147483647,2147483647,2147483647,2147483647,2147483647,2147483647,2147483647,2147483647,2147483647,2147483647,2147483647,2147483647,2147483647,2147483647,2147483647,2147483647],"split_type":[0,0,0,0,0,0,0,0,0,0,0,0,0,0,0,0,0,0,0,0,0,0,0,0,0,0,0,0,0],"sum_hessian":[2.4E4,1.2537E4,1.1463E4,6.483E3,6.054E3,6.512E3,4.951E3,2.507E3,3.976E3,1.796E3,4.716E3,3.691E3,1.26E3,1.238E3,1.269E3,6.8E1,3.908E3,2.92E2,1.504E3,4.492E3,2.24E2,2.45E2,3.446E3,9.4E2,2.98E2,3.885E3,2.3E1,3.437E3,9E0],"tree_param":{"num_deleted":"26","num_feature":"7","num_nodes":"29","size_leaf_vector":"0"}},{"base_weights":[-2.1298435E-3,7.730982E-3,-1.2843327E-2,-0E0,2.4567083E-2,-2.0273015E-2,-0E0,5.3905747E-3,-6.1905477E-3,4.26084E-2,-0E0,-0E0,-2.190599E-2,-0E0,-6.7637083E-3,-0E0,1.0275162E-2,-6.415428E-3,-0E0,-2.1927575E-2,-0E0],"categories":[],"categories_nodes":[],"categories_segments":[],"categories_sizes":[],"default_left":[1,1,1,1,1,1,1,1,1,0,0,1,1,1,1,1,1,1,1,1,1],"id":13,"left_children":[1,3,-1,-1,9,-1,-1,-1,-1,-1,-1,-1,-1,-1,-1,-1,-1,-1,-1,-1,-1],"loss_changes":[2.6990793E0,1.8538213E0,8.582926E-1,2.4048594E-1,2.2508433E0,2.4460077E-2,9.118269E-2,6.8962544E-2,1.1836961E-2,0E0,0E0,0E0,2.6216507E-3,0E0,0E0,0E0,0E0,0E0,0E0,0E0,0E0],"parents":[2147483647,0,0,1,1,2,2,3,3,4,4,5,5,6,6,7,7,8,8,12,12],"right_children":[2,4,-1,-1,10,-1,-1,-1,-1,-1,-1,-1,-1,-1,-1,-1,-1,-1,-1,-1,-1],"split_conditions":[5E-1,5E-1,-3.8529981E-3,-0E0,2.15E5,-6.0819048E-3,-0E0,1.6171725E-3,-1.8571644E-3,1.2782521E-2,-0E0,-0E0,-6.571797E-3,-0E0,-2.0291125E-3,-0E0,3.0825487E-3,-1.9246285E-3,-0E0,-6.5782727E-3,-0E0],"split_indices":[3,1,2,0,0,2147483647,2147483647,2147483647,2147483647,0,0,2147483647,2147483647,2147483647,2147483647,2147483647,2147483647,2147483647,2147483647,2147483647,2147483647],"split_type":[0,0,0,0,0,0,0,0,0,0,0,0,0,0,0,0,0,0,0,0,0],"sum_hessian":[2.4E4,1.0942E4,1.3058E4,6.787E3,4.155E3,7.329E3,5.729E3,2.118E3,4.669E3,2.621E3,1.534E3,1.001E3,6.328E3,3.736E3,1.993E3,8.82E2,1.236E3,4.635E3,3.4E1,6.321E3,7E0],"tree_param":{"num_deleted":"14","num_feature":"7","num_nodes":"21","size_leaf_vector":"0"}},{"base_weights":[-1.4294555E-3,9.932459E-4,-1.725421E-2,1.1546339E-2,-4.1952142E-3,-0E0,-2.5864681E-2,-0E0,2.4092821E-2,-7.348651E-3,-0E0,-3.1310882E-2,-0E0,2.5726479E-2,-0E0,-0E0,-9.386132E-3,4.5785294E-3,-0E0,-3.304625E-2,-0E0,2.6851999E-2,-0E0,-0E0,-1.0635148E-2,6.396351E-3,-0E0,-1.1632093E-2,-0E0,-0E0,-3.729428E-2,-0E0,2.7569719E-2,-1.1303039E-2,-0E0,-0E0,7.360084E-3,-0E0,-1.4551058E-2,-0E0,-3.7785135E-2,-1.3549737E-2,-0E0,7.809765E-3,-0E0,-1.486162E-2,-0E0,-3.793493E-2,-0E0,-1.3656994E-2,-0E0,8.147444E-3,-0E0,-0E0,8.233541E-3,-0E0,8.259368E-3],"categories":[],"categories_nodes":[],"categories_segments":[],"categories_sizes":[],"default_left":[1,1,1,1,1,1,1,1,1,1,1,1,1,1,1,1,1,1,1,1,1,1,1,1,1,1,1,1,1,1,1,1,1,1,1,1,1,1,1,1,1,1,1,1,1,1,1,1,1,1,1,1,1,1,1,1,1],"id":14,"left_children":[-1,-1,-1,-1,-1,-1,-1,-1,-1,-1,-1,-1,-1,-1,-1,-1,-1,-1,-1,-1,-1,-1,-1,-1,-1,-1,-1,-1,-1,-1,-1,-1,-1,-1,-1,-1,-1,-1,-1,-1,-1,-1,-1,-1,-1,-1,-1,-1,-1,-1,-1,-1,-1,-1,-1,-1,-1],"loss_changes":[1.4404875E0,1.2788697E0,1.0019404E0,1.1733378E0,2.1413378E-1,0E0,7.303674E-1,0E0,2.981069E-1,2.2993842E-1,4.041993E-2,3.0263996E-1,0E0,1.939137E-1,0E0,0E0,1.623103E-1,3.5153583E-2,1.46152E-1,8.9935064E-2,0E0,1.320262E-1,0E0,0E0,8.912647E-2,2.3567915E-2,0E0,7.662581E-2,0E0,0E0,3.530717E-2,0E0,0E0,8.974844E-2,0E0,0E0,1.2301646E-2,0E0,8.727446E-3,0E0,2.0211697E-2,2.990663E-3,0E0,5.7962686E-3,0E0,0E0,0E0,0E0,0E0,0E0,0E0,3.8936734E-4,0E0,0E0,2.616197E-4,0E0,0E0],"parents":[2147483647,0,0,1,1,2,2,3,3,4,4,6,6,8,8,9,9,10,10,11,11,13,13,16,16,17,17,18,18,19,19,21,21,24,24,25,25,27,27,30,30,33,33,36,36,38,38,40,40,41,41,43,43,51,51,54,54],"right_children":[-1,-1,-1,-1,-1,-1,-1,-1,-1,-1,-1,-1,-1,-1,-1,-1,-1,-1,-1,-1,-1,-1,-1,-1,-1,-1,-1,-1,-1,-1,-1,-1,-1,-1,-1,-1,-1,-1,-1,-1,-1,-1,-1,-1,-1,-1,-1,-1,-1,-1,-1,-1,-1,-1,-1,-1,-1],"split_conditions":[-4.2883665E-4,2.9797378E-4,-5.176263E-3,3.4639018E-3,-1.2585643E-3,-0E0,-7.759405E-3,-0E0,7.227847E-3,-2.2045954E-3,-0E0,-9.3932655E-3,-0E0,7.7179438E-3,-0E0,-0E0,-2.8158396E-3,1.3735589E-3,-0E0,-9.913875E-3,-0E0,8.0556E-3,-0E0,-0E0,-3.1905444E-3,1.9189053E-3,-0E0,-3.4896282E-3,-0E0,-0E0,-1.11882845E-2,-0E0,8.270916E-3,-3.390912E-3,-0E0,-0E0,2.2080252E-3,-0E0,-4.3653175E-3,-0E0,-1.1335541E-2,-4.0649213E-3,-0E0,2.3429296E-3,-0E0,-4.458486E-3,-0E0,-1.1380479E-2,-0E0,-4.0970985E-3,-0E0,2.4442333E-3,-0E0,-0E0,2.4700623E-3,-0E0,2.4778105E-3],"split_indices":[0,2147483647,2147483647,2147483647,2147483647,2147483647,2147483647,2147483647,2147483647,2147483647,2147483647,2147483647,2147483647,2147483647,2147483647,2147483647,2147483647,2147483647,2147483647,2147483647,2147483647,2147483647,2147483647,2147483647,2147483647,2147483647,2147483647,2147483647,2147483647,2147483647,2147483647,2147483647,2147483647,2147483647,2147483647,2147483647,2147483647,2147483647,2147483647,2147483647,2147483647,2147483647,2147483647,2147483647,2147483647,2147483647,2147483647,2147483647,2147483647,2147483647,2147483647,2147483647,2147483647,2147483647,2147483647,2147483647,2147483647],"split_type":[0,0,0,0,0,0,0,0,0,0,0,0,0,0,0,0,0,0,0,0,0,0,0,0,0,0,0,0,0,0,0,0,0,0,0,0,0,0,0,0,0,0,0,0,0,0,0,0,0,0,0,0,0,0,0,0,0],"sum_hessian":[2.4E4,1.906E4,4.94E3,8.315E3,1.0745E4,1.244E3,3.696E3,4.384E3,3.931E3,7.467E3,3.278E3,3.267E3,4.29E2,3.898E3,3.3E1,2.8E2,7.187E3,1.928E3,1.35E3,3.21E3,5.7E1,3.847E3,5.1E1,1.54E2,7.033E3,1.847E3,8.1E1,1.08E3,2.7E2,6.25E2,2.585E3,2.4E1,3.823E3,6.924E3,1.09E2,1.7E1,1.83E3,2.8E1,1.052E3,4.2E1,2.543E3,5.307E3,1.617E3,1.827E3,3E0,1.048E3,4E0,2.537E3,6E0,5.24E3,6.7E1,1.766E3,6.1E1,3.1E1,1.735E3,7E0,1.728E3],"tree_param":{"num_deleted":"56","num_feature":"7","num_nodes":"57","size_leaf_vector":"0"}},{"base_weights":[-1.0006229E-3,2.0952274E-3,-1.7957214E-2,1.1597171E-2,-0E0,-3.1030372E-2,-0E0,-0E0,5.7212472E-2,-4.852887E-3,2.3284776E-4,-3.1382192E-2,-0E0,-4.3811454E-3,2.3925242E-3,5.9417583E-2,-0E0,-7.0954426E-3,-0E0,-0E0,7.3936633E-3,-3.169854E-2,-0E0,-1.1063909E-2,-0E0,6.1714007E-3,-0E0,6.1890837E-2,-0E0,-0E0,-9.382662E-3,-0E0,1.2454333E-2,-0E0,-3.185975E-2,-0E0,-1.6433345E-2,-0E0,1.0435734E-2,-0E0,6.292436E-2,-0E0,-1.0821262E-2,1.5928918E-2,-0E0,-0E0,-3.198198E-2,-1.9293625E-2,-0E0,1.0550625E-2,-0E0,6.361541E-2,-0E0,-1.1419683E-2,-0E0,-0E0,1.7778289E-2,-1.9658996E-2,-0E0,-0E0,-1.1922385E-2,1.9809375E-2,-0E0,-0E0,-1.2012912E-2],"categories":[],"categories_nodes":[],"categories_segments":[],"categories_sizes":[],"default_left":[1,1,1,1,1,1,1,1,1,1,1,1,1,1,1,1,1,1,1,1,1,1,1,1,1,1,1,1,1,1,1,1,1,1,1,1,1,1,1,1,1,1,1,1,1,1,1,1,1,1,1,1,1,1,1,1,1,1,1,1,1,1,1,1,1],"id":15,"left_children":[1,3,-1,7,-1,-1,-1,-1,-1,-1,-1,-1,-1,-1,-1,-1,-1,-1,-1,-1,-1,-1,-1,-1,-1,-1,-1,-1,-1,-1,-1,-1,-1,-1,-1,-1,-1,-1,-1,-1,-1,-1,-1,-1,-1,-1,-1,-1,-1,-1,-1,-1,-1,-1,-1,-1,-1,-1,-1,-1,-1,-1,-1,-1,-1],"loss_changes":[1.7674799E0,7.134673E-1,1.1216141E0,3.4864087E0,1.5036835E-1,5.372691E-2,0E0,6.0711008E-2,2.834792E-1,1.23362616E-1,1.5185197E-1,4.237604E-2,0E0,1.5172024E-1,5.4685302E-2,1.4283276E-1,0E0,6.397876E-2,0E0,0E0,2.5840265E-1,2.578926E-2,0E0,2.1419805E-1,0E0,1.0888741E-1,0E0,1.387639E-1,0E0,0E0,5.611214E-2,0E0,2.1310818E-1,0E0,1.6563416E-2,0E0,3.1160593E-2,0E0,2.4352074E-3,0E0,7.8718185E-2,0E0,4.4069767E-2,1.3806343E-1,0E0,0E0,0E0,8.550018E-3,0E0,0E0,0E0,0E0,0E0,1.6626924E-2,0E0,0E0,1.3455719E-1,0E0,0E0,0E0,4.325688E-3,0E0,0E0,0E0,0E0],"parents":[2147483647,0,0,1,1,2,2,3,3,4,4,5,5,7,7,8,8,9,9,10,10,11,11,13,13,14,14,15,15,17,17,20,20,21,21,23,23,25,25,27,27,30,30,32,32,34,34,36,36,38,38,40,40,42,42,43,43,47,47,53,53,56,56,60,60],"right_children":[2,4,-1,8,-1,-1,-1,-1,-1,-1,-1,-1,-1,-1,-1,-1,-1,-1,-1,-1,-1,-1,-1,-1,-1,-1,-1,-1,-1,-1,-1,-1,-1,-1,-1,-1,-1,-1,-1,-1,-1,-1,-1,-1,-1,-1,-1,-1,-1,-1,-1,-1,-1,-1,-1,-1,-1,-1,-1,-1,-1,-1,-1,-1,-1],"split_conditions":[4.719E3,6.75E1,-5.3871647E-3,1.30345E4,-0E0,-9.309112E-3,-0E0,-0E0,1.7163742E-2,-1.455866E-3,6.985433E-5,-9.414658E-3,-0E0,-1.3143437E-3,7.1775727E-4,1.7825276E-2,-0E0,-2.128633E-3,-0E0,-0E0,2.218099E-3,-9.5095625E-3,-0E0,-3.319173E-3,-0E0,1.8514203E-3,-0E0,1.8567251E-2,-0E0,-0E0,-2.8147988E-3,-0E0,3.7363E-3,-0E0,-9.557926E-3,-0E0,-4.9300035E-3,-0E0,3.1307202E-3,-0E0,1.8877309E-2,-0E0,-3.2463789E-3,4.7786757E-3,-0E0,-0E0,-9.594594E-3,-5.788088E-3,-0E0,3.1651875E-3,-0E0,1.9084625E-2,-0E0,-3.425905E-3,-0E0,-0E0,5.333487E-3,-5.897699E-3,-0E0,-0E0,-3.5767155E-3,5.9428127E-3,-0E0,-0E0,-3.6038738E-3],"split_indices":[6,6,5,5,4,2147483647,2147483647,4,5,2147483647,2147483647,2147483647,2147483647,2147483647,2147483647,2147483647,2147483647,2147483647,2147483647,2147483647,2147483647,2147483647,2147483647,2147483647,2147483647,2147483647,2147483647,2147483647,2147483647,2147483647,2147483647,2147483647,2147483647,2147483647,2147483647,2147483647,2147483647,2147483647,2147483647,2147483647,2147483647,2147483647,2147483647,2147483647,2147483647,2147483647,2147483647,2147483647,2147483647,2147483647,2147483647,2147483647,2147483647,2147483647,2147483647,2147483647,2147483647,2147483647,2147483647,2147483647,2147483647,2147483647,2147483647,2147483647,2147483647],"split_type":[0,0,0,0,0,0,0,0,0,0,0,0,0,0,0,0,0,0,0,0,0,0,0,0,0,0,0,0,0,0,0,0,0,0,0,0,0,0,0,0,0,0,0,0,0,0,0,0,0,0,0,0,0,0,0,0,0,0,0,0,0,0,0,0,0],"sum_hessian":[2.4E4,1.8699E4,5.301E3,5.915E3,1.2784E4,2.94E3,2.361E3,4.607E3,1.308E3,6.37E3,6.414E3,2.929E3,1.1E1,2.549E3,2.058E3,1.293E3,1.5E1,5.43E3,9.4E2,3.63E3,2.784E3,2.913E3,1.6E1,1.639E3,9.1E2,1.745E3,3.13E2,1.229E3,6.4E1,1.598E3,3.832E3,1.37E2,2.647E3,4E0,2.909E3,1.03E2,1.536E3,1.35E2,1.61E3,5E0,1.224E3,4.72E2,3.36E3,2.458E3,1.89E2,6E0,2.903E3,1.198E3,3.38E2,1.597E3,1.3E1,1.217E3,7E0,3.355E3,5E0,4.8E1,2.41E3,1.176E3,2.2E1,1.6E2,3.195E3,2.284E3,1.26E2,1.8E1,3.177E3],"tree_param":{"num_deleted":"58","num_feature":"7","num_nodes":"65","size_leaf_vector":"0"}},{"base_weights":[-7.46159E-4,1.219497E-3,-1.480756E-2,-1.2061883E-2,5.8548185E-3,-0E0,-2.296482E-2,-1.6841104E-2,-0E0,-0E0,1.2499611E-2,-2.865155E-2,-0E0,-0E0,-2.1296207E-2,1.1475479E-2,-3.7989449E-3,-0E0,1.7247152E-2,-3.036987E-2,-0E0,-2.607336E-2,-0E0,-0E0,1.6625978E-2,-1.6894018E-2,-0E0,1.9803418E-2,-0E0,-0E0,-3.459409E-2,-2.833013E-2,-0E0,1.822397E-2,-0E0,-0E0,-2.7665535E-2,1.13024255E-2,-0E0,-0E0,2.1538207E-2,-0E0,-3.5087682E-2,1.9207185E-2,-0E0,-0E0,-2.9599477E-2,-0E0,2.7353786E-2,-1.8111743E-2,3.388067E-4,2.1809151E-2,-0E0,-3.524273E-2,-0E0,-0E0,1.934529E-2,-3.1386115E-2,-0E0,4.120133E-2,-0E0,-0E0,-2.1460865E-2,-0E0,1.2263458E-2,-0E0,2.2022592E-2,-0E0,-3.1786717E-2,-2.2019895E-2,-0E0,1.8585406E-2,-0E0,2.2168767E-2,-0E0,-3.1904895E-2,-0E0,2.2147695E-2,-0E0],"categories":[],"categories_nodes":[],"categories_segments":[],"categories_sizes":[],"default_left":[1,1,1,1,1,1,1,1,1,1,1,1,1,1,1,1,1,1,1,1,1,1,1,1,1,1,1,1,1,1,1,1,1,1,1,1,1,1,1,1,1,1,1,1,1,1,1,1,1,1,1,1,1,1,1,1,1,1,1,1,1,1,1,1,1,1,1,1,1,1,1,1,1,1,1,1,1,1,1],"id":16,"left_children":[-1,-1,-1,-1,-1,-1,-1,-1,-1,-1,-1,-1,-1,-1,-1,-1,-1,-1,-1,-1,-1,-1,-1,-1,-1,-1,-1,-1,-1,-1,-1,-1,-1,-1,-1,-1,-1,-1,-1,-1,-1,-1,-1,-1,-1,-1,-1,-1,-1,-1,-1,-1,-1,-1,-1,-1,-1,-1,-1,-1,-1,-1,-1,-1,-1,-1,-1,-1,-1,-1,-1,-1,-1,-1,-1,-1,-1,-1,-1],"loss_changes":[1.0981824E0,9.7479516E-1,8.660941E-1,2.929253E-1,7.0923686E-1,0E0,7.3275745E-1,3.4800756E-1,0E0,2.883976E-1,4.1194928E-1,2.7877522E-1,0E0,0E0,3.285333E-1,1.8899955E-1,6.032904E-1,0E0,2.910627E-1,1.3296986E-1,0E0,1.4456105E-1,0E0,0E0,6.7953795E-2,6.500802E-1,1.4552209E-1,2.7638757E-1,0E0,0E0,3.720689E-2,0E0,0E0,4.7991633E-2,0E0,0E0,1.0184181E-1,4.7338524E-1,5.148841E-1,0E0,5.4186344E-2,0E0,2.0279646E-2,5.3599477E-3,0E0,0E0,1.1401737E-1,0E0,3.4218138E-1,1.8908322E-1,1.0951698E-1,4.258561E-2,0E0,0E0,0E0,0E0,0E0,1.5866518E-2,0E0,0E0,0E0,0E0,3.472066E-2,0E0,1.3011521E-1,0E0,2.957201E-2,0E0,7.679105E-3,0E0,0E0,9.581989E-2,0E0,0E0,0E0,0E0,0E0,0E0,0E0],"parents":[2147483647,0,0,1,1,2,2,3,3,4,4,6,6,7,7,9,9,10,10,11,11,14,14,15,15,16,16,18,18,19,19,21,21,24,24,25,25,26,26,27,27,30,30,33,33,36,36,37,37,38,38,40,40,42,42,43,43,46,46,48,48,49,49,50,50,51,51,57,57,62,62,64,64,66,66,68,68,71,71],"right_children":[-1,-1,-1,-1,-1,-1,-1,-1,-1,-1,-1,-1,-1,-1,-1,-1,-1,-1,-1,-1,-1,-1,-1,-1,-1,-1,-1,-1,-1,-1,-1,-1,-1,-1,-1,-1,-1,-1,-1,-1,-1,-1,-1,-1,-1,-1,-1,-1,-1,-1,-1,-1,-1,-1,-1,-1,-1,-1,-1,-1,-1,-1,-1,-1,-1,-1,-1,-1,-1,-1,-1,-1,-1,-1,-1,-1,-1,-1,-1],"split_conditions":[-2.238477E-4,3.658491E-4,-4.442268E-3,-3.618565E-3,1.7564456E-3,-0E0,-6.889446E-3,-5.0523314E-3,-0E0,-0E0,3.7498835E-3,-8.595466E-3,-0E0,-0E0,-6.388862E-3,3.442644E-3,-1.1396835E-3,-0E0,5.1741456E-3,-9.110961E-3,-0E0,-7.822009E-3,-0E0,-0E0,4.9877935E-3,-5.0682058E-3,-0E0,5.9410254E-3,-0E0,-0E0,-1.0378227E-2,-8.499039E-3,-0E0,5.467191E-3,-0E0,-0E0,-8.299661E-3,3.3907278E-3,-0E0,-0E0,6.4614625E-3,-0E0,-1.0526305E-2,5.7621556E-3,-0E0,-0E0,-8.879843E-3,-0E0,8.2061365E-3,-5.433523E-3,1.0164202E-4,6.5427455E-3,-0E0,-1.0572819E-2,-0E0,-0E0,5.803587E-3,-9.415835E-3,-0E0,1.23604E-2,-0E0,-0E0,-6.4382595E-3,-0E0,3.6790376E-3,-0E0,6.6067777E-3,-0E0,-9.536016E-3,-6.605969E-3,-0E0,5.575622E-3,-0E0,6.6506304E-3,-0E0,-9.571468E-3,-0E0,6.6443086E-3,-0E0],"split_indices":[0,2147483647,2147483647,2147483647,2147483647,2147483647,2147483647,2147483647,2147483647,2147483647,2147483647,2147483647,2147483647,2147483647,2147483647,2147483647,2147483647,2147483647,2147483647,2147483647,2147483647,2147483647,2147483647,2147483647,2147483647,2147483647,2147483647,2147483647,2147483647,2147483647,2147483647,2147483647,2147483647,2147483647,2147483647,2147483647,2147483647,2147483647,2147483647,2147483647,2147483647,2147483647,2147483647,2147483647,2147483647,2147483647,2147483647,2147483647,2147483647,2147483647,2147483647,2147483647,2147483647,2147483647,2147483647,2147483647,2147483647,2147483647,2147483647,2147483647,2147483647,2147483647,2147483647,2147483647,2147483647,2147483647,2147483647,2147483647,2147483647,2147483647,2147483647,2147483647,2147483647,2147483647,2147483647,2147483647,2147483647,2147483647,2147483647],"split_type":[0,0,0,0,0,0,0,0,0,0,0,0,0,0,0,0,0,0,0,0,0,0,0,0,0,0,0,0,0,0,0,0,0,0,0,0,0,0,0,0,0,0,0,0,0,0,0,0,0,0,0,0,0,0,0,0,0,0,0,0,0,0,0,0,0,0,0,0,0,0,0,0,0,0,0,0,0,0,0],"sum_hessian":[2.4E4,1.906E4,4.94E3,3.145E3,1.5915E4,1.244E3,3.696E3,2.646E3,4.99E2,7.884E3,8.031E3,3.267E3,4.29E2,2.24E2,2.422E3,1.489E3,6.395E3,2.428E3,5.603E3,3.21E3,5.7E1,2.099E3,3.23E2,9.6E1,1.393E3,2.437E3,3.958E3,4.992E3,6.11E2,6.25E2,2.585E3,1.958E3,1.41E2,1.364E3,2.9E1,6.79E2,1.758E3,1.139E3,2.819E3,1.76E2,4.816E3,4.2E1,2.543E3,1.358E3,6E0,1.06E2,1.652E3,3.12E2,8.27E2,1.569E3,1.25E3,4.811E3,5E0,2.537E3,6E0,5E0,1.353E3,1.585E3,6.7E1,5.66E2,2.61E2,4.1E1,1.528E3,5.21E2,7.29E2,5E0,4.806E3,2.4E1,1.561E3,1.523E3,5E0,6.94E2,3.5E1,4.803E3,3E0,1.557E3,4E0,6.84E2,1E1],"tree_param":{"num_deleted":"78","num_feature":"7","num_nodes":"79","size_leaf_vector":"0"}},{"base_weights":[-5.2231527E-4,5.6416495E-3,-8.138013E-3,-0E0,1.7370744E-2,-9.999526E-3,-0E0,-2.7508466E-3,-0E0,-0E0,1.9224703E-2,-0E0,-1.0770092E-2,-8.364022E-3,-0E0,1.9676974E-3,-0E0,-0E0,2.0182874E-2,-1.3043258E-2,-0E0,-0E0,-1.0042816E-2,3.1526077E-3,-0E0,2.0380959E-2,-0E0,-0E0,-1.0706119E-2,-0E0,4.182888E-3,2.061093E-2,-0E0,-1.0838982E-2,-0E0],"categories":[],"categories_nodes":[],"categories_segments":[],"categories_sizes":[],"default_left":[1,1,1,1,1,1,1,1,1,1,1,1,1,1,1,1,1,1,1,1,1,1,1,1,1,1,1,1,1,1,1,1,1,1,1],"id":17,"left_children":[-1,-1,-1,-1,-1,-1,-1,-1,-1,-1,-1,-1,-1,-1,-1,-1,-1,-1,-1,-1,-1,-1,-1,-1,-1,-1,-1,-1,-1,-1,-1,-1,-1,-1,-1],"loss_changes":[1.2065283E0,9.055207E-1,3.3889574E-1,2.568416E-2,2.456932E-1,1.6401243E-1,0E0,1.6111201E-1,1.2100106E-2,0E0,5.9097767E-2,0E0,1.5970957E-1,7.081191E-2,0E0,1.841404E-2,0E0,0E0,2.4097323E-2,0E0,0E0,0E0,2.896297E-2,2.2730706E-2,0E0,1.2129068E-2,0E0,0E0,6.334424E-3,0E0,0E0,0E0,0E0,0E0,0E0],"parents":[2147483647,0,0,1,1,2,2,3,3,4,4,5,5,7,7,8,8,10,10,12,12,13,13,15,15,18,18,22,22,23,23,25,25,28,28],"right_children":[-1,-1,-1,-1,-1,-1,-1,-1,-1,-1,-1,-1,-1,-1,-1,-1,-1,-1,-1,-1,-1,-1,-1,-1,-1,-1,-1,-1,-1,-1,-1,-1,-1,-1,-1],"split_conditions":[-1.5669459E-4,1.692495E-3,-2.441404E-3,-0E0,5.2112234E-3,-2.9998578E-3,-0E0,-8.25254E-4,-0E0,-0E0,5.767411E-3,-0E0,-3.2310276E-3,-2.5092065E-3,-0E0,5.9030927E-4,-0E0,-0E0,6.0548624E-3,-3.912978E-3,-0E0,-0E0,-3.012845E-3,9.4578235E-4,-0E0,6.114288E-3,-0E0,-0E0,-3.2118359E-3,-0E0,1.2548665E-3,6.183279E-3,-0E0,-3.2516946E-3,-0E0],"split_indices":[3,2147483647,2147483647,2147483647,2147483647,2147483647,2147483647,2147483647,2147483647,2147483647,2147483647,2147483647,2147483647,2147483647,2147483647,2147483647,2147483647,2147483647,2147483647,2147483647,2147483647,2147483647,2147483647,2147483647,2147483647,2147483647,2147483647,2147483647,2147483647,2147483647,2147483647,2147483647,2147483647,2147483647,2147483647],"split_type":[0,0,0,0,0,0,0,0,0,0,0,0,0,0,0,0,0,0,0,0,0,0,0,0,0,0,0,0,0,0,0,0,0,0,0],"sum_hessian":[2.4E4,1.0942E4,1.3058E4,6.787E3,4.155E3,1.2038E4,1.02E3,3.394E3,3.393E3,9.8E1,4.057E3,2.47E2,1.1791E4,2.67E3,7.24E2,3.125E3,2.68E2,2.31E2,3.826E3,8.978E3,2.813E3,1.16E2,2.554E3,3.07E3,5.5E1,3.81E3,1.6E1,5.4E1,2.5E3,2.7E1,3.043E3,3.754E3,5.6E1,2.493E3,7E0],"tree_param":{"num_deleted":"34","num_feature":"7","num_nodes":"35","size_leaf_vector":"0"}},{"base_weights":[-3.6561646E-4,1.6000393E-3,-1.4427029E-2,-1.16813565E-2,6.23536E-3,-0E0,-2.2584295E-2,-1.6460583E-2,-0E0,-0E0,1.2880149E-2,-2.9023148E-2,-0E0,-0E0,-2.0915687E-2,1.1855983E-2,-3.4184088E-3,-0E0,1.7627686E-2,-3.0865818E-2,-0E0,-2.5692843E-2,-0E0,-0E0,1.700648E-2,-1.6513497E-2,-0E0,2.018395E-2,-0E0,-3.103791E-2,-0E0,-2.7949616E-2,-0E0,1.8604469E-2,-0E0,-0E0,-2.7285025E-2,-7.727138E-4,8.047531E-3,-0E0,2.191874E-2,1.9587684E-2,-0E0,-0E0,-2.9218968E-2,-0E0,-7.899726E-3,2.5433837E-2,-0E0,2.2189684E-2,-0E0,-0E0,1.9725788E-2,-3.1005608E-2,-0E0,-0E0,-9.357263E-3,4.5427177E-2,-0E0,-0E0,2.2403125E-2,-0E0,-3.1406213E-2,-1.0584541E-2,-0E0,4.9154364E-2,-0E0,2.25493E-2,-0E0,-3.152439E-2,-0E0,-0E0,5.0278656E-2],"categories":[],"categories_nodes":[],"categories_segments":[],"categories_sizes":[],"default_left":[1,1,1,1,1,1,1,1,1,1,1,1,1,1,1,1,1,1,1,1,1,1,1,1,1,1,1,1,1,1,1,1,1,1,1,1,1,1,1,1,1,1,1,1,1,1,1,1,1,1,1,1,1,1,1,1,1,1,1,1,1,1,1,1,1,1,1,1,1,1,1,1,1],"id":18,"left_children":[-1,-1,-1,-1,-1,-1,-1,-1,-1,-1,-1,-1,-1,-1,-1,-1,-1,-1,-1,-1,-1,-1,-1,-1,-1,-1,-1,-1,-1,-1,-1,-1,-1,-1,-1,-1,-1,-1,-1,-1,-1,-1,-1,-1,-1,-1,-1,-1,-1,-1,-1,-1,-1,-1,-1,-1,-1,-1,-1,-1,-1,-1,-1,-1,-1,-1,-1,-1,-1,-1,-1,-1,-1],"loss_changes":[1.0738293E0,9.991509E-1,8.569877E-1,2.878094E-1,7.135786E-1,0E0,7.2617173E-1,3.426339E-1,0E0,2.8405392E-1,4.087448E-1,2.925799E-1,0E0,0E0,3.260901E-1,1.9360776E-1,5.898726E-1,0E0,2.9266608E-1,2.7655602E-2,0E0,1.4397562E-1,0E0,0E0,6.9241524E-2,6.443003E-1,1.5836062E-1,2.8006792E-1,0E0,0E0,0E0,0E0,0E0,4.892376E-2,0E0,0E0,1.01626754E-1,7.261215E-2,8.382047E-1,0E0,5.509591E-2,5.428374E-3,0E0,0E0,1.13361716E-1,0E0,2.7970374E-2,1.0084648E0,0E0,4.328227E-2,0E0,0E0,0E0,1.5960336E-2,0E0,0E0,2.276785E-2,2.7712107E-1,0E0,0E0,3.0055761E-2,0E0,7.635236E-3,0E0,0E0,9.7965956E-2,0E0,0E0,0E0,0E0,0E0,0E0,0E0],"parents":[2147483647,0,0,1,1,2,2,3,3,4,4,6,6,7,7,9,9,10,10,11,11,14,14,15,15,16,16,18,18,19,19,21,21,24,24,25,25,26,26,27,27,33,33,36,36,37,37,38,38,40,40,41,41,44,44,46,46,47,47,49,49,53,53,56,56,57,57,60,60,62,62,65,65],"right_children":[-1,-1,-1,-1,-1,-1,-1,-1,-1,-1,-1,-1,-1,-1,-1,-1,-1,-1,-1,-1,-1,-1,-1,-1,-1,-1,-1,-1,-1,-1,-1,-1,-1,-1,-1,-1,-1,-1,-1,-1,-1,-1,-1,-1,-1,-1,-1,-1,-1,-1,-1,-1,-1,-1,-1,-1,-1,-1,-1,-1,-1,-1,-1,-1,-1,-1,-1,-1,-1,-1,-1,-1,-1],"split_conditions":[-1.09684945E-4,4.800118E-4,-4.328109E-3,-3.5044071E-3,1.8706081E-3,-0E0,-6.775289E-3,-4.938175E-3,-0E0,-0E0,3.864045E-3,-8.706945E-3,-0E0,-0E0,-6.274706E-3,3.5567952E-3,-1.0255227E-3,-0E0,5.288306E-3,-9.2597455E-3,-0E0,-7.7078533E-3,-0E0,-0E0,5.101944E-3,-4.9540494E-3,-0E0,6.0551856E-3,-0E0,-9.311373E-3,-0E0,-8.384885E-3,-0E0,5.5813408E-3,-0E0,-0E0,-8.185508E-3,-2.3181415E-4,2.4142596E-3,-0E0,6.575622E-3,5.8763055E-3,-0E0,-0E0,-8.765691E-3,-0E0,-2.369918E-3,7.630151E-3,-0E0,6.6569056E-3,-0E0,-0E0,5.917737E-3,-9.301683E-3,-0E0,-0E0,-2.807179E-3,1.3628154E-2,-0E0,-0E0,6.720938E-3,-0E0,-9.4218645E-3,-3.1753622E-3,-0E0,1.4746309E-2,-0E0,6.76479E-3,-0E0,-9.457317E-3,-0E0,-0E0,1.5083597E-2],"split_indices":[0,2147483647,2147483647,2147483647,2147483647,2147483647,2147483647,2147483647,2147483647,2147483647,2147483647,2147483647,2147483647,2147483647,2147483647,2147483647,2147483647,2147483647,2147483647,2147483647,2147483647,2147483647,2147483647,2147483647,2147483647,2147483647,2147483647,2147483647,2147483647,2147483647,2147483647,2147483647,2147483647,2147483647,2147483647,2147483647,2147483647,2147483647,2147483647,2147483647,2147483647,2147483647,2147483647,2147483647,2147483647,2147483647,2147483647,2147483647,2147483647,2147483647,2147483647,2147483647,2147483647,2147483647,2147483647,2147483647,2147483647,2147483647,2147483647,2147483647,2147483647,2147483647,2147483647,2147483647,2147483647,2147483647,2147483647,2147483647,2147483647,2147483647,2147483647,2147483647,2147483647],"split_type":[0,0,0,0,0,0,0,0,0,0,0,0,0,0,0,0,0,0,0,0,0,0,0,0,0,0,0,0,0,0,0,0,0,0,0,0,0,0,0,0,0,0,0,0,0,0,0,0,0,0,0,0,0,0,0,0,0,0,0,0,0,0,0,0,0,0,0,0,0,0,0,0,0],"sum_hessian":[2.4E4,1.906E4,4.94E3,3.145E3,1.5915E4,1.244E3,3.696E3,2.646E3,4.99E2,7.884E3,8.031E3,3.1E3,5.96E2,2.24E2,2.422E3,1.489E3,6.395E3,2.428E3,5.603E3,3.048E3,5.2E1,2.099E3,3.23E2,9.6E1,1.393E3,2.437E3,3.958E3,4.992E3,6.11E2,3.043E3,5E0,1.958E3,1.41E2,1.364E3,2.9E1,6.79E2,1.758E3,1.527E3,2.431E3,1.76E2,4.816E3,1.358E3,6E0,1.06E2,1.652E3,3.49E2,1.178E3,1.539E3,8.92E2,4.811E3,5E0,5E0,1.353E3,1.585E3,6.7E1,1.9E1,1.159E3,9.71E2,5.68E2,5E0,4.806E3,2.4E1,1.561E3,1.109E3,5E1,9.44E2,2.7E1,4.803E3,3E0,1.557E3,4E0,3E0,9.41E2],"tree_param":{"num_deleted":"72","num_feature":"7","num_nodes":"73","size_leaf_vector":"0"}},{"base_weights":[-2.5593437E-4,1.7097201E-3,-1.4317345E-2,-1.157168E-2,6.3450406E-3,-0E0,-2.2474611E-2,-1.6350906E-2,-0E0,-0E0,1.2989827E-2,-2.8913466E-2,-0E0,-0E0,-2.0806013E-2,1.1965656E-2,-3.30873E-3,-0E0,1.7737363E-2,-3.0756136E-2,-0E0,-2.558317E-2,-0E0,-0E0,1.7116152E-2,-1.6403824E-2,-0E0,2.0293627E-2,-0E0,-3.0928228E-2,-0E0,-2.7839942E-2,-0E0,1.8714141E-2,-0E0,-0E0,-2.717535E-2,-6.630434E-4,8.157206E-3,-0E0,2.2028416E-2,1.9697355E-2,-0E0,-0E0,-2.9109295E-2,-0E0,-7.7900565E-3,2.5543505E-2,-0E0,2.229936E-2,-0E0,-0E0,1.9835459E-2,-3.0895935E-2,-0E0,-0E0,-9.2475945E-3,4.553684E-2,-0E0,-0E0,2.2512801E-2,-0E0,-3.129654E-2,-1.0474873E-2,-0E0,4.9264025E-2,-0E0,2.2658976E-2,-0E0,-3.1414717E-2,-0E0,-0E0,5.0388318E-2],"categories":[],"categories_nodes":[],"categories_segments":[],"categories_sizes":[],"default_left":[1,1,1,1,1,1,1,1,1,1,1,1,1,1,1,1,1,1,1,1,1,1,1,1,1,1,1,1,1,1,1,1,1,1,1,1,1,1,1,1,1,1,1,1,1,1,1,1,1,1,1,1,1,1,1,1,1,1,1,1,1,1,1,1,1,1,1,1,1,1,1,1,1],"id":19,"left_children":[-1,-1,-1,-1,-1,-1,-1,-1,-1,-1,-1,-1,-1,-1,-1,-1,-1,-1,-1,-1,-1,-1,-1,-1,-1,-1,-1,-1,-1,-1,-1,-1,-1,-1,-1,-1,-1,-1,-1,-1,-1,-1,-1,-1,-1,-1,-1,-1,-1,-1,-1,-1,-1,-1,-1,-1,-1,-1,-1,-1,-1,-1,-1,-1,-1,-1,-1,-1,-1,-1,-1,-1,-1],"loss_changes":[1.0668095E0,1.0061706E0,8.5429573E-1,2.8630802E-1,7.144061E-1,0E0,7.247386E-1,3.410731E-1,0E0,2.8322592E-1,4.0769053E-1,2.916782E-1,0E0,0E0,3.253684E-1,1.9493082E-1,5.857926E-1,0E0,2.93095E-1,2.75743E-2,0E0,1.4379942E-1,0E0,0E0,6.961113E-2,6.4259744E-1,1.6244094E-1,2.8111935E-1,0E0,0E0,0E0,0E0,0E0,4.919213E-2,0E0,0E0,1.0155916E-1,7.0825376E-2,8.424886E-1,0E0,5.5357933E-2,5.4478645E-3,0E0,0E0,1.13169074E-1,0E0,2.7632497E-2,1.0095475E0,0E0,4.348302E-2,0E0,0E0,0E0,1.5986204E-2,0E0,0E0,2.2571303E-2,2.7762365E-1,0E0,0E0,3.019476E-2,0E0,7.6224804E-3,0E0,0E0,9.816551E-2,0E0,0E0,0E0,0E0,0E0,0E0,0E0],"parents":[2147483647,0,0,1,1,2,2,3,3,4,4,6,6,7,7,9,9,10,10,11,11,14,14,15,15,16,16,18,18,19,19,21,21,24,24,25,25,26,26,27,27,33,33,36,36,37,37,38,38,40,40,41,41,44,44,46,46,47,47,49,49,53,53,56,56,57,57,60,60,62,62,65,65],"right_children":[-1,-1,-1,-1,-1,-1,-1,-1,-1,-1,-1,-1,-1,-1,-1,-1,-1,-1,-1,-1,-1,-1,-1,-1,-1,-1,-1,-1,-1,-1,-1,-1,-1,-1,-1,-1,-1,-1,-1,-1,-1,-1,-1,-1,-1,-1,-1,-1,-1,-1,-1,-1,-1,-1,-1,-1,-1,-1,-1,-1,-1,-1,-1,-1,-1,-1,-1,-1,-1,-1,-1,-1,-1],"split_conditions":[-7.6780314E-5,5.1291607E-4,-4.295204E-3,-3.4715042E-3,1.9035123E-3,-0E0,-6.742384E-3,-4.9052723E-3,-0E0,-0E0,3.8969484E-3,-8.67404E-3,-0E0,-0E0,-6.241804E-3,3.589697E-3,-9.926191E-4,-0E0,5.321209E-3,-9.226841E-3,-0E0,-7.6749516E-3,-0E0,-0E0,5.1348456E-3,-4.9211476E-3,-0E0,6.0880883E-3,-0E0,-9.278469E-3,-0E0,-8.351983E-3,-0E0,5.6142425E-3,-0E0,-0E0,-8.152605E-3,-1.9891303E-4,2.4471618E-3,-0E0,6.6085253E-3,5.909207E-3,-0E0,-0E0,-8.732789E-3,-0E0,-2.337017E-3,7.663052E-3,-0E0,6.6898083E-3,-0E0,-0E0,5.950638E-3,-9.268781E-3,-0E0,-0E0,-2.7742784E-3,1.3661052E-2,-0E0,-0E0,6.7538405E-3,-0E0,-9.388963E-3,-3.1424619E-3,-0E0,1.4779208E-2,-0E0,6.797693E-3,-0E0,-9.424415E-3,-0E0,-0E0,1.5116496E-2],"split_indices":[0,2147483647,2147483647,2147483647,2147483647,2147483647,2147483647,2147483647,2147483647,2147483647,2147483647,2147483647,2147483647,2147483647,2147483647,2147483647,2147483647,2147483647,2147483647,2147483647,2147483647,2147483647,2147483647,2147483647,2147483647,2147483647,2147483647,2147483647,2147483647,2147483647,2147483647,2147483647,2147483647,2147483647,2147483647,2147483647,2147483647,2147483647,2147483647,2147483647,2147483647,2147483647,2147483647,2147483647,2147483647,2147483647,2147483647,2147483647,2147483647,2147483647,2147483647,2147483647,2147483647,2147483647,2147483647,2147483647,2147483647,2147483647,2147483647,2147483647,2147483647,2147483647,2147483647,2147483647,2147483647,2147483647,2147483647,2147483647,2147483647,2147483647,2147483647,2147483647,2147483647],"split_type":[0,0,0,0,0,0,0,0,0,0,0,0,0,0,0,0,0,0,0,0,0,0,0,0,0,0,0,0,0,0,0,0,0,0,0,0,0,0,0,0,0,0,0,0,0,0,0,0,0,0,0,0,0,0,0,0,0,0,0,0,0,0,0,0,0,0,0,0,0,0,0,0,0],"sum_hessian":[2.4E4,1.906E4,4.94E3,3.145E3,1.5915E4,1.244E3,3.696E3,2.646E3,4.99E2,7.884E3,8.031E3,3.1E3,5.96E2,2.24E2,2.422E3,1.489E3,6.395E3,2.428E3,5.603E3,3.048E3,5.2E1,2.099E3,3.23E2,9.6E1,1.393E3,2.437E3,3.958E3,4.992E3,6.11E2,3.043E3,5E0,1.958E3,1.41E2,1.364E3,2.9E1,6.79E2,1.758E3,1.527E3,2.431E3,1.76E2,4.816E3,1.358E3,6E0,1.06E2,1.652E3,3.49E2,1.178E3,1.539E3,8.92E2,4.811E3,5E0,5E0,1.353E3,1.585E3,6.7E1,1.9E1,1.159E3,9.71E2,5.68E2,5E0,4.806E3,2.4E1,1.561E3,1.109E3,5E1,9.44E2,2.7E1,4.803E3,3E0,1.557E3,4E0,3E0,9.41E2],"tree_param":{"num_deleted":"72","num_feature":"7","num_nodes":"73","size_leaf_vector":"0"}},{"base_weights":[-1.7915407E-4,1.7864995E-3,-1.4240564E-2,-1.1494902E-2,6.42182E-3,-0E0,-2.2397833E-2,-1.627413E-2,-0E0,-0E0,1.6849851E-2,-2.883669E-2,-0E0,-0E0,-2.0729236E-2,4.964521E-3,-5.145705E-3,1.9885164E-2,-0E0,-2.9002912E-2,-0E0,-2.1918945E-2,-0E0,-7.722419E-4,1.7032929E-2,-1.4824989E-2,-0E0,6.5495507E-3,4.2118866E-2,-0E0,-1.1015451E-2,-0E0,1.9192666E-2,-0E0,-2.9161433E-2,3.7519712E-2,-0E0,4.4094924E-2,-0E0,-0E0,-1.4446039E-2,2.1314975E-2,-0E0,-0E0,3.8961057E-2,-0E0,4.506645E-2,2.3917412E-2,-0E0,3.963993E-2,-0E0],"categories":[],"categories_nodes":[],"categories_segments":[],"categories_sizes":[],"default_left":[1,1,1,1,1,1,1,1,1,1,1,1,1,1,1,1,1,1,1,1,1,1,1,1,1,1,1,1,1,1,1,1,1,1,1,1,1,1,1,1,1,1,1,1,1,1,1,1,1,1,1],"id":20,"left_children":[-1,-1,-1,-1,-1,-1,-1,-1,-1,-1,-1,-1,-1,-1,-1,-1,-1,-1,-1,-1,-1,-1,-1,-1,-1,-1,-1,-1,-1,-1,-1,-1,-1,-1,-1,-1,-1,-1,-1,-1,-1,-1,-1,-1,-1,-1,-1,-1,-1,-1,-1],"loss_changes":[1.0618954E0,1.0110846E0,8.5239387E-1,2.8524992E-1,1.1286976E0,0E0,7.2372675E-1,3.3997726E-1,0E0,2.4664126E-1,4.9501932E-1,2.5599957E-2,0E0,0E0,6.332314E-2,8.3405274E-1,6.591378E-1,1.5223312E-1,0E0,0E0,0E0,0E0,0E0,1.3503945E-1,1.122784E-1,1.002058E0,0E0,9.1349006E-1,1.9752693E-1,0E0,7.521817E-2,0E0,6.683302E-2,0E0,0E0,6.2375307E-2,0E0,8.2149506E-2,0E0,0E0,0E0,2.0887053E-1,0E0,0E0,6.5267086E-3,0E0,0E0,0E0,0E0,0E0,0E0],"parents":[2147483647,0,0,1,1,2,2,3,3,4,4,6,6,7,7,9,9,10,10,11,11,14,14,15,15,16,16,17,17,23,23,24,24,25,25,27,27,28,28,30,30,32,32,35,35,37,37,41,41,44,44],"right_children":[-1,-1,-1,-1,-1,-1,-1,-1,-1,-1,-1,-1,-1,-1,-1,-1,-1,-1,-1,-1,-1,-1,-1,-1,-1,-1,-1,-1,-1,-1,-1,-1,-1,-1,-1,-1,-1,-1,-1,-1,-1,-1,-1,-1,-1,-1,-1,-1,-1,-1,-1],"split_conditions":[-5.3746222E-5,5.359499E-4,-4.2721694E-3,-3.4484707E-3,1.926546E-3,-0E0,-6.7193503E-3,-4.8822393E-3,-0E0,-0E0,5.0549554E-3,-8.651007E-3,-0E0,-0E0,-6.218771E-3,1.4893564E-3,-1.5437115E-3,5.9655495E-3,-0E0,-8.700874E-3,-0E0,-6.5756836E-3,-0E0,-2.3167259E-4,5.1098787E-3,-4.447497E-3,-0E0,1.9648653E-3,1.263566E-2,-0E0,-3.3046354E-3,-0E0,5.7578E-3,-0E0,-8.74843E-3,1.1255914E-2,-0E0,1.3228478E-2,-0E0,-0E0,-4.333812E-3,6.394493E-3,-0E0,-0E0,1.1688317E-2,-0E0,1.3519935E-2,7.175224E-3,-0E0,1.189198E-2,-0E0],"split_indices":[0,2147483647,2147483647,2147483647,2147483647,2147483647,2147483647,2147483647,2147483647,2147483647,2147483647,2147483647,2147483647,2147483647,2147483647,2147483647,2147483647,2147483647,2147483647,2147483647,2147483647,2147483647,2147483647,2147483647,2147483647,2147483647,2147483647,2147483647,2147483647,2147483647,2147483647,2147483647,2147483647,2147483647,2147483647,2147483647,2147483647,2147483647,2147483647,2147483647,2147483647,2147483647,2147483647,2147483647,2147483647,2147483647,2147483647,2147483647,2147483647,2147483647,2147483647],"split_type":[0,0,0,0,0,0,0,0,0,0,0,0,0,0,0,0,0,0,0,0,0,0,0,0,0,0,0,0,0,0,0,0,0,0,0,0,0,0,0,0,0,0,0,0,0,0,0,0,0,0,0],"sum_hessian":[2.4E4,1.906E4,4.94E3,3.145E3,1.5915E4,1.244E3,3.696E3,2.646E3,4.99E2,9.628E3,6.287E3,3.1E3,5.96E2,2.24E2,2.422E3,4.531E3,5.097E3,5.766E3,5.21E2,3.095E3,5E0,2.298E3,1.24E2,1.274E3,3.257E3,3.613E3,1.484E3,4.504E3,1.262E3,1.55E2,1.119E3,3.87E2,2.87E3,1.501E3,2.112E3,7.86E2,3.718E3,1.253E3,9E0,1.08E2,1.011E3,2.474E3,3.96E2,1.6E1,7.7E2,1.3E1,1.24E3,2.33E3,1.44E2,7.48E2,2.2E1],"tree_param":{"num_deleted":"50","num_feature":"7","num_nodes":"51","size_leaf_vector":"0"}},{"base_weights":[-1.2541037E-4,6.0385508E-3,-7.74111E-3,1.2828703E-2,-5.3561972E-3,-0E0,-1.5459363E-2,-0E0,2.8016968E-2,-9.654601E-3,-0E0,-1.9103443E-2,-0E0,5.438466E-3,-0E0,-0E0,2.9540299E-2,-0E0,-1.0446858E-2,-0E0,-2.0592248E-2,6.6883503E-3,-0E0,-7.5092114E-4,-0E0,3.0656593E-2,-0E0,-1.1225247E-2,-0E0,-2.0637957E-2,-0E0,-0E0,7.865503E-3,-2.5355988E-3,-0E0,-0E0,-1.2079444E-2,-0E0,-2.7261542E-3,-1.2293368E-2,-0E0],"categories":[],"categories_nodes":[],"categories_segments":[],"categories_sizes":[],"default_left":[1,1,1,1,1,1,1,1,1,1,1,1,1,1,1,1,1,1,1,1,1,1,1,1,1,1,1,1,1,1,1,1,1,1,1,1,1,1,1,1,1],"id":21,"left_children":[-1,-1,-1,-1,-1,-1,-1,-1,-1,-1,-1,-1,-1,-1,-1,-1,-1,-1,-1,-1,-1,-1,-1,-1,-1,-1,-1,-1,-1,-1,-1,-1,-1,-1,-1,-1,-1,-1,-1,-1,-1],"loss_changes":[1.1811262E0,1.0857491E0,6.017725E-1,1.0413669E0,1.4281924E-1,0E0,1.6459107E-1,6.26487E-2,8.7969065E-2,3.198336E-2,0E0,1.9146073E-1,0E0,2.9421195E-2,1.399648E-3,0E0,7.022357E-2,0E0,2.9396191E-2,0E0,9.198189E-4,3.266228E-2,0E0,1.3825886E-2,0E0,0E0,0E0,2.2229075E-2,0E0,0E0,0E0,0E0,0E0,1.1779116E-3,0E0,0E0,1.4080107E-3,0E0,0E0,0E0,0E0],"parents":[2147483647,0,0,1,1,2,2,3,3,4,4,6,6,7,7,8,8,9,9,11,11,13,13,14,14,16,16,18,18,20,20,21,21,23,23,27,27,33,33,36,36],"right_children":[-1,-1,-1,-1,-1,-1,-1,-1,-1,-1,-1,-1,-1,-1,-1,-1,-1,-1,-1,-1,-1,-1,-1,-1,-1,-1,-1,-1,-1,-1,-1,-1,-1,-1,-1,-1,-1,-1,-1,-1,-1],"split_conditions":[-3.762311E-5,1.8115652E-3,-2.3223332E-3,3.8486111E-3,-1.6068593E-3,-0E0,-4.637809E-3,-0E0,8.40509E-3,-2.8963804E-3,-0E0,-5.731033E-3,-0E0,1.6315399E-3,-0E0,-0E0,8.86209E-3,-0E0,-3.1340574E-3,-0E0,-6.1776745E-3,2.0065052E-3,-0E0,-2.2527635E-4,-0E0,9.196978E-3,-0E0,-3.3675742E-3,-0E0,-6.1913873E-3,-0E0,-0E0,2.359651E-3,-7.6067966E-4,-0E0,-0E0,-3.6238332E-3,-0E0,-8.178463E-4,-3.6880104E-3,-0E0],"split_indices":[3,2147483647,2147483647,2147483647,2147483647,2147483647,2147483647,2147483647,2147483647,2147483647,2147483647,2147483647,2147483647,2147483647,2147483647,2147483647,2147483647,2147483647,2147483647,2147483647,2147483647,2147483647,2147483647,2147483647,2147483647,2147483647,2147483647,2147483647,2147483647,2147483647,2147483647,2147483647,2147483647,2147483647,2147483647,2147483647,2147483647,2147483647,2147483647,2147483647,2147483647],"split_type":[0,0,0,0,0,0,0,0,0,0,0,0,0,0,0,0,0,0,0,0,0,0,0,0,0,0,0,0,0,0,0,0,0,0,0,0,0,0,0,0,0],"sum_hessian":[2.4E4,1.0942E4,1.3058E4,8.616E3,2.326E3,7.266E3,5.792E3,5.483E3,3.133E3,2.248E3,7.8E1,4.244E3,1.548E3,2.118E3,3.365E3,2.14E2,2.919E3,3.5E1,2.213E3,1.4E2,4.104E3,2.058E3,6E1,2.482E3,8.83E2,2.785E3,1.34E2,2.15E3,6.3E1,4.088E3,1.6E1,4.2E1,2.016E3,2.368E3,1.14E2,1.41E2,2.009E3,1.61E2,2.207E3,1.949E3,6E1],"tree_param":{"num_deleted":"40","num_feature":"7","num_nodes":"41","size_leaf_vector":"0"}},{"base_weights":[-8.778985E-5,8.421234E-4,-1.8256014E-2,-0E0,1.6652742E-2,-2.2210738E-2,-0E0,3.2192876E-3,-4.983758E-3,3.9799068E-2,-0E0,-2.5345804E-2,-0E0,-4.2400914E-4,1.1059171E-2,-1.6106168E-2,-0E0,4.648582E-2,-0E0,-2.585451E-2,-0E0,-1.2757117E-2,-0E0,2.093914E-2,-0E0,-0E0,-1.7416118E-2,-1.0691257E-2,1.8534169E-3,4.8933174E-2,-0E0,-0E0,-2.6115589E-2,-0E0,-1.7594147E-2,-0E0,2.2750285E-2,8.306441E-3,-2.249402E-3,-1.8374553E-2,-0E0,-0E0,-1.6536815E-2,1.8170886E-2,-9.393002E-5,-0E0,4.915733E-2,-0E0,-2.6677052E-2,-1.874589E-2,-0E0,-0E0,2.4645107E-2,-0E0,1.7156007E-2,-8.437475E-3,-0E0,-0E0,-1.9027963E-2,-2.21709E-2,-0E0,3.222249E-2,-0E0,-2.4598585E-3,-0E0,-0E0,-2.8146746E-2,-1.9706097E-2,-0E0,2.5259154E-2,-0E0,-0E0,1.9403242E-2,-1.1421247E-2,-0E0,-1.9451685E-2,-0E0,-2.3750672E-2,-0E0,-0E0,3.9882936E-2,-0E0,-3.7259432E-3,-2.8647937E-2,-0E0,2.5731115E-2,-0E0,2.044574E-2,-0E0,-0E0,-1.21176485E-2,-0E0,-2.4058761E-2,-0E0,4.110771E-2,-0E0,-4.405324E-3,-2.8691072E-2,-0E0,2.6096465E-2,-0E0,-0E0,2.0502757E-2,-5.0642234E-3,-0E0],"categories":[],"categories_nodes":[],"categories_segments":[],"categories_sizes":[],"default_left":[1,1,1,1,1,1,1,1,1,1,1,1,1,1,1,1,1,1,1,1,1,1,1,1,1,1,1,1,1,1,1,1,1,1,1,1,1,1,1,1,1,1,1,1,1,1,1,1,1,1,1,1,1,1,1,1,1,1,1,1,1,1,1,1,1,1,1,1,1,1,1,1,1,1,1,1,1,1,1,1,1,1,1,1,1,1,1,1,1,1,1,1,1,1,1,1,1,1,1,1,1,1,1,1,1],"id":22,"left_children":[-1,-1,-1,-1,-1,-1,-1,-1,-1,-1,-1,-1,-1,-1,-1,-1,-1,-1,-1,-1,-1,-1,-1,-1,-1,-1,-1,-1,-1,-1,-1,-1,-1,-1,-1,-1,-1,-1,-1,-1,-1,-1,-1,-1,-1,-1,-1,-1,-1,-1,-1,-1,-1,-1,-1,-1,-1,-1,-1,-1,-1,-1,-1,-1,-1,-1,-1,-1,-1,-1,-1,-1,-1,-1,-1,-1,-1,-1,-1,-1,-1,-1,-1,-1,-1,-1,-1,-1,-1,-1,-1,-1,-1,-1,-1,-1,-1,-1,-1,-1,-1,-1,-1,-1,-1],"loss_changes":[9.627267E-1,6.095523E-1,3.2542253E-1,3.3804372E-1,3.1182522E-1,2.479999E-1,0E0,5.998256E-1,5.442386E-1,2.9353982E-1,0E0,4.8980117E-2,0E0,3.0292988E-1,4.2562097E-1,1.07631266E-1,1.3440245E-1,1.2094092E-1,0E0,2.9828072E-2,0E0,2.3884487E-1,0E0,1.931485E-1,1.14310585E-1,0E0,6.889051E-2,1.4528722E-1,7.6210016E-1,2.738595E-3,0E0,0E0,4.069686E-3,0E0,6.5956E-2,0E0,9.222627E-2,2.9076153E-1,6.45801E-2,4.955107E-2,0E0,0E0,1.6051668E-1,9.002742E-1,1.9769443E-2,0E0,0E0,0E0,1.5257001E-2,4.9161136E-2,0E0,0E0,5.2350163E-2,0E0,9.691343E-2,5.8823995E-2,0E0,0E0,3.507769E-2,5.7525545E-2,0E0,1.5048873E-1,0E0,2.5279684E-2,0E0,0E0,4.841447E-3,0E0,0E0,4.766226E-2,0E0,0E0,4.8240125E-2,1.5775755E-2,0E0,0E0,0E0,8.426487E-3,0E0,0E0,9.9080324E-2,0E0,1.6152631E-2,7.791519E-4,0E0,4.0980816E-2,0E0,9.26733E-4,0E0,0E0,0E0,0E0,0E0,0E0,0E0,0E0,1.1377145E-2,0E0,0E0,0E0,0E0,0E0,0E0,0E0,0E0],"parents":[2147483647,0,0,1,1,2,2,3,3,4,4,5,5,7,7,8,8,9,9,11,11,13,13,14,14,15,15,16,16,17,17,19,19,21,21,23,23,24,24,26,26,27,27,28,28,29,29,32,32,34,34,36,36,37,37,38,38,39,39,42,42,43,43,44,44,48,48,49,49,52,52,54,54,55,55,58,58,59,59,61,61,63,63,66,66,69,69,72,72,73,73,77,77,80,80,82,82,83,83,85,85,87,87,96,96],"right_children":[-1,-1,-1,-1,-1,-1,-1,-1,-1,-1,-1,-1,-1,-1,-1,-1,-1,-1,-1,-1,-1,-1,-1,-1,-1,-1,-1,-1,-1,-1,-1,-1,-1,-1,-1,-1,-1,-1,-1,-1,-1,-1,-1,-1,-1,-1,-1,-1,-1,-1,-1,-1,-1,-1,-1,-1,-1,-1,-1,-1,-1,-1,-1,-1,-1,-1,-1,-1,-1,-1,-1,-1,-1,-1,-1,-1,-1,-1,-1,-1,-1,-1,-1,-1,-1,-1,-1,-1,-1,-1,-1,-1,-1,-1,-1,-1,-1,-1,-1,-1,-1,-1,-1,-1,-1],"split_conditions":[-2.6336957E-5,2.5263702E-4,-5.4768045E-3,-0E0,4.995823E-3,-6.6632214E-3,-0E0,9.6578634E-4,-1.4951274E-3,1.1939721E-2,-0E0,-7.6037417E-3,-0E0,-1.2720274E-4,3.3177512E-3,-4.8318505E-3,-0E0,1.3945746E-2,-0E0,-7.756353E-3,-0E0,-3.8271353E-3,-0E0,6.2817424E-3,-0E0,-0E0,-5.2248356E-3,-3.2073774E-3,5.560251E-4,1.46799525E-2,-0E0,-0E0,-7.834677E-3,-0E0,-5.2782446E-3,-0E0,6.8250857E-3,2.4919324E-3,-6.748206E-4,-5.512366E-3,-0E0,-0E0,-4.9610445E-3,5.4512657E-3,-2.8179007E-5,-0E0,1.47472E-2,-0E0,-8.003116E-3,-5.623767E-3,-0E0,-0E0,7.3935324E-3,-0E0,5.1468024E-3,-2.5312426E-3,-0E0,-0E0,-5.708389E-3,-6.65127E-3,-0E0,9.666747E-3,-0E0,-7.379576E-4,-0E0,-0E0,-8.444024E-3,-5.9118294E-3,-0E0,7.5777466E-3,-0E0,-0E0,5.820973E-3,-3.4263744E-3,-0E0,-5.8355057E-3,-0E0,-7.125202E-3,-0E0,-0E0,1.1964881E-2,-0E0,-1.117783E-3,-8.594382E-3,-0E0,7.7193347E-3,-0E0,6.133722E-3,-0E0,-0E0,-3.6352947E-3,-0E0,-7.2176284E-3,-0E0,1.2332314E-2,-0E0,-1.3215973E-3,-8.607322E-3,-0E0,7.82894E-3,-0E0,-0E0,6.1508273E-3,-1.5192671E-3,-0E0],"split_indices":[6,2147483647,2147483647,2147483647,2147483647,2147483647,2147483647,2147483647,2147483647,2147483647,2147483647,2147483647,2147483647,2147483647,2147483647,2147483647,2147483647,2147483647,2147483647,2147483647,2147483647,2147483647,2147483647,2147483647,2147483647,2147483647,2147483647,2147483647,2147483647,2147483647,2147483647,2147483647,2147483647,2147483647,2147483647,2147483647,2147483647,2147483647,2147483647,2147483647,2147483647,2147483647,2147483647,2147483647,2147483647,2147483647,2147483647,2147483647,2147483647,2147483647,2147483647,2147483647,2147483647,2147483647,2147483647,2147483647,2147483647,2147483647,2147483647,2147483647,2147483647,2147483647,2147483647,2147483647,2147483647,2147483647,2147483647,2147483647,2147483647,2147483647,2147483647,2147483647,2147483647,2147483647,2147483647,2147483647,2147483647,2147483647,2147483647,2147483647,2147483647,2147483647,2147483647,2147483647,2147483647,2147483647,2147483647,2147483647,2147483647,2147483647,2147483647,2147483647,2147483647,2147483647,2147483647,2147483647,2147483647,2147483647,2147483647,2147483647,2147483647,2147483647,2147483647,2147483647,2147483647],"split_type":[0,0,0,0,0,0,0,0,0,0,0,0,0,0,0,0,0,0,0,0,0,0,0,0,0,0,0,0,0,0,0,0,0,0,0,0,0,0,0,0,0,0,0,0,0,0,0,0,0,0,0,0,0,0,0,0,0,0,0,0,0,0,0,0,0,0,0,0,0,0,0,0,0,0,0,0,0,0,0,0,0,0,0,0,0,0,0,0,0,0,0,0,0,0,0,0,0,0,0,0,0,0,0,0,0],"sum_hessian":[2.4E4,2.1156E4,2.844E3,1.8904E4,2.252E3,2.581E3,2.63E2,9.085E3,9.819E3,5.91E2,1.661E3,2.368E3,2.13E2,3.416E3,5.669E3,3.038E3,6.781E3,5.69E2,2.2E1,2.349E3,1.9E1,1.865E3,1.551E3,2.552E3,3.117E3,8.5E1,2.953E3,1.002E3,5.779E3,5.64E2,5E0,3E0,2.346E3,1.13E2,1.752E3,1.7E1,2.535E3,1.541E3,1.576E3,2.857E3,9.6E1,5.2E1,9.5E2,2.368E3,3.411E3,4E0,5.6E2,9.2E1,2.254E3,1.731E3,2.1E1,2.23E2,2.312E3,1.92E2,1.349E3,1.019E3,5.57E2,5.6E1,2.801E3,8.55E2,9.5E1,1.62E3,7.48E2,3.272E3,1.39E2,2.1E2,2.044E3,1.693E3,3.8E1,2.283E3,2.9E1,3.7E1,1.312E3,1.007E3,1.2E1,2.773E3,2.8E1,8.47E2,8E0,4.68E2,1.152E3,2.5E1,3.247E3,1.979E3,6.5E1,2.272E3,1.1E1,1.297E3,1.5E1,5E0,1.002E3,7E0,8.4E2,9E0,1.143E3,9.2E1,3.155E3,1.974E3,5E0,2.269E3,3E0,5E0,1.292E3,2.831E3,3.24E2],"tree_param":{"num_deleted":"104","num_feature":"7","num_nodes":"105","size_leaf_vector":"0"}},{"base_weights":[-6.145432E-5,8.684592E-4,-1.8229682E-2,-0E0,1.6679073E-2,-2.2184404E-2,-0E0,3.2456245E-3,-4.957423E-3,3.98254E-2,-0E0,-2.5319472E-2,-0E0,-3.9767532E-4,1.1085508E-2,-1.6079836E-2,-0E0,4.651215E-2,-0E0,-2.5828177E-2,-0E0,-1.2730785E-2,-0E0,2.0965477E-2,-0E0,-0E0,-1.7389785E-2,-1.0664925E-2,1.8797521E-3,4.8959505E-2,-0E0,-0E0,-2.6089257E-2,-0E0,-1.7567815E-2,-0E0,2.2776624E-2,8.332771E-3,-2.2230637E-3,-1.834822E-2,-0E0,-0E0,-1.6510483E-2,1.819722E-2,-6.7595276E-5,-0E0,4.918366E-2,-0E0,-2.665072E-2,-1.8719558E-2,-0E0,-0E0,2.4671447E-2,-0E0,1.7182337E-2,-8.411139E-3,-0E0,-0E0,-1.9001631E-2,-2.214457E-2,-0E0,3.2248825E-2,-0E0,-2.4335238E-3,-0E0,-0E0,-2.8120412E-2,-1.9679764E-2,-0E0,2.5285492E-2,-0E0,-0E0,1.9429572E-2,-1.13949105E-2,-0E0,-1.9425353E-2,-0E0,-2.3724342E-2,-0E0,-0E0,3.9909266E-2,-0E0,-3.6996086E-3,-2.8621605E-2,-0E0,2.5757454E-2,-0E0,2.047207E-2,-0E0,-0E0,-1.2091313E-2,-0E0,-2.403243E-2,-0E0,4.113404E-2,-0E0,-4.3789893E-3,-2.866474E-2,-0E0,2.6122803E-2,-0E0,-0E0,2.0529088E-2,-5.037889E-3,-0E0],"categories":[],"categories_nodes":[],"categories_segments":[],"categories_sizes":[],"default_left":[1,1,1,1,1,1,1,1,1,1,1,1,1,1,1,1,1,1,1,1,1,1,1,1,1,1,1,1,1,1,1,1,1,1,1,1,1,1,1,1,1,1,1,1,1,1,1,1,1,1,1,1,1,1,1,1,1,1,1,1,1,1,1,1,1,1,1,1,1,1,1,1,1,1,1,1,1,1,1,1,1,1,1,1,1,1,1,1,1,1,1,1,1,1,1,1,1,1,1,1,1,1,1,1,1],"id":23,"left_children":[-1,-1,-1,-1,-1,-1,-1,-1,-1,-1,-1,-1,-1,-1,-1,-1,-1,-1,-1,-1,-1,-1,-1,-1,-1,-1,-1,-1,-1,-1,-1,-1,-1,-1,-1,-1,-1,-1,-1,-1,-1,-1,-1,-1,-1,-1,-1,-1,-1,-1,-1,-1,-1,-1,-1,-1,-1,-1,-1,-1,-1,-1,-1,-1,-1,-1,-1,-1,-1,-1,-1,-1,-1,-1,-1,-1,-1,-1,-1,-1,-1,-1,-1,-1,-1,-1,-1,-1,-1,-1,-1,-1,-1,-1,-1,-1,-1,-1,-1,-1,-1,-1,-1,-1,-1],"loss_changes":[9.610415E-1,6.10576E-1,3.2513762E-1,3.3701998E-1,3.110879E-1,2.4785793E-1,0E0,6.0151136E-1,5.442344E-1,2.9369414E-1,0E0,4.8942447E-2,0E0,3.0175197E-1,4.2513126E-1,1.0749954E-1,1.3440707E-1,1.2100136E-1,0E0,2.9799938E-2,0E0,2.3847437E-1,0E0,1.9337165E-1,1.1480015E-1,0E0,6.8834305E-2,1.4502394E-1,7.6378554E-1,2.7350187E-3,0E0,0E0,4.129529E-3,0E0,6.5870404E-2,0E0,9.218967E-2,2.9130614E-1,6.431353E-2,4.950881E-2,0E0,0E0,1.6034564E-1,9.007568E-1,1.9362282E-2,0E0,0E0,0E0,1.5393615E-2,4.9113095E-2,0E0,0E0,5.2386403E-2,0E0,9.703526E-2,5.8671035E-2,0E0,0E0,3.5043955E-2,5.746442E-2,0E0,1.5015876E-1,0E0,2.5066376E-2,0E0,0E0,4.8855543E-3,0E0,0E0,4.77041E-2,0E0,0E0,4.8295945E-2,1.5741989E-2,0E0,0E0,0E0,8.42163E-3,0E0,0E0,9.913528E-2,0E0,1.6057722E-2,7.8237057E-4,0E0,4.1020393E-2,0E0,9.252429E-4,0E0,0E0,0E0,0E0,0E0,0E0,0E0,0E0,1.1353854E-2,0E0,0E0,0E0,0E0,0E0,0E0,0E0,0E0],"parents":[2147483647,0,0,1,1,2,2,3,3,4,4,5,5,7,7,8,8,9,9,11,11,13,13,14,14,15,15,16,16,17,17,19,19,21,21,23,23,24,24,26,26,27,27,28,28,29,29,32,32,34,34,36,36,37,37,38,38,39,39,42,42,43,43,44,44,48,48,49,49,52,52,54,54,55,55,58,58,59,59,61,61,63,63,66,66,69,69,72,72,73,73,77,77,80,80,82,82,83,83,85,85,87,87,96,96],"right_children":[-1,-1,-1,-1,-1,-1,-1,-1,-1,-1,-1,-1,-1,-1,-1,-1,-1,-1,-1,-1,-1,-1,-1,-1,-1,-1,-1,-1,-1,-1,-1,-1,-1,-1,-1,-1,-1,-1,-1,-1,-1,-1,-1,-1,-1,-1,-1,-1,-1,-1,-1,-1,-1,-1,-1,-1,-1,-1,-1,-1,-1,-1,-1,-1,-1,-1,-1,-1,-1,-1,-1,-1,-1,-1,-1,-1,-1,-1,-1,-1,-1,-1,-1,-1,-1,-1,-1,-1,-1,-1,-1,-1,-1,-1,-1,-1,-1,-1,-1,-1,-1,-1,-1,-1,-1],"split_conditions":[-1.8436296E-5,2.6053775E-4,-5.468905E-3,-0E0,5.003722E-3,-6.6553215E-3,-0E0,9.736874E-4,-1.487227E-3,1.194762E-2,-0E0,-7.595842E-3,-0E0,-1.19302604E-4,3.3256526E-3,-4.823951E-3,-0E0,1.3953646E-2,-0E0,-7.7484534E-3,-0E0,-3.8192356E-3,-0E0,6.2896437E-3,-0E0,-0E0,-5.2169356E-3,-3.1994777E-3,5.6392566E-4,1.4687852E-2,-0E0,-0E0,-7.826777E-3,-0E0,-5.2703447E-3,-0E0,6.8329875E-3,2.4998314E-3,-6.6691916E-4,-5.5044666E-3,-0E0,-0E0,-4.953145E-3,5.459166E-3,-2.0278583E-5,-0E0,1.4755098E-2,-0E0,-7.995216E-3,-5.6158677E-3,-0E0,-0E0,7.4014342E-3,-0E0,5.1547014E-3,-2.523342E-3,-0E0,-0E0,-5.7004895E-3,-6.643371E-3,-0E0,9.674648E-3,-0E0,-7.3005713E-4,-0E0,-0E0,-8.436124E-3,-5.9039295E-3,-0E0,7.585648E-3,-0E0,-0E0,5.828872E-3,-3.4184733E-3,-0E0,-5.827606E-3,-0E0,-7.1173026E-3,-0E0,-0E0,1.197278E-2,-0E0,-1.1098826E-3,-8.586482E-3,-0E0,7.7272365E-3,-0E0,6.141621E-3,-0E0,-0E0,-3.6273939E-3,-0E0,-7.2097294E-3,-0E0,1.2340213E-2,-0E0,-1.3136968E-3,-8.599422E-3,-0E0,7.836841E-3,-0E0,-0E0,6.1587268E-3,-1.5113667E-3,-0E0],"split_indices":[6,2147483647,2147483647,2147483647,2147483647,2147483647,2147483647,2147483647,2147483647,2147483647,2147483647,2147483647,2147483647,2147483647,2147483647,2147483647,2147483647,2147483647,2147483647,2147483647,2147483647,2147483647,2147483647,2147483647,2147483647,2147483647,2147483647,2147483647,2147483647,2147483647,2147483647,2147483647,2147483647,2147483647,2147483647,2147483647,2147483647,2147483647,2147483647,2147483647,2147483647,2147483647,2147483647,2147483647,2147483647,2147483647,2147483647,2147483647,2147483647,2147483647,2147483647,2147483647,2147483647,2147483647,2147483647,2147483647,2147483647,2147483647,2147483647,2147483647,2147483647,2147483647,2147483647,2147483647,2147483647,2147483647,2147483647,2147483647,2147483647,2147483647,2147483647,2147483647,2147483647,2147483647,2147483647,2147483647,2147483647,2147483647,2147483647,2147483647,2147483647,2147483647,2147483647,2147483647,2147483647,2147483647,2147483647,2147483647,2147483647,2147483647,2147483647,2147483647,2147483647,2147483647,2147483647,2147483647,2147483647,2147483647,2147483647,2147483647,2147483647,2147483647,2147483647,2147483647,2147483647],"split_type":[0,0,0,0,0,0,0,0,0,0,0,0,0,0,0,0,0,0,0,0,0,0,0,0,0,0,0,0,0,0,0,0,0,0,0,0,0,0,0,0,0,0,0,0,0,0,0,0,0,0,0,0,0,0,0,0,0,0,0,0,0,0,0,0,0,0,0,0,0,0,0,0,0,0,0,0,0,0,0,0,0,0,0,0,0,0,0,0,0,0,0,0,0,0,0,0,0,0,0,0,0,0,0,0,0],"sum_hessian":[2.4E4,2.1156E4,2.844E3,1.8904E4,2.252E3,2.581E3,2.63E2,9.085E3,9.819E3,5.91E2,1.661E3,2.368E3,2.13E2,3.416E3,5.669E3,3.038E3,6.781E3,5.69E2,2.2E1,2.349E3,1.9E1,1.865E3,1.551E3,2.552E3,3.117E3,8.5E1,2.953E3,1.002E3,5.779E3,5.64E2,5E0,3E0,2.346E3,1.13E2,1.752E3,1.7E1,2.535E3,1.541E3,1.576E3,2.857E3,9.6E1,5.2E1,9.5E2,2.368E3,3.411E3,4E0,5.6E2,9.2E1,2.254E3,1.731E3,2.1E1,2.23E2,2.312E3,1.92E2,1.349E3,1.019E3,5.57E2,5.6E1,2.801E3,8.55E2,9.5E1,1.62E3,7.48E2,3.272E3,1.39E2,2.1E2,2.044E3,1.693E3,3.8E1,2.283E3,2.9E1,3.7E1,1.312E3,1.007E3,1.2E1,2.773E3,2.8E1,8.47E2,8E0,4.68E2,1.152E3,2.5E1,3.247E3,1.979E3,6.5E1,2.272E3,1.1E1,1.297E3,1.5E1,5E0,1.002E3,7E0,8.4E2,9E0,1.143E3,9.2E1,3.155E3,1.974E3,5E0,2.269E3,3E0,5E0,1.292E3,2.831E3,3.24E2],"tree_param":{"num_deleted":"104","num_feature":"7","num_nodes":"105","size_leaf_vector":"0"}},{"base_weights":[-4.3017295E-5,6.1209435E-3,-7.6587177E-3,1.187444E-2,-0E0,4.910541E-4,-1.3442796E-2,-0E0,1.6935011E-2,-1.4289326E-2,-0E0,-0E0,1.5166168E-2,-1.579532E-2,-0E0,-0E0,1.7507E-2,-0E0,-1.5824988E-2,-0E0,1.8152662E-2,-0E0,-1.6351705E-2,1.7781654E-2,-0E0,-0E0,-1.7528137E-2,2.0387726E-2,-0E0,-1.668893E-2,-0E0,1.7991701E-2,-0E0,-1.9605944E-2,-0E0,2.0722354E-2,-0E0,-1.6818907E-2,-0E0,-2.0434147E-2,-0E0,-0E0,-1.6832152E-2,-0E0,-2.0680359E-2],"categories":[],"categories_nodes":[],"categories_segments":[],"categories_sizes":[],"default_left":[1,1,1,1,1,1,1,1,1,1,1,1,1,1,1,1,1,1,1,1,1,1,1,1,1,1,1,1,1,1,1,1,1,1,1,1,1,1,1,1,1,1,1,1,1],"id":24,"left_children":[-1,-1,-1,-1,-1,-1,-1,-1,-1,-1,-1,-1,-1,-1,-1,-1,-1,-1,-1,-1,-1,-1,-1,-1,-1,-1,-1,-1,-1,-1,-1,-1,-1,-1,-1,-1,-1,-1,-1,-1,-1,-1,-1,-1,-1],"loss_changes":[1.175853E0,7.347214E-1,1.0300044E0,6.7765975E-1,3.024309E-1,3.5718367E-1,4.442916E-1,0E0,1.1169374E-1,6.3488394E-2,0E0,0E0,1.4990541E-1,1.3381124E-1,0E0,0E0,5.483544E-2,0E0,2.9235542E-2,0E0,1.2194902E-1,0E0,8.580923E-2,4.240954E-2,0E0,0E0,8.616766E-2,1.8696368E-2,0E0,3.6189556E-2,0E0,0E0,0E0,3.5259992E-2,0E0,0E0,0E0,2.7985573E-3,0E0,7.819235E-3,0E0,0E0,0E0,0E0,0E0],"parents":[2147483647,0,0,1,1,2,2,3,3,4,4,5,5,6,6,8,8,9,9,12,12,13,13,16,16,18,18,20,20,22,22,23,23,26,26,27,27,29,29,33,33,37,37,39,39],"right_children":[-1,-1,-1,-1,-1,-1,-1,-1,-1,-1,-1,-1,-1,-1,-1,-1,-1,-1,-1,-1,-1,-1,-1,-1,-1,-1,-1,-1,-1,-1,-1,-1,-1,-1,-1,-1,-1,-1,-1,-1,-1,-1,-1,-1,-1],"split_conditions":[-1.2905189E-5,1.8362831E-3,-2.2976154E-3,3.5623321E-3,-0E0,1.4731623E-4,-4.032839E-3,-0E0,5.0805034E-3,-4.286798E-3,-0E0,-0E0,4.5498507E-3,-4.7385963E-3,-0E0,-0E0,5.2521E-3,-0E0,-4.747497E-3,-0E0,5.445799E-3,-0E0,-4.9055116E-3,5.3344965E-3,-0E0,-0E0,-5.2584414E-3,6.116318E-3,-0E0,-5.0066793E-3,-0E0,5.3975107E-3,-0E0,-5.8817836E-3,-0E0,6.2167062E-3,-0E0,-5.0456724E-3,-0E0,-6.130244E-3,-0E0,-0E0,-5.049646E-3,-0E0,-6.204108E-3],"split_indices":[3,2147483647,2147483647,2147483647,2147483647,2147483647,2147483647,2147483647,2147483647,2147483647,2147483647,2147483647,2147483647,2147483647,2147483647,2147483647,2147483647,2147483647,2147483647,2147483647,2147483647,2147483647,2147483647,2147483647,2147483647,2147483647,2147483647,2147483647,2147483647,2147483647,2147483647,2147483647,2147483647,2147483647,2147483647,2147483647,2147483647,2147483647,2147483647,2147483647,2147483647,2147483647,2147483647,2147483647,2147483647],"split_type":[0,0,0,0,0,0,0,0,0,0,0,0,0,0,0,0,0,0,0,0,0,0,0,0,0,0,0,0,0,0,0,0,0,0,0,0,0,0,0,0,0,0,0,0,0],"sum_hessian":[2.4E4,1.0942E4,1.3058E4,8.118E3,2.824E3,3.124E3,9.934E3,1.764E3,6.354E3,1.481E3,1.343E3,1.568E3,1.556E3,8.976E3,9.58E2,4.4E1,6.31E3,2E1,1.461E3,1.5E1,1.541E3,1E2,8.876E3,6.29E3,2E1,1.75E2,1.286E3,1.515E3,2.6E1,8.829E3,4.7E1,6.275E3,1.5E1,1.252E3,3.4E1,1.51E3,5E0,8.821E3,8E0,1.237E3,1.5E1,4E0,8.817E3,1.1E1,1.226E3],"tree_param":{"num_deleted":"44","num_feature":"7","num_nodes":"45","size_leaf_vector":"0"}},{"base_weights":[-3.0113166E-5,6.1338474E-3,-7.6458133E-3,1.2924E-2,-5.2609076E-3,-0E0,-1.5364071E-2,-0E0,2.8112262E-2,-9.559311E-3,-0E0,-1.9008152E-2,-0E0,5.533761E-3,-0E0,-0E0,2.9635591E-2,-0E0,-1.0351568E-2,-0E0,-2.0496957E-2,6.783645E-3,-0E0,-6.5563223E-4,-0E0,3.0751886E-2,-0E0,-1.1129958E-2,-0E0,-2.0542666E-2,-0E0,-0E0,7.960797E-3,-2.44031E-3,-0E0,-0E0,-1.1984155E-2,-0E0,-2.630866E-3,-1.2198079E-2,-0E0],"categories":[],"categories_nodes":[],"categories_segments":[],"categories_sizes":[],"default_left":[1,1,1,1,1,1,1,1,1,1,1,1,1,1,1,1,1,1,1,1,1,1,1,1,1,1,1,1,1,1,1,1,1,1,1,1,1,1,1,1,1],"id":25,"left_children":[-1,-1,-1,-1,-1,-1,-1,-1,-1,-1,-1,-1,-1,-1,-1,-1,-1,-1,-1,-1,-1,-1,-1,-1,-1,-1,-1,-1,-1,-1,-1,-1,-1,-1,-1,-1,-1,-1,-1,-1,-1],"loss_changes":[1.175027E0,1.0918484E0,6.0390705E-1,1.0369804E0,1.410565E-1,0E0,1.661905E-1,6.486344E-2,8.767176E-2,3.1713307E-2,0E0,1.9080472E-1,0E0,2.984874E-2,1.0669666E-3,0E0,7.006049E-2,0E0,2.9202059E-2,0E0,9.467602E-4,3.3060685E-2,0E0,1.3035709E-2,0E0,0E0,0E0,2.2202432E-2,0E0,0E0,0E0,0E0,0E0,1.1740988E-3,0E0,0E0,1.4661252E-3,0E0,0E0,0E0,0E0],"parents":[2147483647,0,0,1,1,2,2,3,3,4,4,6,6,7,7,8,8,9,9,11,11,13,13,14,14,16,16,18,18,20,20,21,21,23,23,27,27,33,33,36,36],"right_children":[-1,-1,-1,-1,-1,-1,-1,-1,-1,-1,-1,-1,-1,-1,-1,-1,-1,-1,-1,-1,-1,-1,-1,-1,-1,-1,-1,-1,-1,-1,-1,-1,-1,-1,-1,-1,-1,-1,-1,-1,-1],"split_conditions":[-9.03395E-6,1.8401543E-3,-2.2937441E-3,3.8772E-3,-1.5782723E-3,-0E0,-4.6092216E-3,-0E0,8.433679E-3,-2.8677934E-3,-0E0,-5.7024457E-3,-0E0,1.6601284E-3,-0E0,-0E0,8.890678E-3,-0E0,-3.1054707E-3,-0E0,-6.1490876E-3,2.0350937E-3,-0E0,-1.9668968E-4,-0E0,9.225566E-3,-0E0,-3.3389875E-3,-0E0,-6.1628004E-3,-0E0,-0E0,2.3882394E-3,-7.3209306E-4,-0E0,-0E0,-3.5952465E-3,-0E0,-7.892598E-4,-3.659424E-3,-0E0],"split_indices":[3,2147483647,2147483647,2147483647,2147483647,2147483647,2147483647,2147483647,2147483647,2147483647,2147483647,2147483647,2147483647,2147483647,2147483647,2147483647,2147483647,2147483647,2147483647,2147483647,2147483647,2147483647,2147483647,2147483647,2147483647,2147483647,2147483647,2147483647,2147483647,2147483647,2147483647,2147483647,2147483647,2147483647,2147483647,2147483647,2147483647,2147483647,2147483647,2147483647,2147483647],"split_type":[0,0,0,0,0,0,0,0,0,0,0,0,0,0,0,0,0,0,0,0,0,0,0,0,0,0,0,0,0,0,0,0,0,0,0,0,0,0,0,0,0],"sum_hessian":[2.4E4,1.0942E4,1.3058E4,8.616E3,2.326E3,7.266E3,5.792E3,5.483E3,3.133E3,2.248E3,7.8E1,4.244E3,1.548E3,2.118E3,3.365E3,2.14E2,2.919E3,3.5E1,2.213E3,1.4E2,4.104E3,2.058E3,6E1,2.482E3,8.83E2,2.785E3,1.34E2,2.15E3,6.3E1,4.088E3,1.6E1,4.2E1,2.016E3,2.368E3,1.14E2,1.41E2,2.009E3,1.61E2,2.207E3,1.949E3,6E1],"tree_param":{"num_deleted":"40","num_feature":"7","num_nodes":"41","size_leaf_vector":"0"}},{"base_weights":[-2.108219E-5,1.9445702E-3,-1.4082492E-2,-2.766106E-3,1.0210409E-2,-0E0,-2.1417538E-2,-1.0275716E-2,4.1495683E-4,1.273596E-2,-0E0,-0E0,-2.7680747E-2,-0E0,-1.351494E-2,1.2167707E-2,-0E0,1.2925335E-2,-0E0,-2.9841935E-2,-0E0,-1.5325615E-2,-0E0,1.695655E-2,-0E0,1.3017388E-2,-0E0,-1.5492116E-2,-0E0,1.7868103E-2,-0E0],"categories":[],"categories_nodes":[],"categories_segments":[],"categories_sizes":[],"default_left":[1,1,1,1,1,1,1,1,1,1,1,1,1,1,1,1,1,1,1,1,1,1,1,1,1,1,1,1,1,1,1],"id":26,"left_children":[-1,-1,-1,-1,-1,-1,-1,-1,-1,-1,-1,-1,-1,-1,-1,-1,-1,-1,-1,-1,-1,-1,-1,-1,-1,-1,-1,-1,-1,-1,-1],"loss_changes":[1.0517788E0,9.80381E-1,8.5657805E-1,5.4667056E-1,4.3180746E-1,0E0,4.4870937E-1,1.8804556E-1,3.2641843E-1,2.1868467E-2,0E0,0E0,2.7633715E-1,0E0,1.9157475E-1,2.9028854E-1,0E0,1.640439E-2,0E0,0E0,0E0,1.9439101E-2,0E0,5.5709243E-2,0E0,0E0,0E0,0E0,0E0,0E0,0E0],"parents":[2147483647,0,0,1,1,2,2,3,3,4,4,6,6,7,7,8,8,9,9,12,12,14,14,15,15,17,17,21,21,23,23],"right_children":[-1,-1,-1,-1,-1,-1,-1,-1,-1,-1,-1,-1,-1,-1,-1,-1,-1,-1,-1,-1,-1,-1,-1,-1,-1,-1,-1,-1,-1,-1,-1],"split_conditions":[-6.3246575E-6,5.833711E-4,-4.224748E-3,-8.298319E-4,3.0631227E-3,-0E0,-6.4252615E-3,-3.082715E-3,1.2448705E-4,3.820788E-3,-0E0,-0E0,-8.304224E-3,-0E0,-4.054482E-3,3.6503123E-3,-0E0,3.8776007E-3,-0E0,-8.952581E-3,-0E0,-4.597685E-3,-0E0,5.086965E-3,-0E0,3.9052165E-3,-0E0,-4.647635E-3,-0E0,5.360431E-3,-0E0],"split_indices":[0,2147483647,2147483647,2147483647,2147483647,2147483647,2147483647,2147483647,2147483647,2147483647,2147483647,2147483647,2147483647,2147483647,2147483647,2147483647,2147483647,2147483647,2147483647,2147483647,2147483647,2147483647,2147483647,2147483647,2147483647,2147483647,2147483647,2147483647,2147483647,2147483647,2147483647],"split_type":[0,0,0,0,0,0,0,0,0,0,0,0,0,0,0,0,0,0,0,0,0,0,0,0,0,0,0,0,0,0,0],"sum_hessian":[2.4E4,1.906E4,4.94E3,9.675E3,9.385E3,9.37E2,4.003E3,5.872E3,3.803E3,8.694E3,6.91E2,1.021E3,2.982E3,1.448E3,4.424E3,2.209E3,1.594E3,8.572E3,1.22E2,2.876E3,1.06E2,4.256E3,1.68E2,2.147E3,6.2E1,8.548E3,2.4E1,4.246E3,1E1,2.108E3,3.9E1],"tree_param":{"num_deleted":"30","num_feature":"7","num_nodes":"31","size_leaf_vector":"0"}},{"base_weights":[-1.4763453E-5,6.149197E-3,-7.630464E-3,1.2939349E-2,-5.245556E-3,5.193052E-4,-1.3414541E-2,-0E0,2.812761E-2,-0E0,-1.3630895E-2,-0E0,1.4302642E-3,-0E0,-1.5225112E-2,5.5491077E-3,-0E0,3.166891E-2,-0E0,-1.5381863E-2,-0E0,2.423795E-3,-0E0,-1.5559355E-2,-0E0,1.2027778E-2,-0E0,-0E0,-1.1779414E-3,3.249833E-2,-0E0,-0E0,-1.7190287E-2,-0E0,3.1804703E-3,-0E0,3.4896113E-2,-1.3067967E-2,-0E0,-1.8365705E-2,-0E0,-0E0,3.736086E-2,-1.5085509E-2,-0E0,-0E0,-1.5284627E-2],"categories":[],"categories_nodes":[],"categories_segments":[],"categories_sizes":[],"default_left":[1,1,1,1,1,1,1,1,1,1,1,1,1,1,1,1,1,1,1,1,1,1,1,1,1,1,1,1,1,1,1,1,1,1,1,1,1,1,1,1,1,1,1,1,1,1,1],"id":27,"left_children":[-1,-1,-1,-1,-1,-1,-1,-1,-1,-1,-1,-1,-1,-1,-1,-1,-1,-1,-1,-1,-1,-1,-1,-1,-1,-1,-1,-1,-1,-1,-1,-1,-1,-1,-1,-1,-1,-1,-1,-1,-1,-1,-1,-1,-1,-1,-1],"loss_changes":[1.1740448E0,1.0928305E0,1.0281961E0,1.0362645E0,2.5188604E-1,5.3929733E-3,4.7757483E-1,6.5223716E-2,4.1374254E-1,0E0,7.075325E-2,0E0,1.1266439E-2,0E0,7.3194265E-2,1.9737116E-1,3.0209133E-3,8.168268E-2,0E0,6.316239E-2,0E0,1.1490425E-2,0E0,0E0,0E0,5.145201E-1,0E0,0E0,1.1296084E-1,0E0,0E0,0E0,3.4608305E-2,0E0,0E0,0E0,1.08070135E-1,1.6502433E-2,0E0,0E0,0E0,0E0,0E0,2.3523718E-3,0E0,0E0,0E0],"parents":[2147483647,0,0,1,1,2,2,3,3,4,4,5,5,6,6,7,7,8,8,10,10,12,12,14,14,15,15,16,16,17,17,19,19,21,21,25,25,28,28,32,32,36,36,37,37,43,43],"right_children":[-1,-1,-1,-1,-1,-1,-1,-1,-1,-1,-1,-1,-1,-1,-1,-1,-1,-1,-1,-1,-1,-1,-1,-1,-1,-1,-1,-1,-1,-1,-1,-1,-1,-1,-1,-1,-1,-1,-1,-1,-1,-1,-1,-1,-1,-1,-1],"split_conditions":[-4.429036E-6,1.8447592E-3,-2.2891394E-3,3.8818049E-3,-1.5736669E-3,1.5579155E-4,-4.0243627E-3,-0E0,8.438284E-3,-0E0,-4.089269E-3,-0E0,4.290793E-4,-0E0,-4.5675337E-3,1.6647324E-3,-0E0,9.500673E-3,-0E0,-4.614559E-3,-0E0,7.271385E-4,-0E0,-4.6678064E-3,-0E0,3.6083334E-3,-0E0,-0E0,-3.5338243E-4,9.749499E-3,-0E0,-0E0,-5.157086E-3,-0E0,9.5414114E-4,-0E0,1.0468834E-2,-3.9203903E-3,-0E0,-5.509712E-3,-0E0,-0E0,1.1208258E-2,-4.525653E-3,-0E0,-0E0,-4.585388E-3],"split_indices":[3,2147483647,2147483647,2147483647,2147483647,2147483647,2147483647,2147483647,2147483647,2147483647,2147483647,2147483647,2147483647,2147483647,2147483647,2147483647,2147483647,2147483647,2147483647,2147483647,2147483647,2147483647,2147483647,2147483647,2147483647,2147483647,2147483647,2147483647,2147483647,2147483647,2147483647,2147483647,2147483647,2147483647,2147483647,2147483647,2147483647,2147483647,2147483647,2147483647,2147483647,2147483647,2147483647,2147483647,2147483647,2147483647,2147483647],"split_type":[0,0,0,0,0,0,0,0,0,0,0,0,0,0,0,0,0,0,0,0,0,0,0,0,0,0,0,0,0,0,0,0,0,0,0,0,0,0,0,0,0,0,0,0,0,0,0],"sum_hessian":[2.4E4,1.0942E4,1.3058E4,8.616E3,2.326E3,3.124E3,9.934E3,5.483E3,3.133E3,6.26E2,1.7E3,7.6E1,3.048E3,1.62E2,9.772E3,2.118E3,3.365E3,2.884E3,2.49E2,1.634E3,6.6E1,2.979E3,6.9E1,9.659E3,1.13E2,1.815E3,3.03E2,1.188E3,2.177E3,2.816E3,6.8E1,1.12E2,1.522E3,1.13E2,2.866E3,1.177E3,6.38E2,6.79E2,1.498E3,1.436E3,8.6E1,4E0,6.34E2,5.82E2,9.7E1,5E0,5.77E2],"tree_param":{"num_deleted":"46","num_feature":"7","num_nodes":"47","size_leaf_vector":"0"}},{"base_weights":[-1.0333608E-5,1.9553194E-3,-1.4071747E-2,-1.1326091E-2,6.5906397E-3,-0E0,-2.2229014E-2,-1.610532E-2,-0E0,-0E0,1.3235425E-2,-2.866787E-2,-0E0,-0E0,-2.0560429E-2,1.221123E-2,-3.0631346E-3,-0E0,1.7982958E-2,-3.0510541E-2,-0E0,-2.5337588E-2,-0E0,-0E0,1.7361725E-2,-1.6158238E-2,-0E0,2.053922E-2,-0E0,-3.0682633E-2,-0E0,-2.7594361E-2,-0E0,1.8959712E-2,-0E0,-0E0,-2.6929772E-2,-4.1746776E-4,8.402791E-3,-0E0,2.2274008E-2,1.9942928E-2,-0E0,-0E0,-2.8863717E-2,-0E0,-7.544489E-3,2.578908E-2,-0E0,2.2544954E-2,-0E0,-0E0,2.0081032E-2,-3.0650359E-2,-0E0,-0E0,-9.002028E-3,4.57824E-2,-0E0,-0E0,2.2758393E-2,-0E0,-3.1050961E-2,-1.0229307E-2,-0E0,4.9509585E-2,-0E0,2.290457E-2,-0E0,-3.116914E-2,-0E0,-0E0,5.0633878E-2],"categories":[],"categories_nodes":[],"categories_segments":[],"categories_sizes":[],"default_left":[1,1,1,1,1,1,1,1,1,1,1,1,1,1,1,1,1,1,1,1,1,1,1,1,1,1,1,1,1,1,1,1,1,1,1,1,1,1,1,1,1,1,1,1,1,1,1,1,1,1,1,1,1,1,1,1,1,1,1,1,1,1,1,1,1,1,1,1,1,1,1,1,1],"id":28,"left_children":[-1,-1,-1,-1,-1,-1,-1,-1,-1,-1,-1,-1,-1,-1,-1,-1,-1,-1,-1,-1,-1,-1,-1,-1,-1,-1,-1,-1,-1,-1,-1,-1,-1,-1,-1,-1,-1,-1,-1,-1,-1,-1,-1,-1,-1,-1,-1,-1,-1,-1,-1,-1,-1,-1,-1,-1,-1,-1,-1,-1,-1,-1,-1,-1,-1,-1,-1,-1,-1,-1,-1,-1,-1],"loss_changes":[1.0510913E0,1.0218897E0,8.4815973E-1,2.829027E-1,7.155711E-1,0E0,7.2147715E-1,3.3755833E-1,0E0,2.8205964E-1,4.051181E-1,2.8965473E-1,0E0,0E0,3.2372463E-1,1.9788499E-1,5.7631093E-1,0E0,2.940029E-1,2.7392387E-2,0E0,1.4339232E-1,0E0,0E0,7.043624E-2,6.3872594E-1,1.7192295E-1,2.8345823E-1,0E0,0E0,0E0,0E0,0E0,4.979244E-2,0E0,0E0,1.0139847E-1,6.679404E-2,8.520041E-1,0E0,5.594349E-2,5.4909587E-3,0E0,0E0,1.1273205E-1,0E0,2.6874274E-2,1.0119226E0,0E0,4.393196E-2,0E0,0E0,0E0,1.6041875E-2,0E0,0E0,2.212686E-2,2.7874637E-1,0E0,0E0,3.0506372E-2,0E0,7.593274E-3,0E0,0E0,9.861231E-2,0E0,0E0,0E0,0E0,0E0,0E0,0E0],"parents":[2147483647,0,0,1,1,2,2,3,3,4,4,6,6,7,7,9,9,10,10,11,11,14,14,15,15,16,16,18,18,19,19,21,21,24,24,25,25,26,26,27,27,33,33,36,36,37,37,38,38,40,40,41,41,44,44,46,46,47,47,49,49,53,53,56,56,57,57,60,60,62,62,65,65],"right_children":[-1,-1,-1,-1,-1,-1,-1,-1,-1,-1,-1,-1,-1,-1,-1,-1,-1,-1,-1,-1,-1,-1,-1,-1,-1,-1,-1,-1,-1,-1,-1,-1,-1,-1,-1,-1,-1,-1,-1,-1,-1,-1,-1,-1,-1,-1,-1,-1,-1,-1,-1,-1,-1,-1,-1,-1,-1,-1,-1,-1,-1,-1,-1,-1,-1,-1,-1,-1,-1,-1,-1,-1,-1],"split_conditions":[-3.1000825E-6,5.8659585E-4,-4.221524E-3,-3.3978275E-3,1.977192E-3,-0E0,-6.6687046E-3,-4.8315963E-3,-0E0,-0E0,3.9706277E-3,-8.600362E-3,-0E0,-0E0,-6.168129E-3,3.663369E-3,-9.189404E-4,-0E0,5.3948876E-3,-9.153163E-3,-0E0,-7.6012765E-3,-0E0,-0E0,5.2085174E-3,-4.8474716E-3,-0E0,6.1617666E-3,-0E0,-9.20479E-3,-0E0,-8.278308E-3,-0E0,5.687914E-3,-0E0,-0E0,-8.078932E-3,-1.2524033E-4,2.5208374E-3,-0E0,6.6822027E-3,5.9828786E-3,-0E0,-0E0,-8.659115E-3,-0E0,-2.263347E-3,7.7367243E-3,-0E0,6.7634867E-3,-0E0,-0E0,6.02431E-3,-9.195108E-3,-0E0,-0E0,-2.7006085E-3,1.373472E-2,-0E0,-0E0,6.827518E-3,-0E0,-9.315289E-3,-3.0687924E-3,-0E0,1.4852876E-2,-0E0,6.871371E-3,-0E0,-9.350742E-3,-0E0,-0E0,1.5190164E-2],"split_indices":[0,2147483647,2147483647,2147483647,2147483647,2147483647,2147483647,2147483647,2147483647,2147483647,2147483647,2147483647,2147483647,2147483647,2147483647,2147483647,2147483647,2147483647,2147483647,2147483647,2147483647,2147483647,2147483647,2147483647,2147483647,2147483647,2147483647,2147483647,2147483647,2147483647,2147483647,2147483647,2147483647,2147483647,2147483647,2147483647,2147483647,2147483647,2147483647,2147483647,2147483647,2147483647,2147483647,2147483647,2147483647,2147483647,2147483647,2147483647,2147483647,2147483647,2147483647,2147483647,2147483647,2147483647,2147483647,2147483647,2147483647,2147483647,2147483647,2147483647,2147483647,2147483647,2147483647,2147483647,2147483647,2147483647,2147483647,2147483647,2147483647,2147483647,2147483647,2147483647,2147483647],"split_type":[0,0,0,0,0,0,0,0,0,0,0,0,0,0,0,0,0,0,0,0,0,0,0,0,0,0,0,0,0,0,0,0,0,0,0,0,0,0,0,0,0,0,0,0,0,0,0,0,0,0,0,0,0,0,0,0,0,0,0,0,0,0,0,0,0,0,0,0,0,0,0,0,0],"sum_hessian":[2.4E4,1.906E4,4.94E3,3.145E3,1.5915E4,1.244E3,3.696E3,2.646E3,4.99E2,7.884E3,8.031E3,3.1E3,5.96E2,2.24E2,2.422E3,1.489E3,6.395E3,2.428E3,5.603E3,3.048E3,5.2E1,2.099E3,3.23E2,9.6E1,1.393E3,2.437E3,3.958E3,4.992E3,6.11E2,3.043E3,5E0,1.958E3,1.41E2,1.364E3,2.9E1,6.79E2,1.758E3,1.527E3,2.431E3,1.76E2,4.816E3,1.358E3,6E0,1.06E2,1.652E3,3.49E2,1.178E3,1.539E3,8.92E2,4.811E3,5E0,5E0,1.353E3,1.585E3,6.7E1,1.9E1,1.159E3,9.71E2,5.68E2,5E0,4.806E3,2.4E1,1.561E3,1.109E3,5E1,9.44E2,2.7E1,4.803E3,3E0,1.557E3,4E0,3E0,9.41E2],"tree_param":{"num_deleted":"72","num_feature":"7","num_nodes":"73","size_leaf_vector":"0"}},{"base_weights":[-7.234187E-6,6.1567263E-3,-7.622935E-3,1.2946879E-2,-5.2380315E-3,-1.4785124E-2,-0E0,-0E0,2.8135141E-2,-5.7089254E-3,-0E0,-0E0,-1.6148305E-2,2.516967E-3,-2.9237202E-4,5.556643E-3,-0E0,-0E0,-6.179918E-3,-1.6173335E-2,-0E0,-0E0,1.05254585E-2,-6.327578E-4,-0E0,-0E0,-1.4679902E-3],"categories":[],"categories_nodes":[],"categories_segments":[],"categories_sizes":[],"default_left":[1,1,1,1,1,1,1,1,1,1,1,1,1,1,1,1,1,1,1,1,1,1,1,1,1,1,1],"id":29,"left_children":[-1,-1,-1,-1,-1,-1,-1,-1,-1,-1,-1,-1,-1,-1,-1,-1,-1,-1,-1,-1,-1,-1,-1,-1,-1,-1,-1],"loss_changes":[1.1735629E0,1.0933126E0,