{"learner":{"attributes":{"best_iteration":"249","best_ntree_limit":"250","scikit_learn":"{\"n_estimators\": 250, \"objective\": \"reg:squarederror\", \"max_depth\": 12, \"max_leaves\": null, \"max_bin\": null, \"grow_policy\": null, \"learning_rate\": null, \"verbosity\": null, \"booster\": null, \"tree_method\": null, \"gamma\": 1.0012496065958456, \"min_child_weight\": 6.0, \"max_delta_step\": null, \"subsample\": null, \"sampling_method\": null, \"colsample_bytree\": 0.5160991789757972, \"colsample_bylevel\": null, \"colsample_bynode\": null, \"reg_alpha\": 33.0, \"reg_lambda\": 0.02881646880244426, \"scale_pos_weight\": null, \"base_score\": null, \"missing\": NaN, \"num_parallel_tree\": null, \"random_state\": null, \"n_jobs\": null, \"monotone_constraints\": null, \"interaction_constraints\": null, \"importance_type\": null, \"gpu_id\": null, \"validate_parameters\": null, \"predictor\": null, \"enable_categorical\": false, \"feature_types\": null, \"max_cat_to_onehot\": null, \"max_cat_threshold\": null, \"eval_metric\": null, \"early_stopping_rounds\": null, \"callbacks\": null, \"_estimator_type\": \"regressor\"}"},"feature_names":["LIMIT_BAL","SEX","EDUCATION","MARRIAGE","AGE","BILL_AMT6","PAY_AMT6"],"feature_types":["int","int","int","int","int","int","int"],"gradient_booster":{"model":{"gbtree_model_param":{"num_parallel_tree":"1","num_trees":"250","size_leaf_vector":"0"},"tree_info":[0,0,0,0,0,0,0,0,0,0,0,0,0,0,0,0,0,0,0,0,0,0,0,0,0,0,0,0,0,0,0,0,0,0,0,0,0,0,0,0,0,0,0,0,0,0,0,0,0,0,0,0,0,0,0,0,0,0,0,0,0,0,0,0,0,0,0,0,0,0,0,0,0,0,0,0,0,0,0,0,0,0,0,0,0,0,0,0,0,0,0,0,0,0,0,0,0,0,0,0,0,0,0,0,0,0,0,0,0,0,0,0,0,0,0,0,0,0,0,0,0,0,0,0,0,0,0,0,0,0,0,0,0,0,0,0,0,0,0,0,0,0,0,0,0,0,0,0,0,0,0,0,0,0,0,0,0,0,0,0,0,0,0,0,0,0,0,0,0,0,0,0,0,0,0,0,0,0,0,0,0,0,0,0,0,0,0,0,0,0,0,0,0,0,0,0,0,0,0,0,0,0,0,0,0,0,0,0,0,0,0,0,0,0,0,0,0,0,0,0,0,0,0,0,0,0,0,0,0,0,0,0,0,0,0,0,0,0,0,0,0,0,0,0,0,0,0,0,0,0],"trees":[{"base_weights":[-0E0,4.9415793E-2,-8.3920985E-2,8.101781E-2,2.1840833E-2,-3.8094647E-2,-1.1865037E-1,-0E0,8.193127E-2,4.161658E-2,-0E0,-5.0702892E-2,-0E0,-0E0,-1.2387144E-1,5.078874E-2,-0E0,2.2758184E-2,-3.4604063E-3,-0E0,-5.7680864E-2,-1.2541236E-1,-0E0,5.254837E-2,-0E0,-0E0,2.8407281E-2,-9.621375E-3,-0E0,-9.906672E-3,-8.46766E-2,-1.2583491E-1,-0E0,-0E0,5.3168975E-2,3.1474233E-2,-0E0,-0E0,-1.604545E-2,-0E0,-1.6220426E-2,-8.657076E-2,-0E0,-2.913065E-2,-0E0,-1.9329447E-2,-0E0,-0E0,-2.3593666E-2,-2.3851147E-2,-0E0],"categories":[],"categories_nodes":[],"categories_segments":[],"categories_sizes":[],"default_left":[1,1,1,1,1,1,1,1,1,1,1,1,0,1,1,1,0,1,1,0,1,1,1,1,1,1,1,1,1,1,1,1,1,1,1,1,1,1,1,1,1,1,1,1,1,1,1,1,1,1,1],"id":0,"left_children":[1,3,5,-1,9,11,-1,-1,-1,15,-1,19,-1,-1,-1,-1,-1,-1,-1,-1,29,-1,-1,-1,-1,-1,-1,-1,-1,-1,-1,-1,-1,-1,-1,-1,-1,-1,-1,-1,-1,-1,-1,-1,-1,-1,-1,-1,-1,-1,-1],"loss_changes":[9.952878E1,9.768841E0,8.983284E0,6.8836975E-1,2.9172626E0,3.4973354E0,9.929199E-1,0E0,0E0,1.1126971E0,7.340422E-1,1.3084631E0,0E0,0E0,4.294815E-1,2.8720474E-1,0E0,3.5931087E-1,1.8639314E-1,0E0,1.1292591E0,1.4592743E-1,0E0,1.6759682E-1,0E0,0E0,8.550787E-2,2.2913094E-1,0E0,2.5140965E-1,3.518572E-1,0E0,0E0,0E0,0E0,0E0,0E0,0E0,5.3577334E-1,0E0,1.6613555E-1,0E0,0E0,0E0,0E0,1.9058496E-1,0E0,0E0,1.1232495E-3,0E0,0E0],"parents":[2147483647,0,0,1,1,2,2,3,3,4,4,5,5,6,6,9,9,10,10,11,11,14,14,15,15,17,17,18,18,20,20,21,21,23,23,26,26,27,27,29,29,30,30,38,38,40,40,45,45,48,48],"right_children":[2,4,6,-1,10,12,-1,-1,-1,16,-1,20,-1,-1,-1,-1,-1,-1,-1,-1,30,-1,-1,-1,-1,-1,-1,-1,-1,-1,-1,-1,-1,-1,-1,-1,-1,-1,-1,-1,-1,-1,-1,-1,-1,-1,-1,-1,-1,-1,-1],"split_conditions":[2.0005E3,2.75E1,4.719E3,2.4305344E-2,1.5E0,4.85E1,-3.559511E-2,-0E0,2.4579382E-2,1.5025E3,-0E0,2.55E1,-0E0,-0E0,-3.7161432E-2,1.5236623E-2,-0E0,6.8274555E-3,-1.038122E-3,-0E0,1.5E0,-3.762371E-2,-0E0,1.5764512E-2,-0E0,-0E0,8.522185E-3,-2.8864127E-3,-0E0,-2.9720017E-3,-2.5402982E-2,-3.7750475E-2,-0E0,-0E0,1.5950693E-2,9.44227E-3,-0E0,-0E0,-4.813635E-3,-0E0,-4.866128E-3,-2.597123E-2,-0E0,-8.739196E-3,-0E0,-5.7988344E-3,-0E0,-0E0,-7.0781E-3,-7.1553444E-3,-0E0],"split_indices":[6,6,6,4,3,4,4,2147483647,2147483647,6,4,4,0,2147483647,2147483647,4,0,2147483647,2147483647,0,3,2147483647,2147483647,2147483647,2147483647,2147483647,2147483647,2147483647,2147483647,4,6,2147483647,2147483647,2147483647,2147483647,2147483647,2147483647,2147483647,2147483647,2147483647,2147483647,2147483647,2147483647,2147483647,2147483647,2147483647,2147483647,2147483647,2147483647,2147483647,2147483647],"split_type":[0,0,0,0,0,0,0,0,0,0,0,0,0,0,0,0,0,0,0,0,0,0,0,0,0,0,0,0,0,0,0,0,0,0,0,0,0,0,0,0,0,0,0,0,0,0,0,0,0,0,0],"sum_hessian":[2.4E4,1.5105394E4,8.894605E3,6.481053E3,8.624341E3,4.2443447E3,4.650261E3,4.1164997E1,6.4398887E3,4.0597407E3,4.5645996E3,3.7563284E3,4.880165E2,3.1903995E2,4.331221E3,3.1571663E3,9.025745E2,1.3427303E3,3.2218694E3,4.6060355E2,3.2957249E3,4.252746E3,7.847498E1,3.0532732E3,1.0389308E2,3.5686893E1,1.3070435E3,2.4302554E3,7.9161395E2,1.631292E3,1.6644327E3,4.2334487E3,1.9297495E1,1.1576252E1,3.041697E3,1.1510404E3,1.5600305E2,6.6647345E2,1.7637821E3,6.724805E1,1.564044E3,1.6393414E3,2.5091234E1,1.1664617E3,5.973203E2,1.5460203E3,1.8023718E1,1.6597867E2,1.3800416E3,1.3523804E3,2.766124E1],"tree_param":{"num_deleted":"34","num_feature":"7","num_nodes":"51","size_leaf_vector":"0"}},{"base_weights":[-0E0,7.318607E-2,-9.2961006E-2,1.5112141E-1,3.3427514E-2,-6.564985E-2,-1.2540276E-1,4.1887555E-2,-0E0,-3.0526862E-2,-9.089376E-2,6.1214905E-2,1.8102597E-2,-0E0,3.321235E-2],"categories":[],"categories_nodes":[],"categories_segments":[],"categories_sizes":[],"default_left":[1,1,1,0,1,1,0,1,0,0,0,1,1,1,1],"id":1,"left_children":[1,3,5,-1,7,9,-1,-1,-1,-1,-1,-1,-1,-1,-1],"loss_changes":[1.6314424E2,3.564962E1,3.0243835E0,0E0,1.9116917E0,1.551506E0,0E0,5.768919E-1,0E0,0E0,0E0,0E0,9.698659E-1,0E0,0E0],"parents":[2147483647,0,0,1,1,2,2,4,4,5,5,7,7,12,12],"right_children":[2,4,6,-1,8,10,-1,-1,-1,-1,-1,-1,-1,-1,-1],"split_conditions":[1.45E5,4.5E4,2.65E5,4.5336425E-2,1.05E5,5E-1,-3.762083E-2,1.25662675E-2,-0E0,-9.158059E-3,-2.7268128E-2,1.8364472E-2,5.4307794E-3,-0E0,9.963705E-3],"split_indices":[0,0,0,0,0,3,0,3,0,0,0,2147483647,2147483647,2147483647,2147483647],"split_type":[0,0,0,0,0,0,0,0,0,0,0,0,0,0,0],"sum_hessian":[2.4E4,1.3470549E4,1.0529451E4,4.2701143E3,9.200435E3,6.269096E3,4.260355E3,6.9488506E3,2.251584E3,3.1682612E3,3.100835E3,3.0681968E3,3.880654E3,1.8485348E3,2.0321191E3],"tree_param":{"num_deleted":"4","num_feature":"7","num_nodes":"15","size_leaf_vector":"0"}},{"base_weights":[-0E0,5.2332263E-2,-6.695333E-2,1.0578529E-1,2.3936566E-2,-8.9671314E-2,8.798981E-3,-0E0,1.2219534E-1,-7.31696E-3,7.417695E-2,-1.8536888E-2,-1.4510615E-1,-0E0,4.0969253E-2,1.2283869E-1,-0E0,-1.929409E-2,-0E0,9.6158385E-2,7.1114296E-4,-2.397375E-2,-0E0,-2.433379E-3,-1.6007774E-1,2.4462075E-3,-3.234654E-2,5.9978507E-2,-0E0,-2.3911754E-2,-0E0,-4.104442E-4,7.1685137E-3,-0E0,1.0009508E-1,-0E0,3.138607E-2,-0E0,-6.53043E-2,-1.831333E-2,-0E0,-0E0,6.4539243E-3,-0E0,-4.6842113E-2,-0E0,6.203656E-2,-0E0,-2.5557164E-2,-0E0,-1.15274E-2,2.8671248E-2,-0E0,-0E0,-6.0411025E-4,-2.1896215E-2,-0E0,-0E0,-7.647778E-2,-0E0,-2.0002378E-2,-5.1361658E-2,-0E0,-2.664874E-2,-0E0,-1.8654235E-2,-0E0,3.0790746E-2,-0E0,-3.9813012E-2,-0E0,1.1602529E-2,-0E0,-0E0,-3.9822806E-2,-0E0,-4.1576248E-2,-0E0,1.792346E-2,-2.6793415E-3,-0E0,2.868215E-2,-0E0,-7.961821E-3,-0E0,-0E0,-1.7640783E-2],"categories":[],"categories_nodes":[],"categories_segments":[],"categories_sizes":[],"default_left":[1,1,1,1,1,1,1,0,1,1,1,1,1,1,1,1,1,1,1,1,1,1,0,1,0,1,1,1,0,1,1,1,1,1,1,1,1,1,1,1,1,1,1,1,1,1,1,1,1,1,1,1,1,1,1,1,1,1,1,1,1,1,1,1,1,1,1,1,1,1,1,1,1,1,1,1,1,1,1,1,1,1,1,1,1,1,1],"id":2,"left_children":[1,3,5,7,9,11,13,-1,-1,-1,19,21,23,-1,27,-1,-1,-1,-1,-1,-1,37,-1,-1,-1,-1,-1,-1,-1,-1,-1,-1,-1,-1,-1,-1,-1,-1,-1,-1,-1,-1,-1,-1,-1,-1,-1,-1,-1,-1,-1,-1,-1,-1,-1,-1,-1,-1,-1,-1,-1,-1,-1,-1,-1,-1,-1,-1,-1,-1,-1,-1,-1,-1,-1,-1,-1,-1,-1,-1,-1,-1,-1,-1,-1,-1,-1],"loss_changes":[8.409242E1,1.616523E1,2.0789398E1,5.724018E0,1.6652863E1,2.786309E1,1.2578726E0,0E0,4.0964127E-1,6.3709676E-1,3.1552677E0,8.449991E-1,4.2068176E0,5.841652E-1,1.1723217E0,0E0,0E0,3.2741028E-1,6.970765E-2,3.2823372E-1,9.256834E-1,2.284345E0,0E0,1.7290258E-1,0E0,1.8104497E-2,4.8246586E-1,1.3640213E-1,0E0,1.400485E-1,0E0,1.042092E-1,4.2962363E-1,0E0,0E0,1.07035994E-4,0E0,5.0005823E-1,2.7050972E-2,9.254321E-3,0E0,0E0,0E0,0E0,1.6739953E-1,0E0,0E0,0E0,5.846143E-3,0E0,1.5363163E-1,7.011536E-2,0E0,0E0,0E0,8.380521E-1,1.5957446E-1,0E0,0E0,0E0,0E0,0E0,0E0,2.4976015E-2,0E0,0E0,0E0,0E0,0E0,8.278406E-2,0E0,1.7225794E-1,0E0,6.7563383E-3,0E0,0E0,0E0,0E0,2.935623E-1,3.4531176E-2,0E0,0E0,0E0,6.610182E-2,0E0,0E0,0E0],"parents":[2147483647,0,0,1,1,2,2,3,3,4,4,5,5,6,6,8,8,9,9,10,10,11,11,12,12,13,13,14,14,17,17,18,18,19,19,20,20,21,21,23,23,25,25,26,26,27,27,29,29,31,31,32,32,35,35,37,37,38,38,39,39,44,44,48,48,50,50,51,51,55,55,56,56,63,63,69,69,71,71,73,73,78,78,79,79,83,83],"right_children":[2,4,6,8,10,12,14,-1,-1,-1,20,22,24,-1,28,-1,-1,-1,-1,-1,-1,38,-1,-1,-1,-1,-1,-1,-1,-1,-1,-1,-1,-1,-1,-1,-1,-1,-1,-1,-1,-1,-1,-1,-1,-1,-1,-1,-1,-1,-1,-1,-1,-1,-1,-1,-1,-1,-1,-1,-1,-1,-1,-1,-1,-1,-1,-1,-1,-1,-1,-1,-1,-1,-1,-1,-1,-1,-1,-1,-1,-1,-1,-1,-1,-1,-1],"split_conditions":[1.45E5,4.5E4,1.13716E5,1.915E2,2.9703E4,2.555E3,1.853315E5,-0E0,3.6658604E-2,-2.1950882E-3,1.05E5,2.3945E3,1.65E5,-0E0,4.75E5,3.6851607E-2,-0E0,-5.7882275E-3,-0E0,2.8847517E-2,2.133429E-4,5.805E2,-0E0,-7.300137E-4,-4.8023324E-2,7.338623E-4,-9.703962E-3,1.7993553E-2,-0E0,-7.1735266E-3,-0E0,-1.2313326E-4,2.1505542E-3,-0E0,3.0028524E-2,-0E0,9.415821E-3,-0E0,-1.959129E-2,-5.493999E-3,-0E0,-0E0,1.9361774E-3,-0E0,-1.4052634E-2,-0E0,1.861097E-2,-0E0,-7.6671494E-3,-0E0,-3.4582203E-3,8.601375E-3,-0E0,-0E0,-1.8123307E-4,-6.568865E-3,-0E0,-0E0,-2.2943335E-2,-0E0,-6.000714E-3,-1.5408498E-2,-0E0,-7.994622E-3,-0E0,-5.596271E-3,-0E0,9.237224E-3,-0E0,-1.1943904E-2,-0E0,3.480759E-3,-0E0,-0E0,-1.1946842E-2,-0E0,-1.24728745E-2,-0E0,5.377038E-3,-8.0380245E-4,-0E0,8.604646E-3,-0E0,-2.3885462E-3,-0E0,-0E0,-5.292235E-3],"split_indices":[0,0,5,5,5,5,5,0,5,2,0,5,0,0,0,2147483647,2147483647,2147483647,2147483647,5,5,5,0,5,0,2147483647,2147483647,0,0,2147483647,2147483647,2147483647,2147483647,2147483647,2147483647,2147483647,2147483647,0,0,2147483647,2147483647,2147483647,2147483647,2147483647,2147483647,2147483647,2147483647,2147483647,2147483647,2147483647,2147483647,2147483647,2147483647,2147483647,2147483647,2147483647,2147483647,2147483647,2147483647,2147483647,2147483647,2147483647,2147483647,2147483647,2147483647,2147483647,2147483647,2147483647,2147483647,2147483647,2147483647,2147483647,2147483647,2147483647,2147483647,2147483647,2147483647,2147483647,2147483647,2147483647,2147483647,2147483647,2147483647,2147483647,2147483647,2147483647,2147483647],"split_type":[0,0,0,0,0,0,0,0,0,0,0,0,0,0,0,0,0,0,0,0,0,0,0,0,0,0,0,0,0,0,0,0,0,0,0,0,0,0,0,0,0,0,0,0,0,0,0,0,0,0,0,0,0,0,0,0,0,0,0,0,0,0,0,0,0,0,0,0,0,0,0,0,0,0,0,0,0,0,0,0,0,0,0,0,0,0,0],"sum_hessian":[2.4E4,1.3470549E4,1.0529451E4,4.2701143E3,9.200435E3,8.435335E3,2.0941162E3,6.8654816E2,3.583566E3,5.2670757E3,3.933359E3,3.9552542E3,4.4800806E3,1.248138E3,8.459783E2,3.5732747E3,1.0291249E1,2.4688953E3,2.7981804E3,2.6817615E3,1.2515974E3,3.8349155E3,1.2033861E2,6.348113E2,3.8452695E3,6.9381903E2,5.54319E2,7.2057825E2,1.2540004E2,2.1800305E3,2.8886484E2,1.4464437E3,1.3517366E3,1.74038E2,2.5077234E3,3.1128503E2,9.4031244E2,2.7824685E3,1.0524471E3,5.267251E2,1.08086174E2,1.5951997E2,5.342991E2,7.012247E1,4.841965E2,1.1576252E1,7.09002E2,5.7261208E1,2.1227693E3,6.6040894E2,7.8603485E2,6.0710376E2,7.4463275E2,1.8023718E1,2.932613E2,1.0429668E3,1.7395017E3,2.8044495E2,7.7200214E2,6.2074356E1,4.6465073E2,4.66184E2,1.8012491E1,1.9606569E3,1.6211243E2,7.416349E2,4.4399952E1,6.003519E2,6.7518783E0,8.4416437E2,1.9880237E2,1.1853524E3,5.5414923E2,1.0669302E3,8.937268E2,2.2194365E1,8.2197003E2,1.5244122E2,1.0329113E3,9.411134E2,1.258167E2,7.601763E2,2.7273492E2,6.5129047E2,2.8982297E2,3.062348E2,3.4505563E2],"tree_param":{"num_deleted":"62","num_feature":"7","num_nodes":"87","size_leaf_vector":"0"}},{"base_weights":[-0E0,-1.6520092E-2,2.337494E-2,-2.183785E-2,-0E0,4.743142E-2,-0E0,-0E0,-2.8963542E-2,3.1658934E-4,-0E0,4.7698203E-2,-0E0,-0E0,6.1412742E-3,4.1049262E-4,-1.0007453E-2,1.8848047E-2,-0E0,-0E0,3.2906625E-3,-1.1639795E-2,-0E0],"categories":[],"categories_nodes":[],"categories_segments":[],"categories_sizes":[],"default_left":[1,1,1,1,1,1,1,0,0,1,1,1,1,1,1,1,1,1,1,1,1,1,1],"id":3,"left_children":[1,3,5,7,-1,-1,-1,-1,-1,-1,-1,-1,-1,-1,-1,-1,-1,-1,-1,-1,-1,-1,-1],"loss_changes":[9.235586E0,1.914393E0,4.9047766E0,2.466259E0,1.492148E-4,8.147144E-2,5.2278377E-2,0E0,0E0,0E0,0E0,0E0,0E0,2.893568E-1,2.9228812E-1,1.0286177E-2,4.9959153E-2,0E0,0E0,0E0,0E0,0E0,0E0],"parents":[2147483647,0,0,1,1,2,2,3,3,4,4,5,5,6,6,13,13,14,14,15,15,16,16],"right_children":[2,4,6,8,-1,-1,-1,-1,-1,-1,-1,-1,-1,-1,-1,-1,-1,-1,-1,-1,-1,-1,-1],"split_conditions":[5E-1,4.55E1,1.5E0,2.55E1,-0E0,1.4229427E-2,-0E0,-0E0,-8.689063E-3,9.497681E-5,-0E0,1.4309461E-2,-0E0,-0E0,1.8423824E-3,1.231478E-4,-3.0022361E-3,5.654414E-3,-0E0,-0E0,9.871988E-4,-3.4919388E-3,-0E0],"split_indices":[1,4,3,4,3,4,4,0,0,2147483647,2147483647,2147483647,2147483647,2147483647,2147483647,2147483647,2147483647,2147483647,2147483647,2147483647,2147483647,2147483647,2147483647],"split_type":[0,0,0,0,0,0,0,0,0,0,0,0,0,0,0,0,0,0,0,0,0,0,0],"sum_hessian":[2.4E4,1.4179554E4,9.820446E3,1.2128915E4,2.0506394E3,4.565195E3,5.255251E3,2.2939429E3,9.834972E3,1.4887129E3,5.6192664E2,4.550079E3,1.51156225E1,3.8691465E3,1.3861047E3,9.815672E2,2.887579E3,9.699012E2,4.1620358E2,1.6400625E1,9.651666E2,2.5032075E3,3.843717E2],"tree_param":{"num_deleted":"14","num_feature":"7","num_nodes":"23","size_leaf_vector":"0"}},{"base_weights":[-0E0,3.8133513E-2,-4.7284275E-2,5.643937E-2,9.690102E-5,7.53028E-3,-7.871744E-2,5.9981346E-2,-0E0,-2.5721905E-3,2.3347367E-2,1.6531162E-2,-0E0,-5.3084843E-2,-1.2003615E-1,7.8780696E-2,3.2087095E-2,-0E0,-1.725077E-2,-0E0,3.7506394E-2,-0E0,2.891935E-2,-6.81479E-2,-9.940114E-3,-1.2549314E-1,-0E0,7.915376E-2,-0E0,-1.8530717E-2,-0E0,3.834893E-2,-0E0,3.0526377E-2,-0E0,-0E0,-7.2745845E-2,-1.0221829E-2,-0E0,-1.2576619E-1,-0E0,-7.3167E-2,-0E0,-1.067516E-2,-0E0],"categories":[],"categories_nodes":[],"categories_segments":[],"categories_sizes":[],"default_left":[1,1,1,1,1,1,1,1,0,1,1,1,1,1,1,1,1,1,1,1,1,1,1,1,1,1,0,1,1,1,1,1,1,1,1,0,1,1,1,1,1,1,1,1,1],"id":4,"left_children":[1,3,5,7,-1,-1,13,-1,-1,-1,-1,-1,-1,23,25,-1,-1,-1,-1,-1,-1,-1,-1,35,-1,-1,-1,-1,-1,-1,-1,-1,-1,-1,-1,-1,-1,-1,-1,-1,-1,-1,-1,-1,-1],"loss_changes":[4.313028E1,7.5137672E0,2.0491438E1,1.6718998E0,9.935353E-1,5.395956E-1,1.779583E0,5.352707E-1,0E0,6.1766773E-1,9.4182545E-1,9.2576444E-1,0E0,5.809059E-1,1.4645214E0,1.1691284E-1,0E0,0E0,8.658534E-2,0E0,7.089543E-2,0E0,1.83774E-1,1.1795425E0,9.354234E-3,4.8812866E-2,0E0,0E0,0E0,0E0,0E0,0E0,0E0,0E0,0E0,0E0,8.955765E-2,8.139342E-3,0E0,0E0,0E0,0E0,0E0,0E0,0E0],"parents":[2147483647,0,0,1,1,2,2,3,3,4,4,5,5,6,6,7,7,9,9,10,10,11,11,13,13,14,14,15,15,18,18,20,20,22,22,23,23,24,24,25,25,36,36,37,37],"right_children":[2,4,6,8,-1,-1,14,-1,-1,-1,-1,-1,-1,24,26,-1,-1,-1,-1,-1,-1,-1,-1,36,-1,-1,-1,-1,-1,-1,-1,-1,-1,-1,-1,-1,-1,-1,-1,-1,-1,-1,-1,-1,-1],"split_conditions":[1.45E5,7.5E4,5.435E2,4.028E3,2.9070308E-5,2.259084E-3,3.05E5,1.7994404E-2,-0E0,-7.7165716E-4,7.0042103E-3,4.9593486E-3,-0E0,5E-1,9.4934E4,2.363421E-2,9.626129E-3,-0E0,-5.1752315E-3,-0E0,1.1251919E-2,-0E0,8.675805E-3,8.385E2,-2.9820343E-3,-3.7647944E-2,-0E0,2.374613E-2,-0E0,-5.5592153E-3,-0E0,1.150468E-2,-0E0,9.157914E-3,-0E0,-0E0,-2.1823755E-2,-3.0665488E-3,-0E0,-3.772986E-2,-0E0,-2.1950101E-2,-0E0,-3.2025483E-3,-0E0],"split_indices":[0,0,6,6,1,6,0,0,0,2147483647,2147483647,2147483647,2147483647,1,6,2147483647,2147483647,2147483647,2147483647,2147483647,2147483647,2147483647,2147483647,6,6,0,0,2147483647,2147483647,2147483647,2147483647,2147483647,2147483647,2147483647,2147483647,0,6,2147483647,2147483647,2147483647,2147483647,2147483647,2147483647,2147483647,2147483647],"split_type":[0,0,0,0,0,0,0,0,0,0,0,0,0,0,0,0,0,0,0,0,0,0,0,0,0,0,0,0,0,0,0,0,0,0,0,0,0,0,0,0,0,0,0,0,0],"sum_hessian":[2.4E4,1.3470549E4,1.0529451E4,8.50821E3,4.9623394E3,3.4548704E3,7.074581E3,7.9977393E3,5.1047037E2,3.1781907E3,1.7841486E3,2.6913792E3,7.6349115E2,4.858983E3,2.215598E3,4.070996E3,3.926743E3,1.0319868E3,2.1462039E3,4.2330478E2,1.3608439E3,7.050235E2,1.9863556E3,3.0346248E3,1.8243582E3,2.120091E3,9.550688E1,4.0513718E3,1.962436E1,2.1121064E3,3.409748E1,1.34991E3,1.093375E1,1.9799307E3,6.4250145E0,1.4859744E2,2.8860273E3,1.8147094E3,9.648747E0,2.1139817E3,6.109377E0,2.8696267E3,1.6400625E1,1.7352762E3,7.943312E1],"tree_param":{"num_deleted":"28","num_feature":"7","num_nodes":"45","size_leaf_vector":"0"}},{"base_weights":[-0E0,2.7439183E-2,-3.394682E-2,-0E0,4.578615E-2,-5.5106714E-2,1.6548727E-2,3.40396E-2,-1.6430749E-2,3.6401097E-3,5.5192746E-2,-8.574835E-3,-9.803349E-2,-0E0,4.9949665E-2,3.7694115E-2,-0E0,-2.275242E-2,-0E0,3.0129615E-2,-0E0,5.918606E-2,-0E0,-2.531214E-2,-0E0,-1.0495236E-1,-0E0,3.009727E-2,-3.689384E-2,6.467625E-2,-0E0,-0E0,4.1529246E-2,-0E0,-2.725466E-2,-0E0,3.4214176E-2,-1.4194273E-2,-0E0,6.075914E-2,-0E0,-0E0,-2.9910477E-2,-0E0,3.8967065E-3,-1.0518513E-1,-0E0,-0E0,4.79029E-2,-0E0,-4.183625E-2,-0E0,6.708604E-2,-0E0,4.2383965E-2,-3.4128822E-2,-0E0,3.5870682E-2,-0E0,-0E0,-2.7320156E-2,6.512062E-2,-0E0,-0E0,-3.4439784E-2,1.3963968E-2,-0E0,5.9657E-2,-0E0,-4.4183303E-2,-0E0,-3.457837E-2,-0E0,-0E0,3.7138414E-2,-4.0354285E-2,-0E0,-0E0,2.519974E-2,6.385246E-2,-0E0,3.277158E-2,-0E0,6.671328E-2,-0E0],"categories":[],"categories_nodes":[],"categories_segments":[],"categories_sizes":[],"default_left":[1,1,1,1,1,1,1,1,1,1,1,1,1,1,1,1,1,1,1,1,1,1,1,1,1,1,0,1,1,1,1,1,1,1,1,1,1,1,1,1,1,1,1,1,1,1,1,1,1,1,1,1,1,1,1,1,1,1,1,1,1,1,1,1,1,1,1,1,1,1,1,1,1,1,1,1,1,1,1,1,1,1,1,1,1],"id":5,"left_children":[1,3,5,7,9,11,13,-1,-1,-1,-1,23,25,27,-1,-1,-1,-1,-1,-1,-1,-1,-1,-1,-1,-1,-1,-1,-1,-1,-1,-1,-1,-1,-1,-1,-1,-1,-1,-1,-1,-1,-1,-1,-1,-1,-1,-1,-1,-1,-1,-1,-1,-1,-1,-1,-1,-1,-1,-1,-1,-1,-1,-1,-1,-1,-1,-1,-1,-1,-1,-1,-1,-1,-1,-1,-1,-1,-1,-1,-1,-1,-1,-1,-1],"loss_changes":[2.2276146E1,7.3751936E0,1.25229845E1,2.632236E0,1.3712559E0,1.2223238E1,1.3853476E0,3.4310377E-1,7.443961E-1,7.0661056E-1,6.340294E-1,1.068541E0,1.8702774E0,1.9912245E0,9.035504E-1,3.712368E-1,0E0,6.6525793E-1,0E0,1.9857264E-1,1.296046E-1,4.1105652E-1,0E0,4.676062E-1,2.402494E-2,9.990692E-2,0E0,5.977266E-1,1.8445003E-1,1.7670727E-1,0E0,0E0,4.7279835E-2,0E0,5.220916E-1,0E0,6.736624E-2,1.7021464E-1,0E0,5.8403015E-1,0E0,0E0,5.388218E-1,0E0,2.2103932E-1,0E0,0E0,0E0,7.027422E-1,0E0,1.0332024E-1,0E0,0E0,0E0,0E0,5.4296255E-2,0E0,5.5603743E-2,0E0,0E0,0E0,0E0,0E0,0E0,4.9648237E-1,4.844212E-1,0E0,9.918094E-2,0E0,0E0,0E0,0E0,0E0,0E0,0E0,0E0,0E0,0E0,3.480524E-2,1.7967248E-1,0E0,0E0,0E0,0E0,0E0],"parents":[2147483647,0,0,1,1,2,2,3,3,4,4,5,5,6,6,7,7,8,8,9,9,10,10,11,11,12,12,13,13,14,14,15,15,17,17,19,19,20,20,21,21,23,23,24,24,25,25,27,27,28,28,29,29,32,32,34,34,36,36,37,37,39,39,42,42,44,44,48,48,50,50,55,55,57,57,64,64,65,65,67,67,78,78,79,79],"right_children":[2,4,6,8,10,12,14,-1,-1,-1,-1,24,26,28,-1,-1,-1,-1,-1,-1,-1,-1,-1,-1,-1,-1,-1,-1,-1,-1,-1,-1,-1,-1,-1,-1,-1,-1,-1,-1,-1,-1,-1,-1,-1,-1,-1,-1,-1,-1,-1,-1,-1,-1,-1,-1,-1,-1,-1,-1,-1,-1,-1,-1,-1,-1,-1,-1,-1,-1,-1,-1,-1,-1,-1,-1,-1,-1,-1,-1,-1,-1,-1,-1,-1],"split_conditions":[1.45E5,1.22695E4,8.74915E4,2.5E4,2.65E1,3.222E3,1.853315E5,1.0211881E-2,-4.929225E-3,1.092033E-3,1.6557824E-2,3.65E1,4.95E1,2.25E5,1.49849E-2,1.1308235E-2,-0E0,-6.825726E-3,-0E0,9.038885E-3,-0E0,1.775582E-2,-0E0,-7.5936425E-3,-0E0,-3.148571E-2,-0E0,9.029182E-3,-1.1068152E-2,1.9402875E-2,-0E0,-0E0,1.2458774E-2,-0E0,-8.176398E-3,-0E0,1.0264253E-2,-4.258282E-3,-0E0,1.8227743E-2,-0E0,-0E0,-8.973143E-3,-0E0,1.169012E-3,-3.155554E-2,-0E0,-0E0,1.4370871E-2,-0E0,-1.2550876E-2,-0E0,2.0125814E-2,-0E0,1.271519E-2,-1.0238647E-2,-0E0,1.0761205E-2,-0E0,-0E0,-8.1960475E-3,1.9536188E-2,-0E0,-0E0,-1.0331935E-2,4.1891905E-3,-0E0,1.7897101E-2,-0E0,-1.3254992E-2,-0E0,-1.0373512E-2,-0E0,-0E0,1.1141525E-2,-1.2106286E-2,-0E0,-0E0,7.559922E-3,1.9155739E-2,-0E0,9.831474E-3,-0E0,2.0013984E-2,-0E0],"split_indices":[0,5,5,0,4,5,5,5,4,0,0,4,4,0,0,2147483647,2147483647,2147483647,2147483647,2147483647,2147483647,2147483647,2147483647,5,0,0,0,4,5,2147483647,2147483647,2147483647,2147483647,2147483647,2147483647,2147483647,2147483647,2147483647,2147483647,2147483647,2147483647,2147483647,2147483647,2147483647,2147483647,2147483647,2147483647,2147483647,2147483647,2147483647,2147483647,2147483647,2147483647,2147483647,2147483647,2147483647,2147483647,2147483647,2147483647,2147483647,2147483647,2147483647,2147483647,2147483647,2147483647,2147483647,2147483647,2147483647,2147483647,2147483647,2147483647,2147483647,2147483647,2147483647,2147483647,2147483647,2147483647,2147483647,2147483647,2147483647,2147483647,2147483647,2147483647,2147483647,2147483647],"split_type":[0,0,0,0,0,0,0,0,0,0,0,0,0,0,0,0,0,0,0,0,0,0,0,0,0,0,0,0,0,0,0,0,0,0,0,0,0,0,0,0,0,0,0,0,0,0,0,0,0,0,0,0,0,0,0,0,0,0,0,0,0,0,0,0,0,0,0,0,0,0,0,0,0,0,0,0,0,0,0,0,0,0,0,0,0],"sum_hessian":[2.4E4,1.3470549E4,1.0529451E4,5.1145645E3,8.355984E3,7.880633E3,2.648818E3,1.4081056E3,3.7064587E3,2.1648113E3,6.191173E3,4.1504272E3,3.7302056E3,1.80284E3,8.459783E2,1.3897775E3,1.832813E1,3.3708948E3,3.3556406E2,8.0995197E2,1.3548593E3,5.5649062E3,6.262666E2,2.1440405E3,2.0063867E3,3.4243875E3,3.0581815E2,1.0164208E3,7.864191E2,7.2057825E2,1.2540004E2,2.9588743E1,1.3601887E3,1.2612112E2,3.2447737E3,1.2218754E1,7.977332E2,6.432424E2,7.116169E2,5.3918267E3,1.7307985E2,8.5891815E1,2.0581487E3,4.241956E2,1.5821912E3,3.418278E3,6.109377E0,3.547156E2,6.617052E2,6.945751E1,7.169616E2,1.1576252E1,7.09002E2,2.7988102E1,1.3322007E3,2.5175222E3,7.272515E2,7.781089E2,1.962436E1,2.4157922E2,4.0166312E2,4.8314893E3,5.603372E2,5.1478695E1,2.00667E3,1.2567599E3,3.2543127E2,6.2409076E2,3.76144E1,6.9573663E2,2.1224998E1,2.4978977E3,1.962436E1,1.1903115E1,7.6620575E2,1.766432E3,2.402381E2,1.08041275E2,1.1487186E3,5.6909515E2,5.4995617E1,7.116169E2,4.371017E2,5.617008E2,7.3943796E0],"tree_param":{"num_deleted":"64","num_feature":"7","num_nodes":"85","size_leaf_vector":"0"}},{"base_weights":[-0E0,3.175215E-2,-1.6009165E-2,-0E0,4.013207E-2,-3.46204E-2,2.4106914E-2,-0E0,-1.6156231E-3,6.2826164E-2,1.025584E-2,-0E0,-5.2588463E-2,4.6466846E-2,-0E0,-0E0,-8.887345E-3,6.3974604E-2,-0E0,-7.0961784E-3,7.362586E-2,-9.881186E-3,2.1376413E-4,-2.7563805E-2,-7.74929E-2,4.736296E-2,-0E0,-3.0843498E-2,8.158233E-3,-0E0,-1.22807585E-2,-0E0,6.982279E-2,-0E0,-1.7534364E-2,7.5444E-2,-0E0,-2.9580852E-2,-0E0,1.6301678E-2,-0E0,-3.3715885E-2,-0E0,-0E0,-7.861724E-2,-0E0,5.240794E-2,-0E0,-3.8200706E-2,-0E0,2.3061538E-2,-2.545631E-2,-0E0,-0E0,-3.3009466E-2,-0E0,3.0690113E-2,-0E0,-4.289782E-2,4.0923692E-2,-0E0,-0E0,4.9946923E-2,-4.332623E-2,-0E0,-0E0,4.4117574E-2,4.6622217E-2,-0E0],"categories":[],"categories_nodes":[],"categories_segments":[],"categories_sizes":[],"default_left":[1,1,1,1,1,1,1,1,1,1,1,1,1,1,1,1,1,1,1,1,1,1,1,1,1,1,1,1,1,1,1,1,1,1,1,1,1,1,0,1,1,1,1,1,1,1,1,1,1,1,1,1,1,1,1,1,1,1,1,1,1,1,1,1,1,1,1,1,1],"id":6,"left_children":[1,3,5,-1,9,11,13,-1,-1,-1,19,21,-1,-1,-1,-1,-1,-1,-1,-1,-1,37,-1,-1,-1,-1,-1,-1,-1,-1,-1,-1,-1,-1,-1,-1,-1,-1,-1,-1,-1,-1,-1,-1,-1,-1,-1,-1,-1,-1,-1,-1,-1,-1,-1,-1,-1,-1,-1,-1,-1,-1,-1,-1,-1,-1,-1,-1,-1],"loss_changes":[1.2548449E1,2.498805E0,1.1913313E1,2.5912703E-3,2.2513256E0,5.782771E0,3.369609E0,0E0,7.088913E-2,2.789297E-1,6.1504397E0,2.2026062E-1,8.463192E-1,2.1013927E-1,9.078137E-1,0E0,5.4354966E-2,3.1887436E-1,0E0,5.705788E-1,2.0133543E-1,1.0580585E0,3.5338345E-1,9.5059204E-1,2.383995E-1,2.0306921E-1,0E0,3.2190675E-1,2.9079738E-1,0E0,0E0,0E0,0E0,0E0,2.05764E-1,0E0,0E0,1.8660796E-1,0E0,6.8308294E-1,0E0,0E0,0E0,0E0,0E0,0E0,0E0,0E0,2.6423407E-1,0E0,5.16816E-1,0E0,0E0,0E0,0E0,0E0,2.0273232E-1,0E0,4.893899E-3,6.91883E-2,0E0,0E0,0E0,0E0,0E0,0E0,9.184593E-2,0E0,0E0],"parents":[2147483647,0,0,1,1,2,2,3,3,4,4,5,5,6,6,8,8,9,9,10,10,11,11,12,12,13,13,14,14,16,16,17,17,19,19,20,20,21,21,22,22,23,23,24,24,25,25,27,27,28,28,34,34,37,37,39,39,48,48,50,50,56,56,58,58,59,59,66,66],"right_children":[2,4,6,-1,10,12,14,-1,-1,-1,20,22,-1,-1,-1,-1,-1,-1,-1,-1,-1,38,-1,-1,-1,-1,-1,-1,-1,-1,-1,-1,-1,-1,-1,-1,-1,-1,-1,-1,-1,-1,-1,-1,-1,-1,-1,-1,-1,-1,-1,-1,-1,-1,-1,-1,-1,-1,-1,-1,-1,-1,-1,-1,-1,-1,-1,-1,-1],"split_conditions":[7.5E4,1.647E3,6.7776E4,-0E0,4.5E4,9.965E2,2.35E5,-0E0,-4.8468696E-4,1.884785E-2,3.1044E4,2.05E5,-1.577654E-2,1.3940054E-2,-0E0,-0E0,-2.6662035E-3,1.9192383E-2,-0E0,-2.1288537E-3,2.208776E-2,1.085E2,6.412924E-5,-8.269141E-3,-2.3247872E-2,1.4208889E-2,-0E0,-9.25305E-3,2.44747E-3,-0E0,-3.6842276E-3,-0E0,2.0946838E-2,-0E0,-5.260309E-3,2.26332E-2,-0E0,-8.874256E-3,-0E0,4.890504E-3,-0E0,-1.0114766E-2,-0E0,-0E0,-2.3585172E-2,-0E0,1.5722383E-2,-0E0,-1.1460212E-2,-0E0,6.9184615E-3,-7.636893E-3,-0E0,-0E0,-9.9028405E-3,-0E0,9.2070345E-3,-0E0,-1.2869347E-2,1.2277109E-2,-0E0,-0E0,1.4984078E-2,-1.2997869E-2,-0E0,-0E0,1.3235273E-2,1.3986666E-2,-0E0],"split_indices":[0,5,5,3,0,5,0,2147483647,2147483647,5,5,0,0,5,5,2147483647,2147483647,2147483647,2147483647,5,5,5,5,2147483647,2147483647,2147483647,2147483647,2147483647,2147483647,2147483647,2147483647,2147483647,2147483647,2147483647,2147483647,2147483647,2147483647,5,0,2147483647,2147483647,2147483647,2147483647,2147483647,2147483647,2147483647,2147483647,2147483647,2147483647,2147483647,2147483647,2147483647,2147483647,2147483647,2147483647,2147483647,2147483647,2147483647,2147483647,2147483647,2147483647,2147483647,2147483647,2147483647,2147483647,2147483647,2147483647,2147483647,2147483647],"split_type":[0,0,0,0,0,0,0,0,0,0,0,0,0,0,0,0,0,0,0,0,0,0,0,0,0,0,0,0,0,0,0,0,0,0,0,0,0,0,0,0,0,0,0,0,0,0,0,0,0,0,0,0,0,0,0,0,0,0,0,0,0,0,0,0,0,0,0,0,0],"sum_hessian":[2.4E4,8.50821E3,1.549179E4,1.6307268E3,6.877483E3,1.1144219E4,4.347572E3,6.380224E2,9.9270435E2,3.280792E3,3.5966907E3,4.223389E3,6.9208296E3,2.7307402E3,1.6168314E3,6.242367E1,9.302807E2,3.2322102E3,4.8581825E1,2.4147556E3,1.1819352E3,2.2549436E3,1.9684456E3,4.11305E3,2.8077795E3,2.7220608E3,8.679382E0,9.043911E2,7.1244037E2,8.269053E1,8.4759015E2,4.5336633E2,2.7788438E3,1.6346478E2,2.2512908E3,1.1610259E3,2.090936E1,1.4607598E3,7.9418396E2,1.3300948E3,6.3835065E2,3.5852097E3,5.278404E2,4.1164997E1,2.7666145E3,4.2491666E2,2.297144E3,9.423311E1,8.10158E2,7.6525024E1,6.3591534E2,1.385632E3,8.6565875E2,1.164387E2,1.344321E3,2.2960876E2,1.1004861E3,2.4121868E1,7.8603613E2,5.105153E2,1.2540004E2,6.0374536E2,4.9674078E2,7.731749E2,1.2861255E1,3.569812E1,4.7481717E2,4.674228E2,7.3943796E0],"tree_param":{"num_deleted":"50","num_feature":"7","num_nodes":"69","size_leaf_vector":"0"}},{"base_weights":[-0E0,1.4673053E-2,-1.0973759E-2,-0E0,3.1685557E-2,-1.6139563E-2,-0E0,-0E0,3.2929566E-2,-0E0,-2.16143E-2,7.1801725E-3,-0E0,3.3219043E-2,-0E0,-0E0,8.278389E-3,-5.285223E-3,-0E0],"categories":[],"categories_nodes":[],"categories_segments":[],"categories_sizes":[],"default_left":[1,1,1,0,1,1,1,1,1,1,1,1,1,1,1,1,1,1,1],"id":7,"left_children":[1,3,-1,-1,-1,-1,-1,-1,-1,-1,-1,-1,-1,-1,-1,-1,-1,-1,-1],"loss_changes":[3.9506454E0,2.0424821E0,9.688884E-1,0E0,7.992029E-2,6.154609E-1,1.0704459E-1,0E0,6.329584E-2,0E0,0E0,2.7952582E-2,2.8490692E-2,0E0,0E0,0E0,0E0,0E0,0E0],"parents":[2147483647,0,0,1,1,2,2,4,4,5,5,6,6,8,8,11,11,12,12],"right_children":[2,4,-1,-1,-1,-1,-1,-1,-1,-1,-1,-1,-1,-1,-1,-1,-1,-1,-1],"split_conditions":[5E-1,5E-1,-3.2921277E-3,-0E0,9.505668E-3,-4.841869E-3,-0E0,-0E0,9.87887E-3,-0E0,-6.48429E-3,2.1540518E-3,-0E0,9.965713E-3,-0E0,-0E0,2.483517E-3,-1.585567E-3,-0E0],"split_indices":[3,1,4,0,4,2147483647,2147483647,2147483647,2147483647,2147483647,2147483647,2147483647,2147483647,2147483647,2147483647,2147483647,2147483647,2147483647,2147483647],"split_type":[0,0,0,0,0,0,0,0,0,0,0,0,0,0,0,0,0,0,0],"sum_hessian":[2.4E4,1.1177583E4,1.2822417E4,6.7462197E3,4.431364E3,9.647383E3,3.1750342E3,2.547898E2,4.1765737E3,2.9508796E3,6.696503E3,2.0762947E3,1.0987395E3,4.161458E3,1.51156225E1,1.0647431E2,1.9698203E3,1.0199153E3,7.8824295E1],"tree_param":{"num_deleted":"14","num_feature":"7","num_nodes":"19","size_leaf_vector":"0"}},{"base_weights":[-0E0,1.7934294E-2,-1.680451E-2,-0E0,2.8946212E-2,-2.7221028E-2,1.9593919E-2,1.3850137E-2,-5.999578E-3,3.2613456E-2,-0E0,-0E0,-3.979898E-2,3.5083614E-2,-0E0,1.7590215E-2,-0E0,-1.3838586E-2,-0E0,-0E0,3.2767884E-2,-1.3435606E-4,-0E0,-2.879013E-3,1.8603403E-2,-1.2755276E-2,-7.2716676E-2,3.568518E-2,-0E0,-0E0,1.8108703E-2,-0E0,-1.8542571E-2,-0E0,-2.4303144E-3,-1.3543996E-2,-0E0,3.6600616E-2,-0E0,-2.9520294E-2,-0E0,-7.53105E-2,-0E0,3.6904916E-2,-0E0,-3.865507E-2,-0E0,-0E0,-1.8149246E-2,-0E0,4.9704403E-2,-3.6747172E-2,-0E0,6.72673E-3,-0E0,-0E0,-7.612541E-2,-0E0,-1.5020032E-2,-0E0,-1.9462807E-2,-0E0,-3.742229E-2,1.3393594E-2,-0E0,-7.6441094E-2,-0E0,2.5153235E-3,-0E0,-0E0,-1.8381666E-2,-0E0,1.4612478E-2,3.929768E-3,-0E0,-1.9155962E-2,-0E0,-2.1184724E-2,-0E0],"categories":[],"categories_nodes":[],"categories_segments":[],"categories_sizes":[],"default_left":[1,1,1,1,1,1,1,1,1,1,1,1,1,1,0,1,1,1,1,1,1,1,1,1,1,1,1,1,1,1,1,1,1,1,1,1,1,1,1,1,1,1,1,1,1,1,1,1,1,1,1,1,1,1,1,1,1,1,1,1,1,1,1,1,1,1,1,1,1,1,1,1,1,1,1,1,1,1,1],"id":8,"left_children":[1,3,5,-1,-1,11,13,-1,-1,-1,-1,-1,25,-1,-1,-1,-1,-1,-1,-1,-1,-1,-1,-1,-1,39,-1,-1,-1,-1,-1,-1,-1,-1,-1,-1,-1,-1,-1,-1,-1,-1,-1,-1,-1,-1,-1,-1,-1,-1,-1,-1,-1,-1,-1,-1,-1,-1,-1,-1,-1,-1,-1,-1,-1,-1,-1,-1,-1,-1,-1,-1,-1,-1,-1,-1,-1,-1,-1],"loss_changes":[7.259492E0,2.4278076E0,4.6941524E0,3.8754416E-1,9.895382E-1,3.6447015E0,1.0509988E0,1.5991074E-1,4.348194E-1,6.0961723E-2,7.721394E-6,2.6883096E-1,3.3151646E0,4.0725112E-2,0E0,1.6546458E-2,0E0,4.0804744E-1,0E0,0E0,0E0,2.4768922E-3,0E0,3.1859627E-1,5.768572E-1,1.648915E0,4.4057846E-1,8.770442E-2,0E0,0E0,0E0,0E0,3.358575E-1,0E0,0E0,2.0251054E-1,0E0,4.824677E-1,0E0,9.119172E-1,5.5132143E-2,9.3325615E-2,0E0,0E0,0E0,0E0,2.0862044E-1,0E0,4.4344008E-2,0E0,0E0,1.0443783E-1,0E0,1.4872772E-1,0E0,0E0,8.116245E-2,3.73348E-3,4.3062553E-2,0E0,0E0,0E0,0E0,3.721404E-2,0E0,0E0,0E0,4.217034E-3,0E0,0E0,1.7046362E-2,0E0,0E0,0E0,0E0,1.1290252E-2,0E0,0E0,0E0],"parents":[2147483647,0,0,1,1,2,2,3,3,4,4,5,5,6,6,7,7,8,8,9,9,10,10,11,11,12,12,13,13,15,15,17,17,21,21,23,23,24,24,25,25,26,26,27,27,32,32,35,35,37,37,39,39,40,40,41,41,46,46,48,48,51,51,53,53,56,56,57,57,58,58,63,63,67,67,70,70,75,75],"right_children":[2,4,6,-1,-1,12,14,-1,-1,-1,-1,-1,26,-1,-1,-1,-1,-1,-1,-1,-1,-1,-1,-1,-1,40,-1,-1,-1,-1,-1,-1,-1,-1,-1,-1,-1,-1,-1,-1,-1,-1,-1,-1,-1,-1,-1,-1,-1,-1,-1,-1,-1,-1,-1,-1,-1,-1,-1,-1,-1,-1,-1,-1,-1,-1,-1,-1,-1,-1,-1,-1,-1,-1,-1,-1,-1,-1,-1],"split_conditions":[1.25E5,1.22695E4,1.27779E5,-0E0,8.683864E-3,4.985E2,3.55E5,4.155041E-3,-1.7998735E-3,9.784037E-3,-0E0,-0E0,2.55E5,1.0525085E-2,-0E0,5.2770646E-3,-0E0,-4.151576E-3,-0E0,-0E0,9.830366E-3,-4.030682E-5,-0E0,-8.6370396E-4,5.5810213E-3,5E-1,-2.1815004E-2,1.0705555E-2,-0E0,-0E0,5.4326113E-3,-0E0,-5.5627716E-3,-0E0,-7.290944E-4,-4.063199E-3,-0E0,1.0980185E-2,-0E0,-8.856089E-3,-0E0,-2.259315E-2,-0E0,1.1071475E-2,-0E0,-1.1596521E-2,-0E0,-0E0,-5.444774E-3,-0E0,1.4911321E-2,-1.1024152E-2,-0E0,2.018019E-3,-0E0,-0E0,-2.2837624E-2,-0E0,-4.50601E-3,-0E0,-5.838842E-3,-0E0,-1.1226687E-2,4.0180786E-3,-0E0,-2.2932328E-2,-0E0,7.545971E-4,-0E0,-0E0,-5.5145E-3,-0E0,4.3837437E-3,1.1789305E-3,-0E0,-5.746789E-3,-0E0,-6.3554174E-3,-0E0],"split_indices":[0,5,5,0,0,5,0,2147483647,2147483647,2147483647,2147483647,0,0,5,0,2147483647,2147483647,2147483647,2147483647,2147483647,2147483647,2147483647,2147483647,2147483647,2147483647,1,5,2147483647,2147483647,2147483647,2147483647,2147483647,2147483647,2147483647,2147483647,2147483647,2147483647,2147483647,2147483647,5,0,2147483647,2147483647,2147483647,2147483647,2147483647,2147483647,2147483647,2147483647,2147483647,2147483647,2147483647,2147483647,2147483647,2147483647,2147483647,2147483647,2147483647,2147483647,2147483647,2147483647,2147483647,2147483647,2147483647,2147483647,2147483647,2147483647,2147483647,2147483647,2147483647,2147483647,2147483647,2147483647,2147483647,2147483647,2147483647,2147483647,2147483647,2147483647],"split_type":[0,0,0,0,0,0,0,0,0,0,0,0,0,0,0,0,0,0,0,0,0,0,0,0,0,0,0,0,0,0,0,0,0,0,0,0,0,0,0,0,0,0,0,0,0,0,0,0,0,0,0,0,0,0,0,0,0,0,0,0,0,0,0,0,0,0,0,0,0,0,0,0,0,0,0,0,0,0,0],"sum_hessian":[2.4E4,1.22830205E4,1.17169795E4,4.670395E3,7.6126255E3,9.8148125E3,1.9021669E3,1.4081056E3,3.2622896E3,6.9271924E3,6.8543286E2,2.9223977E3,6.892415E3,1.4471649E3,4.5500195E2,1.3897775E3,1.832813E1,2.8836667E3,3.7862286E2,8.363745E0,6.9188286E3,4.277125E2,2.5772034E2,2.1983025E3,7.2409515E2,4.334184E3,2.558231E3,1.4307643E3,1.6400625E1,2.7988102E1,1.3617894E3,9.073864E1,2.792928E3,7.0787416E0,4.2063376E2,1.8360916E3,3.6221103E2,6.176658E2,1.0642941E2,2.701314E3,1.6328702E3,2.4627239E3,9.550688E1,1.4021449E3,2.8619379E1,8.674179E2,1.9255101E3,1.9879114E2,1.6373004E3,8.747E1,5.3019574E2,2.418592E3,2.8272177E2,1.2183907E3,4.1447946E2,3.6340622E1,2.4263833E3,1.0008086E3,9.2470154E2,9.648747E1,1.5408129E3,1.1903115E1,2.406689E3,1.1363876E3,8.200313E1,2.420274E3,6.109377E0,5.900719E2,4.1073672E2,1.7985419E2,7.448474E2,7.3943796E0,1.1289933E3,5.1479816E2,7.52737E1,7.3230176E2,1.2545617E1,6.239112E2,1.0839059E2],"tree_param":{"num_deleted":"64","num_feature":"7","num_nodes":"79","size_leaf_vector":"0"}},{"base_weights":[-0E0,2.9751237E-2,-1.969039E-2,3.9640434E-2,1.5219384E-3,-3.5122324E-2,-0E0,-0E0,4.101882E-2,-0E0,1.1388309E-2,-5.8014672E-2,-3.2545838E-3,-4.0494134E-3,-0E0,1.7926898E-2,-0E0,-0E0,-6.0893342E-2,-5.701915E-3,-0E0,-0E0,-6.4200056E-3,8.864557E-3,-0E0,-0E0,2.3595352E-2,-7.3823757E-3,-8.092839E-2,-0E0,-1.1384875E-2,-7.634731E-3,-0E0,-0E0,1.1322095E-2,-0E0,-9.700832E-3,-2.169075E-2,-0E0,-8.2450666E-2,-0E0,-1.2247855E-2,-0E0,-0E0,-8.444476E-3,-1.0659814E-2,-0E0,-2.271054E-2,-0E0,-0E0,-1.5947483E-2,-1.177869E-2,-0E0,-2.1535417E-2,-0E0],"categories":[],"categories_nodes":[],"categories_segments":[],"categories_sizes":[],"default_left":[1,1,1,1,1,1,1,1,1,1,1,1,1,1,1,1,1,1,1,1,1,1,1,1,1,1,1,1,1,1,1,1,1,1,1,1,1,1,1,1,1,1,1,1,1,1,1,1,1,1,1,1,1,1,1],"id":9,"left_children":[1,3,5,-1,-1,11,-1,-1,-1,-1,-1,-1,-1,-1,-1,-1,-1,-1,-1,-1,-1,-1,-1,-1,-1,-1,-1,-1,-1,-1,-1,-1,-1,-1,-1,-1,-1,-1,-1,-1,-1,-1,-1,-1,-1,-1,-1,-1,-1,-1,-1,-1,-1,-1,-1],"loss_changes":[1.4278699E1,1.4329281E0,3.3652325E0,6.566601E-1,3.188017E-1,3.1786404E0,4.64538E-2,0E0,0E0,0E0,3.7591678E-1,9.1427803E-1,5.8993123E-2,6.832054E-2,1.5830527E-1,4.6828932E-1,0E0,0E0,8.006716E-1,5.4009587E-2,0E0,0E0,4.6172455E-2,8.889054E-2,1.1002962E-1,0E0,0E0,1.8012474E-1,3.7115002E-1,0E0,2.2593677E-2,2.7324483E-2,0E0,0E0,0E0,0E0,2.1732956E-2,7.553488E-3,0E0,0E0,0E0,0E0,0E0,0E0,5.278787E-2,5.597934E-3,0E0,0E0,0E0,0E0,1.4750212E-1,0E0,0E0,0E0,0E0],"parents":[2147483647,0,0,1,1,2,2,3,3,4,4,5,5,6,6,10,10,11,11,12,12,13,13,14,14,15,15,18,18,19,19,22,22,23,23,24,24,27,27,28,28,30,30,31,31,36,36,37,37,44,44,45,45,50,50],"right_children":[2,4,6,-1,-1,12,-1,-1,-1,-1,-1,-1,-1,-1,-1,-1,-1,-1,-1,-1,-1,-1,-1,-1,-1,-1,-1,-1,-1,-1,-1,-1,-1,-1,-1,-1,-1,-1,-1,-1,-1,-1,-1,-1,-1,-1,-1,-1,-1,-1,-1,-1,-1,-1,-1],"split_conditions":[9.255E2,6.75E1,2.5E0,1.1892131E-2,4.5658153E-4,3.45E1,-0E0,-0E0,1.2305647E-2,-0E0,3.4164928E-3,-1.7404402E-2,-9.763752E-4,-1.214824E-3,-0E0,5.3780694E-3,-0E0,-0E0,-1.8268004E-2,-1.7105745E-3,-0E0,-0E0,-1.9260017E-3,2.6593674E-3,-0E0,-0E0,7.0786057E-3,-2.2147128E-3,-2.427852E-2,-0E0,-3.4154626E-3,-2.2904193E-3,-0E0,-0E0,3.3966287E-3,-0E0,-2.9102496E-3,-6.5072253E-3,-0E0,-2.4735201E-2,-0E0,-3.6743565E-3,-0E0,-0E0,-2.533343E-3,-3.1979443E-3,-0E0,-6.813162E-3,-0E0,-0E0,-4.784245E-3,-3.533607E-3,-0E0,-6.460625E-3,-0E0],"split_indices":[6,6,2,4,6,4,6,2147483647,2147483647,2147483647,2147483647,4,6,2147483647,2147483647,2147483647,2147483647,2147483647,2147483647,2147483647,2147483647,2147483647,2147483647,2147483647,2147483647,2147483647,2147483647,2147483647,2147483647,2147483647,2147483647,2147483647,2147483647,2147483647,2147483647,2147483647,2147483647,2147483647,2147483647,2147483647,2147483647,2147483647,2147483647,2147483647,2147483647,2147483647,2147483647,2147483647,2147483647,2147483647,2147483647,2147483647,2147483647,2147483647,2147483647],"split_type":[0,0,0,0,0,0,0,0,0,0,0,0,0,0,0,0,0,0,0,0,0,0,0,0,0,0,0,0,0,0,0,0,0,0,0,0,0,0,0,0,0,0,0,0,0,0,0,0,0,0,0,0,0,0,0],"sum_hessian":[2.4E4,9.998673E3,1.4001327E4,6.538957E3,3.4597158E3,7.128602E3,6.872725E3,4.18075E1,6.4971494E3,9.3983966E2,2.5198762E3,3.5458613E3,3.5827407E3,2.8329092E3,4.0398162E3,2.1866226E3,3.3325354E2,8.076302E1,3.4650981E3,2.9817449E3,6.009957E2,4.826619E1,2.7846428E3,2.0145359E3,2.0252802E3,8.3299355E1,2.1033232E3,1.3926545E3,2.0724436E3,1.8171545E3,1.1645903E3,2.7611523E3,2.3490593E1,8.620745E1,1.9283285E3,8.5610114E2,1.169179E3,5.4413995E2,8.4851465E2,2.0512185E3,2.1224998E1,1.1568691E3,7.721243E0,1.2096988E2,2.6401824E3,1.1595303E3,9.648747E0,5.1101184E2,3.3128113E1,1.692362E3,9.478204E2,9.900459E2,1.6948436E2,8.377955E2,1.1002491E2],"tree_param":{"num_deleted":"46","num_feature":"7","num_nodes":"55","size_leaf_vector":"0"}},{"base_weights":[-0E0,-3.0504272E-3,2.0691529E-2,-9.664916E-3,1.6182588E-3,2.2123864E-2,-0E0,-2.0460008E-2,-0E0,-0E0,6.185293E-3,2.2405785E-2,-0E0,-0E0,-2.338606E-2,-4.549676E-3,2.7805509E-3,2.1620823E-2,-0E0,-0E0,3.130332E-2,-0E0,-1.6647961E-2,7.4714376E-3,-0E0,-0E0,2.5381697E-2,-5.4212627E-3,-0E0,-0E0,1.6902797E-2,-0E0,3.1848885E-2,-0E0,-2.5396194E-2,-0E0,1.2143315E-2,-8.776616E-3,-0E0,-0E0,-3.303295E-3,2.3341164E-2,-0E0,-2.6859578E-2,-0E0,-0E0,1.8563744E-2,-9.357082E-3,-0E0,-0E0,-1.2949927E-2,-0E0,2.8210081E-2,2.1615138E-2,-0E0,-9.50101E-3,-0E0,-2.2760438E-2,-0E0,2.2602309E-2,-0E0,-2.6245087E-2,-0E0],"categories":[],"categories_nodes":[],"categories_segments":[],"categories_sizes":[],"default_left":[1,1,1,1,1,1,1,1,0,1,1,1,1,1,1,1,1,1,1,1,1,1,1,1,1,1,1,1,1,1,1,1,1,1,1,1,1,1,1,1,1,1,1,1,1,1,1,1,1,1,1,1,1,1,1,1,1,1,1,1,1,1,1],"id":10,"left_children":[1,3,-1,7,-1,-1,-1,-1,-1,-1,-1,-1,-1,-1,-1,-1,-1,-1,-1,-1,-1,-1,-1,-1,-1,-1,-1,-1,-1,-1,-1,-1,-1,-1,-1,-1,-1,-1,-1,-1,-1,-1,-1,-1,-1,-1,-1,-1,-1,-1,-1,-1,-1,-1,-1,-1,-1,-1,-1,-1,-1,-1,-1],"loss_changes":[1.6498168E0,9.015088E-1,1.9092643E-1,1.0231723E0,1.0701694E-1,3.8583994E-2,0E0,5.2216125E-1,0E0,8.3692834E-2,8.292225E-1,6.8256855E-3,0E0,0E0,0E0,4.6323997E-1,1.16854705E-1,3.15862E-1,3.6747973E-2,2.4970119E-1,4.848945E-2,0E0,7.239908E-2,1.5101404E-1,0E0,0E0,0E0,1.6175747E-2,0E0,7.2984267E-3,1.4795919E-1,0E0,0E0,0E0,9.940088E-3,0E0,1.6994289E-1,3.7679486E-3,0E0,0E0,9.963538E-2,1.6504073E-1,0E0,0E0,0E0,0E0,9.099728E-2,4.5097247E-4,0E0,0E0,1.4925018E-1,0E0,0E0,4.789418E-2,0E0,0E0,0E0,7.492244E-2,0E0,0E0,0E0,0E0,0E0],"parents":[2147483647,0,0,1,1,2,2,3,3,4,4,5,5,7,7,9,9,10,10,11,11,15,15,16,16,17,17,18,18,19,19,20,20,22,22,23,23,27,27,29,29,30,30,34,34,36,36,37,37,40,40,41,41,46,46,47,47,50,50,53,53,57,57],"right_children":[2,4,-1,8,-1,-1,-1,-1,-1,-1,-1,-1,-1,-1,-1,-1,-1,-1,-1,-1,-1,-1,-1,-1,-1,-1,-1,-1,-1,-1,-1,-1,-1,-1,-1,-1,-1,-1,-1,-1,-1,-1,-1,-1,-1,-1,-1,-1,-1,-1,-1,-1,-1,-1,-1,-1,-1,-1,-1,-1,-1,-1,-1],"split_conditions":[8.6024E4,3.55E1,6.207459E-3,8.814E3,4.8547765E-4,6.6371593E-3,-0E0,-6.1380025E-3,-0E0,-0E0,1.855588E-3,6.7217355E-3,-0E0,-0E0,-7.0158183E-3,-1.3649028E-3,8.341653E-4,6.4862473E-3,-0E0,-0E0,9.390997E-3,-0E0,-4.9943887E-3,2.2414313E-3,-0E0,-0E0,7.6145097E-3,-1.6263789E-3,-0E0,-0E0,5.070839E-3,-0E0,9.554666E-3,-0E0,-7.6188585E-3,-0E0,3.6429947E-3,-2.632985E-3,-0E0,-0E0,-9.909886E-4,7.0023495E-3,-0E0,-8.057874E-3,-0E0,-0E0,5.569123E-3,-2.8071245E-3,-0E0,-0E0,-3.8849781E-3,-0E0,8.463025E-3,6.4845416E-3,-0E0,-2.8503032E-3,-0E0,-6.8281316E-3,-0E0,6.780693E-3,-0E0,-7.873527E-3,-0E0],"split_indices":[5,4,4,5,4,2147483647,2147483647,5,0,2147483647,2147483647,2147483647,2147483647,2147483647,2147483647,2147483647,2147483647,2147483647,2147483647,2147483647,2147483647,2147483647,2147483647,2147483647,2147483647,2147483647,2147483647,2147483647,2147483647,2147483647,2147483647,2147483647,2147483647,2147483647,2147483647,2147483647,2147483647,2147483647,2147483647,2147483647,2147483647,2147483647,2147483647,2147483647,2147483647,2147483647,2147483647,2147483647,2147483647,2147483647,2147483647,2147483647,2147483647,2147483647,2147483647,2147483647,2147483647,2147483647,2147483647,2147483647,2147483647,2147483647,2147483647],"split_type":[0,0,0,0,0,0,0,0,0,0,0,0,0,0,0,0,0,0,0,0,0,0,0,0,0,0,0,0,0,0,0,0,0,0,0,0,0,0,0,0,0,0,0,0,0,0,0,0,0,0,0,0,0,0,0,0,0,0,0,0,0,0,0],"sum_hessian":[2.4E4,2.0594162E4,3.4058381E3,1.1446026E4,9.148135E3,3.369182E3,3.665626E1,4.998288E3,6.4477383E3,5.724715E3,3.4234202E3,3.3617876E3,7.3943796E0,2.17773E2,4.780515E3,3.0406628E3,2.6840522E3,2.0540427E3,1.3693773E3,1.6325321E3,1.7292554E3,1.1421814E3,1.8984816E3,2.4650503E3,2.1900188E2,7.3323746E1,1.9807191E3,1.2503237E3,1.19053604E2,7.5857697E2,8.739552E2,1.093375E1,1.7183217E3,9.704314E2,9.280501E2,5.0779935E2,1.957251E3,6.8703345E2,5.632902E2,8.974682E1,6.6883014E2,7.298777E2,1.4407748E2,8.434545E2,8.459558E1,6.266159E2,1.330635E3,6.474691E2,3.9564354E1,3.1211836E1,6.376183E2,2.282564E1,7.0705206E2,1.1762214E3,1.5441364E2,6.32996E2,1.4473122E1,4.9449896E2,1.4311934E2,1.1694695E3,6.7518783E0,4.8066837E2,1.383062E1],"tree_param":{"num_deleted":"56","num_feature":"7","num_nodes":"63","size_leaf_vector":"0"}},{"base_weights":[-0E0,2.3459503E-2,-1.5842494E-2,2.4076601E-2,-0E0,-0E0,-2.97071E-2,3.0222712E-2,3.3408166E-3,-1.0416402E-2,7.086758E-3,-3.0186038E-2,-0E0,-0E0,1.2678399E-2,-0E0,-3.1246305E-2,2.0971417E-2,-0E0,-3.049307E-2,-0E0,1.8512035E-2,-0E0,-0E0,-3.6956217E-2,1.8952008E-2,-0E0],"categories":[],"categories_nodes":[],"categories_segments":[],"categories_sizes":[],"default_left":[1,1,1,1,1,1,1,1,1,1,1,1,1,1,1,1,1,1,1,1,1,1,1,1,1,1,1],"id":11,"left_children":[1,-1,5,-1,-1,-1,-1,-1,-1,-1,-1,-1,-1,-1,-1,-1,-1,-1,-1,-1,-1,-1,-1,-1,-1,-1,-1],"loss_changes":[9.016893E0,2.8548527E-1,3.7307448E0,1.6495943E-1,0E0,3.541068E-1,1.9797707E-1,0E0,3.6525255E-1,4.9998268E-1,8.0477583E-1,7.414675E-2,0E0,0E0,2.848926E-1,0E0,2.1912569E-1,0E0,0E0,0E0,0E0,1.8596888E-2,0E0,0E0,0E0,0E0,0E0],"parents":[2147483647,0,0,1,1,2,2,3,3,5,5,6,6,8,8,9,9,10,10,11,11,14,14,16,16,21,21],"right_children":[2,-1,6,-1,-1,-1,-1,-1,-1,-1,-1,-1,-1,-1,-1,-1,-1,-1,-1,-1,-1,-1,-1,-1,-1,-1,-1],"split_conditions":[9.255E2,7.0378515E-3,1.05E5,7.2229807E-3,-0E0,-0E0,-8.91213E-3,9.066814E-3,1.002245E-3,-3.1249207E-3,2.1260276E-3,-9.055812E-3,-0E0,-0E0,3.8035198E-3,-0E0,-9.373892E-3,6.2914253E-3,-0E0,-9.147922E-3,-0E0,5.5536106E-3,-0E0,-0E0,-1.1086865E-2,5.685603E-3,-0E0],"split_indices":[6,0,0,2147483647,2147483647,6,6,2147483647,2147483647,2147483647,2147483647,2147483647,2147483647,2147483647,2147483647,2147483647,2147483647,2147483647,2147483647,2147483647,2147483647,2147483647,2147483647,2147483647,2147483647,2147483647,2147483647],"split_type":[0,0,0,0,0,0,0,0,0,0,0,0,0,0,0,0,0,0,0,0,0,0,0,0,0,0,0],"sum_hessian":[2.4E4,9.998673E3,1.4001327E4,9.985181E3,1.3492531E1,5.7919814E3,8.209346E3,6.4746284E3,3.510552E3,1.0847168E3,4.7072646E3,8.1681807E3,4.1164997E1,9.945308E2,2.5160212E3,4.5209256E2,6.326242E2,2.3673774E3,2.3398872E3,8.084261E3,8.391941E1,2.0114568E3,5.045644E2,1.9951221E1,6.1267303E2,1.9709231E3,4.053372E1],"tree_param":{"num_deleted":"22","num_feature":"7","num_nodes":"27","size_leaf_vector":"0"}},{"base_weights":[-0E0,-5.6310957E-3,7.457082E-3,-0E0,-1.3656783E-1,-0E0,8.779573E-3,-1.3968237E-2,7.0318426E-3,-1.8486774E-2,-0E0,-0E0,1.151636E-2,-1.9326871E-2,-0E0,1.4839827E-2,-0E0],"categories":[],"categories_nodes":[],"categories_segments":[],"categories_sizes":[],"default_left":[1,1,1,1,0,1,1,1,1,1,1,1,1,1,1,1,1],"id":12,"left_children":[1,3,-1,7,-1,-1,-1,-1,-1,-1,-1,-1,-1,-1,-1,-1,-1],"loss_changes":[1.036178E0,4.928041E0,2.1905333E-1,1.4157641E0,0E0,0E0,0E0,4.0084052E-1,8.109948E-2,7.7176094E-3,0E0,0E0,2.1987218E-1,0E0,0E0,0E0,0E0],"parents":[2147483647,0,0,1,1,2,2,3,3,7,7,8,8,9,9,12,12],"right_children":[2,4,-1,8,-1,-1,-1,-1,-1,-1,-1,-1,-1,-1,-1,-1,-1],"split_conditions":[2.5E0,1.5E0,2.2371248E-3,3.35E1,-4.097035E-2,-0E0,2.633872E-3,-4.190471E-3,2.109553E-3,-5.5460325E-3,-0E0,-0E0,3.454908E-3,-5.7980614E-3,-0E0,4.451948E-3,-0E0],"split_indices":[2,2,4,4,0,2147483647,2147483647,2,1,2147483647,2147483647,2147483647,2147483647,2147483647,2147483647,2147483647,2147483647],"split_type":[0,0,0,0,0,0,0,0,0,0,0,0,0,0,0,0,0],"sum_hessian":[2.4E4,1.24867295E4,1.15132705E4,1.2201302E4,2.854278E2,3.654572E2,1.1147813E4,5.5774727E3,6.6238286E3,4.357042E3,1.2204305E3,3.5428145E3,3.0810144E3,4.007151E3,3.4989124E2,2.8539307E3,2.2708365E2],"tree_param":{"num_deleted":"10","num_feature":"7","num_nodes":"17","size_leaf_vector":"0"}},{"base_weights":[-0E0,8.068409E-3,-6.185068E-3,-0E0,1.7582035E-2,-1.2258506E-2,-0E0,-0E0,1.0323849E-3],"categories":[],"categories_nodes":[],"categories_segments":[],"categories_sizes":[],"default_left":[1,1,1,1,1,1,1,1,1],"id":13,"left_children":[1,-1,-1,-1,-1,-1,-1,-1,-1],"loss_changes":[1.2181774E0,6.422133E-1,5.5813205E-1,3.8514019E-3,0E0,0E0,0E0,0E0,0E0],"parents":[2147483647,0,0,1,1,2,2,3,3],"right_children":[2,-1,-1,-1,-1,-1,-1,-1,-1],"split_conditions":[5E-1,2.4205227E-3,-1.8555204E-3,-0E0,5.2746106E-3,-3.677552E-3,-0E0,-0E0,3.0971548E-4],"split_indices":[3,1,2,2147483647,2147483647,2147483647,2147483647,2147483647,2147483647],"split_type":[0,0,0,0,0,0,0,0,0],"sum_hessian":[2.4E4,1.1177583E4,1.2822417E4,6.7462197E3,4.431364E3,6.9784014E3,5.8440156E3,3.1326865E3,3.6135332E3],"tree_param":{"num_deleted":"6","num_feature":"7","num_nodes":"9","size_leaf_vector":"0"}},{"base_weights":[-0E0,2.3631284E-2,-4.7285925E-3,-0E0,3.7422467E-2,-1.580284E-2,1.36166345E-2,3.8831852E-2,-0E0,-2.6942303E-3,-2.2640862E-2,3.0252434E-2,-7.780697E-4,-8.869609E-3,6.714447E-4,-2.8144836E-2,-0E0,3.1357326E-2,-0E0,-3.2250695E-2,1.896482E-2,-1.4676297E-2,-0E0,1.0056134E-2,-0E0,-2.8243417E-2,-0E0,3.132585E-2,-2.231943E-2,-0E0,-4.9778294E-2,3.1678073E-2,-0E0,-2.660949E-2,-0E0,1.929421E-2,-0E0,2.0342058E-2,-0E0,3.7164178E-2,-0E0,-0E0,-4.6378728E-2,-5.124885E-2,-0E0,-0E0,3.3262413E-2,-0E0,-3.1604286E-2,4.8314314E-3,-2.3793238E-5,-0E0,3.3260852E-2,5.0483197E-2,-0E0,-4.754651E-2,-0E0,-0E0,-5.2504003E-2,-3.2839887E-2,-0E0,6.487206E-3,-0E0,-0E0,-1.0825183E-4,3.8537726E-2,-0E0,-5.3363103E-2,-0E0],"categories":[],"categories_nodes":[],"categories_segments":[],"categories_sizes":[],"default_left":[1,1,1,0,1,1,1,1,1,1,1,1,1,1,1,1,1,1,1,1,1,1,1,1,1,1,1,1,1,1,1,1,1,1,1,1,1,1,1,1,1,0,1,1,1,1,1,1,1,1,1,1,1,1,1,1,1,1,1,1,1,1,1,1,1,1,1,1,1],"id":14,"left_children":[1,3,5,-1,-1,9,11,-1,-1,-1,15,-1,19,-1,-1,-1,27,-1,-1,-1,-1,-1,-1,-1,-1,-1,-1,-1,41,-1,-1,-1,-1,-1,-1,-1,-1,-1,-1,-1,-1,-1,-1,-1,-1,-1,-1,-1,-1,-1,-1,-1,-1,-1,-1,-1,-1,-1,-1,-1,-1,-1,-1,-1,-1,-1,-1,-1,-1],"loss_changes":[2.825761E0,1.5750749E0,4.0804725E0,0E0,2.306149E-1,3.6729717E-1,2.4825344E0,0E0,0E0,4.005804E-1,7.7508926E-1,2.5980353E-1,1.8780345E0,5.8115935E-1,4.3782607E-2,2.5838375E-2,1.0466253E0,0E0,0E0,2.002939E-1,3.7596774E-1,9.122683E-1,2.1509689E-1,7.817687E-2,0E0,0E0,0E0,2.1475661E-1,1.1226894E0,0E0,5.2140474E-2,6.052941E-2,0E0,5.807308E-1,1.420136E-2,3.4051937E-1,0E0,0E0,0E0,7.947147E-2,0E0,0E0,6.698024E-2,5.1036716E-2,0E0,0E0,0E0,0E0,1.6411376E-1,1.1089978E-2,1.3509216E-5,0E0,1.1143029E-2,0E0,0E0,0E0,0E0,0E0,4.537475E-2,0E0,0E0,0E0,0E0,0E0,0E0,0E0,0E0,0E0,0E0],"parents":[2147483647,0,0,1,1,2,2,4,4,5,5,6,6,9,9,10,10,11,11,12,12,13,13,14,14,15,15,16,16,19,19,20,20,21,21,22,22,23,23,27,27,28,28,30,30,31,31,33,33,34,34,35,35,39,39,42,42,43,43,48,48,49,49,50,50,52,52,58,58],"right_children":[2,4,6,-1,-1,10,12,-1,-1,-1,16,-1,20,-1,-1,-1,28,-1,-1,-1,-1,-1,-1,-1,-1,-1,-1,-1,42,-1,-1,-1,-1,-1,-1,-1,-1,-1,-1,-1,-1,-1,-1,-1,-1,-1,-1,-1,-1,-1,-1,-1,-1,-1,-1,-1,-1,-1,-1,-1,-1,-1,-1,-1,-1,-1,-1,-1,-1],"split_conditions":[4.5E4,7.8055E3,4.6394E4,-0E0,1.1226741E-2,3.218E3,2.05E5,1.1649556E-2,-0E0,-8.0826913E-4,3.1044E4,9.075731E-3,1.853315E5,-2.6608827E-3,2.0143342E-4,-8.4434515E-3,7.5E4,9.407198E-3,-0E0,-9.6752085E-3,5.689446E-3,-4.4028894E-3,-0E0,3.0168404E-3,-0E0,-8.473026E-3,-0E0,9.397755E-3,3.4671E4,-0E0,-1.4933488E-2,9.503422E-3,-0E0,-7.982847E-3,-0E0,5.788263E-3,-0E0,6.1026174E-3,-0E0,1.1149254E-2,-0E0,-0E0,-1.3913619E-2,-1.5374655E-2,-0E0,-0E0,9.978725E-3,-0E0,-9.481287E-3,1.4494294E-3,-7.137972E-6,-0E0,9.978256E-3,1.514496E-2,-0E0,-1.4263953E-2,-0E0,-0E0,-1.5751202E-2,-9.851966E-3,-0E0,1.9461619E-3,-0E0,-0E0,-3.247555E-5,1.1561318E-2,-0E0,-1.6008932E-2,-0E0],"split_indices":[0,5,5,0,5,5,0,2147483647,2147483647,5,5,5,5,2147483647,2147483647,0,0,2147483647,2147483647,3,0,2147483647,2147483647,2147483647,2147483647,2147483647,2147483647,5,5,2147483647,2147483647,2147483647,2147483647,2147483647,2147483647,2147483647,2147483647,2147483647,2147483647,2147483647,2147483647,0,0,2147483647,2147483647,2147483647,2147483647,2147483647,2147483647,2147483647,2147483647,2147483647,2147483647,2147483647,2147483647,2147483647,2147483647,2147483647,2147483647,2147483647,2147483647,2147483647,2147483647,2147483647,2147483647,2147483647,2147483647,2147483647,2147483647],"split_type":[0,0,0,0,0,0,0,0,0,0,0,0,0,0,0,0,0,0,0,0,0,0,0,0,0,0,0,0,0,0,0,0,0,0,0,0,0,0,0,0,0,0,0,0,0,0,0,0,0,0,0,0,0,0,0,0,0,0,0,0,0,0,0,0,0,0,0,0,0],"sum_hessian":[2.4E4,4.2701143E3,1.9729887E4,1.4426885E3,2.8274258E3,1.3424758E4,6.3051284E3,2.7788438E3,4.8581825E1,6.256649E3,7.168109E3,3.9883335E3,2.316795E3,5.6657983E3,5.908504E2,5.6171406E3,1.5509681E3,3.9764414E3,1.189189E1,1.5374221E3,7.7937274E2,4.767473E3,8.983253E2,4.3555722E2,1.552932E2,5.6103887E3,6.7518783E0,5.670204E2,9.8394775E2,8.112621E2,7.2616003E2,6.539727E2,1.2540004E2,2.7386436E3,2.0288295E3,5.7777454E2,3.2055078E2,2.9534598E2,1.4021126E2,5.58341E2,8.679382E0,2.3415117E2,7.497966E2,7.0493506E2,2.1224998E1,6.109377E0,6.4786334E2,2.1583426E2,2.5228093E3,6.083214E2,1.4205079E3,7.556689E1,5.0220767E2,3.3376E2,2.24581E2,7.430447E2,6.7518783E0,1.4788759E1,6.901463E2,2.488712E3,3.409748E1,6.0092706E2,7.3943796E0,1.9909555E2,1.2214125E3,3.815871E2,1.2062057E2,6.840369E2,6.109377E0],"tree_param":{"num_deleted":"50","num_feature":"7","num_nodes":"69","size_leaf_vector":"0"}},{"base_weights":[-0E0,-2.6105884E-3,1.8047396E-2,-6.743522E-3,-0E0,1.951321E-2,-0E0,-1.4142392E-2,-0E0,-1.5607653E-3,8.586095E-3,1.979906E-2,-0E0,-2.060364E-2,-0E0,4.7250497E-3,-1.5456552E-2,-7.543513E-3,-0E0,-0E0,1.0932159E-2,-0E0,-2.273559E-2,1.0481004E-2,-0E0,-2.4138782E-2,-0E0,-0E0,-1.338725E-2,1.1648986E-2,-0E0,-2.2898875E-2,-0E0,-0E0,1.5021729E-2,-2.4463426E-2,-0E0,-0E0,-1.55919045E-2],"categories":[],"categories_nodes":[],"categories_segments":[],"categories_sizes":[],"default_left":[1,1,1,1,1,1,1,1,1,1,1,1,1,1,1,1,1,1,1,1,1,1,1,1,1,1,1,1,1,1,1,1,1,1,1,1,1,1,1],"id":15,"left_children":[1,-1,-1,-1,-1,-1,-1,-1,-1,-1,-1,-1,-1,-1,-1,-1,-1,-1,-1,-1,-1,-1,-1,-1,-1,-1,-1,-1,-1,-1,-1,-1,-1,-1,-1,-1,-1,-1,-1],"loss_changes":[1.2496728E0,4.155257E-1,1.7355883E-1,6.5749454E-1,3.1357726E-1,3.4962654E-2,0E0,9.8127174E-1,4.135644E-1,2.0964402E-1,1.7511123E-1,0E0,0E0,3.86894E-1,0E0,3.1687003E-1,2.714447E-1,2.9514977E-1,0E0,0E0,6.0070813E-2,0E0,3.3839226E-2,4.026302E-1,0E0,1.0592282E-2,0E0,0E0,1.716829E-1,0E0,0E0,0E0,0E0,0E0,0E0,0E0,0E0,0E0,0E0],"parents":[2147483647,0,0,1,1,2,2,3,3,4,4,5,5,7,7,8,8,9,9,10,10,13,13,15,15,16,16,17,17,20,20,22,22,23,23,25,25,28,28],"right_children":[2,-1,-1,-1,-1,-1,-1,-1,-1,-1,-1,-1,-1,-1,-1,-1,-1,-1,-1,-1,-1,-1,-1,-1,-1,-1,-1,-1,-1,-1,-1,-1,-1,-1,-1,-1,-1,-1,-1],"split_conditions":[8.6024E4,-7.8317657E-4,5.414219E-3,-2.0230566E-3,-0E0,5.853963E-3,-0E0,-4.2427178E-3,-0E0,-4.682296E-4,2.5758285E-3,5.939718E-3,-0E0,-6.1810925E-3,-0E0,1.417515E-3,-4.6369657E-3,-2.263054E-3,-0E0,-0E0,3.2796478E-3,-0E0,-6.8206773E-3,3.1443012E-3,-0E0,-7.241635E-3,-0E0,-0E0,-4.016175E-3,3.4946958E-3,-0E0,-6.869663E-3,-0E0,-0E0,4.506519E-3,-7.339028E-3,-0E0,-0E0,-4.6775714E-3],"split_indices":[5,1,4,2147483647,2147483647,2147483647,2147483647,2147483647,2147483647,2147483647,2147483647,2147483647,2147483647,2147483647,2147483647,2147483647,2147483647,2147483647,2147483647,2147483647,2147483647,2147483647,2147483647,2147483647,2147483647,2147483647,2147483647,2147483647,2147483647,2147483647,2147483647,2147483647,2147483647,2147483647,2147483647,2147483647,2147483647,2147483647,2147483647],"split_type":[0,0,0,0,0,0,0,0,0,0,0,0,0,0,0,0,0,0,0,0,0,0,0,0,0,0,0,0,0,0,0,0,0,0,0,0,0,0,0],"sum_hessian":[2.4E4,2.0594162E4,3.4058381E3,1.2223777E4,8.370384E3,3.369182E3,3.665626E1,6.066617E3,6.1571606E3,4.2575303E3,4.112854E3,3.3617876E3,7.3943796E0,5.1698022E3,8.968145E2,4.882376E3,1.2747849E3,3.8663618E3,3.911685E2,1.10633736E2,4.0022202E3,1.7562741E2,4.994175E3,3.876799E3,1.00557684E3,9.885126E2,2.8627237E2,9.918809E2,2.874481E3,3.9674915E3,3.4728756E1,4.987739E3,6.43624E0,2.0522737E2,3.6715715E3,9.8014886E2,8.363745E0,4.9224327E1,2.8252566E3],"tree_param":{"num_deleted":"36","num_feature":"7","num_nodes":"39","size_leaf_vector":"0"}},{"base_weights":[-0E0,7.311738E-3,-8.841845E-3,-9.332608E-3,1.2534879E-2,-1.5438142E-2,1.0014572E-2,-0E0,-2.1499524E-2,-0E0,1.5777286E-2,-2.1396106E-2,-0E0,2.0308426E-2,-0E0,-3.2044828E-2,-0E0,1.676227E-2,-0E0,-0E0,-2.222535E-2,3.1839213E-3,-0E0,-0E0,3.333164E-2,-0E0,-4.982959E-2,2.0040173E-2,-0E0,-2.376201E-2,-0E0,-0E0,9.988205E-3,3.836279E-2,-0E0,-6.0301416E-2,-0E0,-0E0,2.3699814E-2,-0E0,-2.4297165E-2,1.6652064E-2,-0E0,-0E0,4.126242E-2,-0E0,-6.1174765E-2,7.6932316E-3,-0E0,2.7144575E-2,-0E0,-2.4378996E-2,-0E0,-0E0,2.2118447E-2,1.3051452E-2,-0E0,-0E0,-4.1270894E-3,-0E0,2.7842691E-2,-0E0,1.5877612E-2,-6.9389157E-3,-0E0,-0E0,3.0149948E-2,-0E0,1.754989E-2,-0E0,-1.1207955E-2,-0E0,3.639921E-2,1.8116366E-2,-0E0,-1.4713898E-2,-0E0,-0E0,4.266421E-2,-0E0,-1.603881E-2],"categories":[],"categories_nodes":[],"categories_segments":[],"categories_sizes":[],"default_left":[1,1,1,1,1,1,1,1,1,1,1,1,1,1,1,1,1,1,1,1,1,1,1,1,1,1,1,1,1,1,1,1,1,1,1,1,1,1,1,1,1,1,1,1,1,1,1,1,1,1,1,1,1,1,1,1,1,1,1,1,1,1,1,1,1,1,1,1,1,1,1,1,1,1,1,1,1,1,1,1,1],"id":16,"left_children":[1,3,5,-1,-1,11,-1,-1,-1,-1,-1,-1,-1,-1,-1,-1,-1,-1,-1,-1,-1,-1,-1,-1,-1,-1,-1,-1,-1,-1,-1,-1,-1,-1,-1,-1,-1,-1,-1,-1,-1,-1,-1,-1,-1,-1,-1,-1,-1,-1,-1,-1,-1,-1,-1,-1,-1,-1,-1,-1,-1,-1,-1,-1,-1,-1,-1,-1,-1,-1,-1,-1,-1,-1,-1,-1,-1,-1,-1,-1,-1],"loss_changes":[1.5433335E0,1.2767533E0,1.4886656E0,5.61916E-1,7.979615E-1,1.3300734E0,3.7427828E-1,0E0,6.1118835E-1,0E0,2.4145055E-1,2.1906233E-1,1.22532835E-2,4.0346426E-1,0E0,8.918499E-1,0E0,5.0433874E-1,0E0,0E0,2.0676136E-1,1.0499895E-1,0E0,0E0,2.7454448E-1,0E0,6.292901E-1,8.756971E-2,0E0,1.098299E-1,0E0,0E0,1.8751413E-1,1.07112885E-1,0E0,5.164814E-2,0E0,6.070706E-2,2.3862791E-1,0E0,2.320528E-2,1.9407311E-1,0E0,0E0,0E0,0E0,0E0,5.6755397E-2,1.6551988E-2,1.20382786E-1,0E0,0E0,0E0,0E0,0E0,3.942804E-2,0E0,0E0,2.74487E-2,0E0,8.9485645E-2,0E0,2.5574774E-2,3.0063104E-2,0E0,0E0,3.9557552E-1,0E0,9.2244E-3,0E0,4.7591597E-2,0E0,4.4579458E-1,0E0,0E0,1.9998595E-2,0E0,0E0,0E0,0E0,0E0],"parents":[2147483647,0,0,1,1,2,2,3,3,4,4,5,5,6,6,8,8,10,10,11,11,12,12,13,13,15,15,17,17,20,20,21,21,24,24,26,26,27,27,29,29,32,32,33,33,35,35,37,37,38,38,40,40,41,41,47,47,48,48,49,49,55,55,58,58,60,60,62,62,63,63,66,66,68,68,70,70,72,72,75,75],"right_children":[2,4,6,-1,-1,12,-1,-1,-1,-1,-1,-1,-1,-1,-1,-1,-1,-1,-1,-1,-1,-1,-1,-1,-1,-1,-1,-1,-1,-1,-1,-1,-1,-1,-1,-1,-1,-1,-1,-1,-1,-1,-1,-1,-1,-1,-1,-1,-1,-1,-1,-1,-1,-1,-1,-1,-1,-1,-1,-1,-1,-1,-1,-1,-1,-1,-1,-1,-1,-1,-1,-1,-1,-1,-1,-1,-1,-1,-1,-1,-1],"split_conditions":[1.45E5,9E0,1.469955E5,-2.7997827E-3,3.7604638E-3,4.55E1,3.004372E-3,-0E0,-6.4498573E-3,-0E0,4.733186E-3,-6.418832E-3,-0E0,6.092528E-3,-0E0,-9.613449E-3,-0E0,5.028681E-3,-0E0,-0E0,-6.667605E-3,9.551764E-4,-0E0,-0E0,9.999492E-3,-0E0,-1.49488775E-2,6.0120523E-3,-0E0,-7.1286033E-3,-0E0,-0E0,2.9964615E-3,1.1508837E-2,-0E0,-1.8090425E-2,-0E0,-0E0,7.1099447E-3,-0E0,-7.28915E-3,4.9956194E-3,-0E0,-0E0,1.2378727E-2,-0E0,-1.835243E-2,2.3079696E-3,-0E0,8.143373E-3,-0E0,-7.313699E-3,-0E0,-0E0,6.6355346E-3,3.9154356E-3,-0E0,-0E0,-1.2381269E-3,-0E0,8.352808E-3,-0E0,4.7632838E-3,-2.0816748E-3,-0E0,-0E0,9.044984E-3,-0E0,5.2649667E-3,-0E0,-3.3623867E-3,-0E0,1.0919764E-2,5.43491E-3,-0E0,-4.4141696E-3,-0E0,-0E0,1.2799264E-2,-0E0,-4.8116436E-3],"split_indices":[0,5,5,5,4,4,0,2147483647,2147483647,2147483647,2147483647,5,0,2147483647,2147483647,2147483647,2147483647,2147483647,2147483647,2147483647,2147483647,2147483647,2147483647,2147483647,2147483647,2147483647,2147483647,2147483647,2147483647,2147483647,2147483647,2147483647,2147483647,2147483647,2147483647,2147483647,2147483647,2147483647,2147483647,2147483647,2147483647,2147483647,2147483647,2147483647,2147483647,2147483647,2147483647,2147483647,2147483647,2147483647,2147483647,2147483647,2147483647,2147483647,2147483647,2147483647,2147483647,2147483647,2147483647,2147483647,2147483647,2147483647,2147483647,2147483647,2147483647,2147483647,2147483647,2147483647,2147483647,2147483647,2147483647,2147483647,2147483647,2147483647,2147483647,2147483647,2147483647,2147483647,2147483647,2147483647,2147483647],"split_type":[0,0,0,0,0,0,0,0,0,0,0,0,0,0,0,0,0,0,0,0,0,0,0,0,0,0,0,0,0,0,0,0,0,0,0,0,0,0,0,0,0,0,0,0,0,0,0,0,0,0,0,0,0,0,0,0,0,0,0,0,0,0,0,0,0,0,0,0,0,0,0,0,0,0,0,0,0,0,0,0,0],"sum_hessian":[2.4E4,1.3470549E4,1.0529451E4,1.7084021E3,1.1762146E4,9.097176E3,1.432275E3,1.7084793E2,1.5375542E3,1.1320809E3,1.0630065E4,7.6415566E3,1.4556198E3,1.2557568E3,1.765182E2,1.2872843E3,2.5026984E2,1.0276816E4,3.5324966E2,1.1611183E2,7.525445E3,1.2086971E3,2.4692262E2,4.2644995E2,8.2930695E2,3.9574457E2,8.915398E2,8.445662E3,1.8311536E3,6.9497773E3,5.756674E2,3.3432526E1,1.1752645E3,8.125907E2,1.6716263E1,7.818305E2,1.0970927E2,2.2510188E3,6.1946436E3,1.1673188E2,6.8330454E3,1.0990552E3,7.620939E1,4.72856E1,7.6530505E2,8.363745E0,7.7346674E2,1.025674E3,1.2253447E3,5.046005E3,1.1486388E3,6.8262935E3,6.7518783E0,7.943312E1,1.0196221E3,6.89546E2,3.3612796E2,2.5360582E2,9.717389E2,9.458242E1,4.9514224E3,6.723682E1,6.223092E2,9.138239E2,5.7914936E1,6.30391E2,4.3210317E3,2.9915607E1,5.923936E2,3.2425854E2,5.895654E2,1.0577991E3,3.2632324E3,5.8402985E2,8.363745E0,5.6189294E2,2.7672464E1,6.431063E2,2.6201262E3,1.1260613E1,5.506323E2],"tree_param":{"num_deleted":"72","num_feature":"7","num_nodes":"81","size_leaf_vector":"0"}},{"base_weights":[-0E0,6.0946755E-3,-4.4789994E-3,-0E0,2.5134476E-2,-7.191787E-3,-0E0,8.7421335E-4,-7.617476E-4,3.3911455E-2,-0E0,-0E0,-8.474847E-3,-0E0,1.5762176E-2,-1.0762293E-2,-0E0,-0E0,5.5414435E-2,-1.9150723E-3,-0E0,-5.7764924E-3,-0E0,3.7172341E-3,-0E0,-0E0,-1.4639662E-2,-0E0,9.999959E-3],"categories":[],"categories_nodes":[],"categories_segments":[],"categories_sizes":[],"default_left":[1,1,1,1,1,1,1,1,1,1,1,1,1,1,1,1,1,1,1,1,1,1,1,1,1,1,1,1,1],"id":17,"left_children":[1,3,-1,-1,-1,-1,-1,-1,-1,-1,-1,-1,-1,-1,-1,-1,-1,-1,-1,-1,-1,-1,-1,-1,-1,-1,-1,-1,-1],"loss_changes":[6.724298E-1,1.1479255E0,3.721258E-1,6.4631714E-3,6.573391E-2,2.2625208E-1,0E0,4.4654912E-1,4.656589E-2,1.4468002E-1,0E0,0E0,0E0,1.3094626E-2,0E0,0E0,0E0,0E0,0E0,6.295314E-2,2.130119E-2,1.0370059E-1,0E0,1.238182E-1,0E0,0E0,0E0,0E0,0E0],"parents":[2147483647,0,0,1,1,2,2,3,3,4,4,5,5,7,7,8,8,9,9,13,13,19,19,20,20,21,21,23,23],"right_children":[2,4,-1,-1,-1,-1,-1,-1,-1,-1,-1,-1,-1,-1,-1,-1,-1,-1,-1,-1,-1,-1,-1,-1,-1,-1,-1,-1,-1],"split_conditions":[5E-1,5.9155E4,-1.3436999E-3,-0E0,7.540343E-3,-2.157536E-3,-0E0,2.6226402E-4,-2.2852428E-4,1.0173437E-2,-0E0,-0E0,-2.5424543E-3,-0E0,4.728653E-3,-3.228688E-3,-0E0,-0E0,1.6624331E-2,-5.745217E-4,-0E0,-1.7329478E-3,-0E0,1.1151703E-3,-0E0,-0E0,-4.391899E-3,-0E0,2.9999877E-3],"split_indices":[3,5,5,5,5,2147483647,2147483647,2147483647,2147483647,2147483647,2147483647,2147483647,2147483647,2147483647,2147483647,2147483647,2147483647,2147483647,2147483647,2147483647,2147483647,2147483647,2147483647,2147483647,2147483647,2147483647,2147483647,2147483647,2147483647],"split_type":[0,0,0,0,0,0,0,0,0,0,0,0,0,0,0,0,0,0,0,0,0,0,0,0,0,0,0,0,0],"sum_hessian":[2.4E4,1.1177583E4,1.2822417E4,8.7033125E3,2.474271E3,1.2168195E4,6.54221E2,7.679531E3,1.0237815E3,1.4163809E3,1.0578903E3,2.5540985E2,1.1912786E4,5.858569E3,1.820962E3,4.0713E2,6.166515E2,8.388547E2,5.7752625E2,3.5704194E3,2.2881492E3,2.2790432E3,1.2913765E3,1.541544E3,7.4660516E2,1.4403793E3,8.386638E2,9.0366875E1,1.451177E3],"tree_param":{"num_deleted":"24","num_feature":"7","num_nodes":"29","size_leaf_vector":"0"}},{"base_weights":[-0E0,1.5051421E-2,-2.787987E-3,-0E0,2.4021672E-2,-9.879469E-3,3.760883E-3,2.8256185E-2,-0E0,-0E0,-2.0699823E-2,1.5637616E-2,-7.267626E-3,-6.9470666E-3,-0E0,-2.7119845E-2,-0E0,1.6497217E-2,-0E0,-2.8903747E-2,1.5849413E-3,-0E0,-1.5785139E-2,8.50842E-3,-0E0,-3.055217E-2,-0E0,-0E0,-3.6755092E-2,1.4395917E-2,-0E0,-0E0,-1.923917E-2,1.4173038E-2,-0E0,-1.7542332E-2,-0E0,-4.6802387E-2,-0E0,-3.8212072E-2,-0E0,-0E0,2.0000417E-2,-2.2207456E-2,-0E0,-0E0,1.8931977E-2,-2.3206446E-2,-0E0,-0E0,-5.190051E-2,-0E0,-4.741102E-2,-0E0,2.3613183E-2,2.0240791E-2,-0E0,-5.4288197E-2,-0E0,2.5952868E-2,-0E0],"categories":[],"categories_nodes":[],"categories_segments":[],"categories_sizes":[],"default_left":[1,1,1,1,1,1,1,1,1,1,1,1,1,1,1,1,1,1,1,1,1,1,1,1,1,1,1,1,1,1,1,1,1,1,1,1,1,1,1,1,1,1,1,1,1,1,1,1,1,1,1,1,1,1,1,1,1,1,1,1,1],"id":18,"left_children":[1,-1,5,-1,-1,-1,11,-1,-1,-1,-1,-1,19,-1,-1,-1,-1,-1,-1,-1,-1,-1,-1,-1,-1,-1,-1,-1,-1,-1,-1,-1,-1,-1,-1,-1,-1,-1,-1,-1,-1,-1,-1,-1,-1,-1,-1,-1,-1,-1,-1,-1,-1,-1,-1,-1,-1,-1,-1,-1,-1],"loss_changes":[1.1207387E0,6.641758E-1,1.1181952E0,0E0,2.4337089E-1,7.5857186E-1,1.3028697E0,0E0,0E0,1.3751896E-1,9.917402E-2,1.4080882E-1,1.4040122E0,3.544557E-1,2.1557541E-1,8.803558E-2,0E0,0E0,0E0,8.429096E-1,1.3357897E-1,0E0,2.0147163E-1,2.7901125E-1,3.6874315E-1,1.3837314E-1,0E0,0E0,1.36374E-1,6.868927E-2,0E0,0E0,1.9653225E-1,3.1551453E-1,0E0,1.2743962E-1,0E0,3.1730175E-1,0E0,1.1899066E-1,0E0,0E0,6.0539633E-2,0E0,0E0,0E0,1.12984896E-1,0E0,0E0,0E0,1.3598967E-1,0E0,0E0,0E0,5.0086886E-2,0E0,0E0,0E0,0E0,0E0,0E0],"parents":[2147483647,0,0,1,1,2,2,4,4,5,5,6,6,9,9,10,10,11,11,12,12,13,13,14,14,15,15,19,19,20,20,22,22,23,23,24,24,25,25,28,28,29,29,32,32,33,33,35,35,37,37,39,39,42,42,46,46,50,50,54,54],"right_children":[2,-1,6,-1,-1,-1,12,-1,-1,-1,-1,-1,20,-1,-1,-1,-1,-1,-1,-1,-1,-1,-1,-1,-1,-1,-1,-1,-1,-1,-1,-1,-1,-1,-1,-1,-1,-1,-1,-1,-1,-1,-1,-1,-1,-1,-1,-1,-1,-1,-1,-1,-1,-1,-1,-1,-1,-1,-1,-1,-1],"split_conditions":[4.5E4,4.5154262E-3,3.1226E4,-0E0,7.206502E-3,-2.9638407E-3,2.05E5,8.476856E-3,-0E0,-0E0,-6.209947E-3,4.691285E-3,1.853315E5,-2.0841202E-3,-0E0,-8.135954E-3,-0E0,4.9491655E-3,-0E0,-8.6711245E-3,4.754824E-4,-0E0,-4.735542E-3,2.552526E-3,-0E0,-9.165651E-3,-0E0,-0E0,-1.1026528E-2,4.318775E-3,-0E0,-0E0,-5.7717515E-3,4.251912E-3,-0E0,-5.2627E-3,-0E0,-1.4040717E-2,-0E0,-1.1463622E-2,-0E0,-0E0,6.0001253E-3,-6.662237E-3,-0E0,-0E0,5.6795934E-3,-6.9619343E-3,-0E0,-0E0,-1.55701535E-2,-0E0,-1.4223306E-2,-0E0,7.083955E-3,6.0722376E-3,-0E0,-1.628646E-2,-0E0,7.785861E-3,-0E0],"split_indices":[0,5,5,2147483647,2147483647,5,0,2147483647,2147483647,2147483647,2147483647,5,5,2147483647,2147483647,2147483647,2147483647,2147483647,2147483647,5,0,2147483647,2147483647,2147483647,2147483647,2147483647,2147483647,2147483647,2147483647,2147483647,2147483647,2147483647,2147483647,2147483647,2147483647,2147483647,2147483647,2147483647,2147483647,2147483647,2147483647,2147483647,2147483647,2147483647,2147483647,2147483647,2147483647,2147483647,2147483647,2147483647,2147483647,2147483647,2147483647,2147483647,2147483647,2147483647,2147483647,2147483647,2147483647,2147483647,2147483647],"split_type":[0,0,0,0,0,0,0,0,0,0,0,0,0,0,0,0,0,0,0,0,0,0,0,0,0,0,0,0,0,0,0,0,0,0,0,0,0,0,0,0,0,0,0,0,0,0,0,0,0,0,0,0,0,0,0,0,0,0,0,0,0],"sum_hessian":[2.4E4,4.2701143E3,1.9729887E4,1.4426885E3,2.8274258E3,1.1891802E4,7.838084E3,2.348292E3,4.7913373E2,7.4126284E3,4.4791733E3,5.214625E3,2.623459E3,2.849412E3,4.5632163E3,2.7443264E3,1.734847E3,5.202733E3,1.189189E1,1.8440862E3,7.7937274E2,8.749919E2,1.9744202E3,2.9778113E3,1.585405E3,2.256658E3,4.8766852E2,7.975999E1,1.7643262E3,6.539727E2,1.2540004E2,1.0100744E2,1.8734127E3,2.4621323E3,5.156791E2,1.1982263E3,3.8717877E2,1.0247971E3,1.2318608E3,1.7257424E3,3.8583763E1,1.4345743E2,5.105153E2,1.8045753E3,6.883746E1,2.0195874E2,2.2601736E3,9.213207E2,2.7690558E2,7.365061E1,9.511465E2,5.5178265E2,1.1739598E3,3.569812E1,4.7481717E2,2.253106E3,7.0675163E0,9.154596E2,3.5686893E1,4.674228E2,7.3943796E0],"tree_param":{"num_deleted":"52","num_feature":"7","num_nodes":"61","size_leaf_vector":"0"}},{"base_weights":[-0E0,1.0536041E-2,-1.4498266E-3,-0E0,1.3272776E-2,-0E0,-1.5282138E-2,-9.0841325E-3,1.37433E-3,-2.0744937E-2,-0E0,-2.386476E-2,-0E0,7.7955895E-3,-0E0,-0E0,-2.3556776E-2,-0E0,-3.524307E-2,-0E0,1.1277382E-2,-9.961803E-3,9.0677943E-4,-0E0,-2.4394644E-2,-4.2182345E-2,-0E0,-0E0,1.520274E-2,-0E0,-1.9791668E-2,5.3965724E-3,-0E0,-2.4598692E-2,-0E0,-0E0,1.8946271E-2,-2.7012296E-2,-0E0,7.0578E-3,-0E0,-4.4064033E-3,-0E0,-0E0,-3.2644633E-2,-0E0,-4.9556354E-3,-3.4477416E-2,-0E0],"categories":[],"categories_nodes":[],"categories_segments":[],"categories_sizes":[],"default_left":[1,1,1,1,1,1,1,1,1,1,1,1,1,1,1,1,1,1,1,1,1,1,1,1,1,1,1,1,1,1,1,1,1,1,1,1,1,1,1,1,1,1,1,1,1,1,1,1,1],"id":19,"left_children":[-1,-1,-1,-1,-1,-1,-1,-1,-1,-1,-1,-1,-1,-1,-1,-1,-1,-1,-1,-1,-1,-1,-1,-1,-1,-1,-1,-1,-1,-1,-1,-1,-1,-1,-1,-1,-1,-1,-1,-1,-1,-1,-1,-1,-1,-1,-1,-1,-1],"loss_changes":[5.15493E-1,2.6945496E-1,3.4267214E-1,0E0,0E0,2.525241E-1,2.9299027E-1,4.247219E-1,3.0748492E-1,1.531806E-1,0E0,3.243538E-1,0E0,2.6250955E-1,2.8841802E-1,0E0,3.1795144E-2,0E0,3.3543128E-1,0E0,4.3212974E-1,5.0202775E-1,1.6377313E-1,0E0,1.0396898E-2,0E0,0E0,0E0,4.904151E-2,0E0,2.4480146E-1,4.1052476E-2,1.634436E-2,0E0,0E0,0E0,0E0,4.0483093E-1,0E0,0E0,0E0,9.80258E-4,0E0,0E0,6.6547155E-2,0E0,0E0,0E0,0E0],"parents":[2147483647,0,0,1,1,2,2,5,5,6,6,7,7,8,8,9,9,11,11,13,13,14,14,16,16,18,18,20,20,21,21,22,22,24,24,28,28,30,30,31,31,32,32,37,37,41,41,44,44],"right_children":[-1,-1,-1,-1,-1,-1,-1,-1,-1,-1,-1,-1,-1,-1,-1,-1,-1,-1,-1,-1,-1,-1,-1,-1,-1,-1,-1,-1,-1,-1,-1,-1,-1,-1,-1,-1,-1,-1,-1,-1,-1,-1,-1,-1,-1,-1,-1,-1,-1],"split_conditions":[-0E0,3.1608124E-3,-4.3494802E-4,-0E0,3.981833E-3,-0E0,-4.5846417E-3,-2.7252398E-3,4.1229904E-4,-6.223481E-3,-0E0,-7.159428E-3,-0E0,2.338677E-3,-0E0,-0E0,-7.067033E-3,-0E0,-1.05729215E-2,-0E0,3.3832148E-3,-2.9885413E-3,2.7203385E-4,-0E0,-7.318394E-3,-1.2654704E-2,-0E0,-0E0,4.560822E-3,-0E0,-5.937501E-3,1.6189718E-3,-0E0,-7.3796078E-3,-0E0,-0E0,5.6838817E-3,-8.103689E-3,-0E0,2.11734E-3,-0E0,-1.321921E-3,-0E0,-0E0,-9.7933905E-3,-0E0,-1.4866907E-3,-1.0343226E-2,-0E0],"split_indices":[0,2147483647,2147483647,2147483647,2147483647,2147483647,2147483647,2147483647,2147483647,2147483647,2147483647,2147483647,2147483647,2147483647,2147483647,2147483647,2147483647,2147483647,2147483647,2147483647,2147483647,2147483647,2147483647,2147483647,2147483647,2147483647,2147483647,2147483647,2147483647,2147483647,2147483647,2147483647,2147483647,2147483647,2147483647,2147483647,2147483647,2147483647,2147483647,2147483647,2147483647,2147483647,2147483647,2147483647,2147483647,2147483647,2147483647,2147483647,2147483647],"split_type":[0,0,0,0,0,0,0,0,0,0,0,0,0,0,0,0,0,0,0,0,0,0,0,0,0,0,0,0,0,0,0,0,0,0,0,0,0,0,0,0,0,0,0,0,0,0,0,0,0],"sum_hessian":[2.4E4,4.2701143E3,1.9729887E4,4.984438E1,4.2202695E3,1.8085064E4,1.6448209E3,2.7081191E3,1.5376945E4,1.5734135E3,7.140746E1,1.138113E3,1.5700061E3,5.537604E3,9.839342E3,7.716753E1,1.496246E3,3.5513226E2,7.829808E2,8.274481E2,4.710156E3,2.8483865E3,6.990955E3,4.759001E1,1.4486559E3,7.350639E2,4.7916874E1,2.4863551E2,4.46152E3,8.4515485E2,2.0032317E3,5.820852E3,1.1701034E3,1.441904E3,6.7518783E0,1.4522837E3,3.0092366E3,1.410893E3,5.923388E2,4.227299E3,1.5935529E3,8.4175287E2,3.283506E2,6.498245E1,1.3459105E3,1.3633379E2,7.0541907E2,1.2625999E3,8.3310585E1],"tree_param":{"num_deleted":"48","num_feature":"7","num_nodes":"49","size_leaf_vector":"0"}},{"base_weights":[-0E0,1.0536041E-2,-1.4498266E-3,-6.385123E-3,1.9303435E-3,-9.485225E-3,-0E0,1.1298628E-2,-5.7181884E-3,-0E0,-1.4467034E-2,6.5003417E-4,-6.264277E-4,-0E0,2.3355817E-2,2.600287E-3,-0E0,-1.0991895E-3,-0E0,-0E0,1.4275262E-2],"categories":[],"categories_nodes":[],"categories_segments":[],"categories_sizes":[],"default_left":[1,1,1,1,1,1,1,1,1,1,1,1,1,1,1,1,1,1,1,1,1],"id":20,"left_children":[-1,-1,-1,-1,-1,-1,-1,-1,-1,-1,-1,-1,-1,-1,-1,-1,-1,-1,-1,-1,-1],"loss_changes":[5.15493E-1,0E0,4.7614536E-1,2.497105E-1,7.3885405E-1,4.8867565E-1,1.5702791E-3,1.0004892E0,0E0,0E0,0E0,9.644046E-3,7.275349E-4,0E0,0E0,2.0795959E-1,0E0,0E0,0E0,0E0,0E0],"parents":[2147483647,0,0,2,2,3,3,4,4,5,5,6,6,7,7,11,11,12,12,15,15],"right_children":[-1,-1,-1,-1,-1,-1,-1,-1,-1,-1,-1,-1,-1,-1,-1,-1,-1,-1,-1,-1,-1],"split_conditions":[-0E0,3.1608124E-3,-4.3494802E-4,-1.9155369E-3,5.7910307E-4,-2.8455677E-3,-0E0,3.3895883E-3,-1.7154566E-3,-0E0,-4.3401103E-3,1.9501026E-4,-1.8792832E-4,-0E0,7.0067453E-3,7.8008615E-4,-0E0,-3.2975688E-4,-0E0,-0E0,4.282579E-3],"split_indices":[0,2147483647,2147483647,2147483647,2147483647,2147483647,2147483647,2147483647,2147483647,2147483647,2147483647,2147483647,2147483647,2147483647,2147483647,2147483647,2147483647,2147483647,2147483647,2147483647,2147483647],"split_type":[0,0,0,0,0,0,0,0,0,0,0,0,0,0,0,0,0,0,0,0,0],"sum_hessian":[2.4E4,4.2701143E3,1.9729887E4,1.1988538E4,7.741348E3,8.208107E3,3.7804304E3,5.4187485E3,2.3225999E3,2.3448464E3,5.8632607E3,2.8796123E3,9.008181E2,2.316554E3,3.1021943E3,1.6062471E3,1.2733652E3,8.947087E2,6.109377E0,5.324851E2,1.073762E3],"tree_param":{"num_deleted":"20","num_feature":"7","num_nodes":"21","size_leaf_vector":"0"}},{"base_weights":[-0E0,5.0098053E-3,-3.089287E-3,-0E0,1.381601E-2,-5.754551E-3,-0E0,-0E0,1.5180578E-2,9.176495E-3,-2.8659955E-3,1.5772605E-2,-0E0,-0E0,1.051389E-2,-7.835052E-3,-0E0],"categories":[],"categories_nodes":[],"categories_segments":[],"categories_sizes":[],"default_left":[1,1,1,1,1,1,1,1,1,1,1,1,1,1,1,1,1],"id":21,"left_children":[-1,-1,-1,-1,-1,-1,-1,-1,-1,-1,-1,-1,-1,-1,-1,-1,-1],"loss_changes":[4.0291086E-1,5.653362E-1,1.9709912E-1,0E0,1.16624296E-1,0E0,1.8386833E-1,0E0,5.5250347E-2,4.2907685E-2,5.3587154E-2,0E0,0E0,0E0,0E0,0E0,0E0],"parents":[2147483647,0,0,1,1,2,2,4,4,6,6,8,8,9,9,10,10],"right_children":[-1,-1,-1,-1,-1,-1,-1,-1,-1,-1,-1,-1,-1,-1,-1,-1,-1],"split_conditions":[-0E0,1.5029417E-3,-9.2678616E-4,-0E0,4.144803E-3,-1.7263653E-3,-0E0,-0E0,4.554174E-3,2.7529486E-3,-8.597987E-4,4.731782E-3,-0E0,-0E0,3.154167E-3,-2.3505157E-3,-0E0],"split_indices":[3,2147483647,2147483647,2147483647,2147483647,2147483647,2147483647,2147483647,2147483647,2147483647,2147483647,2147483647,2147483647,2147483647,2147483647,2147483647,2147483647],"split_type":[0,0,0,0,0,0,0,0,0,0,0,0,0,0,0,0,0],"sum_hessian":[2.4E4,1.1177583E4,1.2822417E4,6.7462197E3,4.431364E3,9.647383E3,3.1750342E3,2.547898E2,4.1765737E3,2.0762947E3,1.0987395E3,4.0910088E3,8.556495E1,1.0647431E2,1.9698203E3,1.0199153E3,7.8824295E1],"tree_param":{"num_deleted":"16","num_feature":"7","num_nodes":"17","size_leaf_vector":"0"}},{"base_weights":[-0E0,1.8080952E-2,-1.1741763E-2,-0E0,3.0187063E-2,-3.1914737E-2,-1.6645608E-3,-1.7348418E-2,4.073311E-3,4.9162265E-2,1.1474886E-3,-0E0,-3.7268963E-2,-2.812853E-2,-0E0,-2.3957327E-2,-0E0,1.1606893E-2,-0E0,-0E0,5.5823203E-2,1.9686472E-2,-0E0,-3.8259782E-2,-0E0,-0E0,-3.6848083E-2,3.6599908E-2,-4.0773572E-3,-0E0,-3.092953E-2,-0E0,1.5943298E-2,-0E0,5.7867248E-2,-0E0,3.2640614E-2,-8.4259845E-3,-0E0,-0E0,-3.9103948E-2,-4.4470977E-2,-0E0,4.184678E-2,-0E0,-9.996474E-3,9.217897E-3,1.6817072E-2,-0E0,5.900413E-2,-0E0,-0E0,3.7328076E-2,-1.9776158E-2,-0E0,-4.9635656E-2,-0E0,-0E0,4.2269893E-2,-0E0,-2.1704562E-2,1.6317548E-2,-0E0,1.6906776E-2,-0E0,5.9535604E-2,-0E0,3.7850477E-2,-0E0,-0E0,-2.1454534E-2,-0E0,-5.3989198E-2,-8.010686E-4,1.109324E-3,-2.628537E-2,-0E0,1.9030057E-2,-0E0,-0E0,-8.894999E-3,-0E0,5.6064767E-3,-0E0,-2.8381903E-2,2.3509464E-3,-0E0,-1.3545696E-2,-0E0,-0E0,8.994678E-3,-0E0,-2.9340789E-2,-0E0,9.778129E-3,-0E0,-1.4627398E-2,1.17183775E-2,-0E0,-2.9945692E-2,-0E0,-0E0,1.4922787E-2,-1.5941702E-2,-0E0,-1.6467586E-2,-0E0],"categories":[],"categories_nodes":[],"categories_segments":[],"categories_sizes":[],"default_left":[1,1,1,1,1,1,1,1,1,1,1,1,1,1,1,1,1,1,1,0,1,1,1,1,1,1,1,1,1,1,1,1,1,1,1,1,1,1,1,1,1,1,1,1,1,1,1,1,1,1,1,1,1,1,1,1,1,1,1,1,1,1,1,1,1,1,1,1,1,1,1,1,1,1,1,1,1,1,1,1,1,1,1,1,1,1,1,1,1,1,1,1,1,1,1,1,1,1,1,1,1,1,1,1,1,1,1],"id":22,"left_children":[1,3,5,-1,9,-1,13,-1,-1,19,-1,-1,-1,-1,27,-1,-1,-1,-1,-1,-1,-1,-1,-1,-1,-1,-1,-1,-1,-1,-1,-1,-1,-1,-1,-1,-1,-1,-1,-1,-1,-1,-1,-1,-1,-1,-1,-1,-1,-1,-1,-1,-1,-1,-1,-1,-1,-1,-1,-1,-1,-1,-1,-1,-1,-1,-1,-1,-1,-1,-1,-1,-1,-1,-1,-1,-1,-1,-1,-1,-1,-1,-1,-1,-1,-1,-1,-1,-1,-1,-1,-1,-1,-1,-1,-1,-1,-1,-1,-1,-1,-1,-1,-1,-1,-1,-1],"loss_changes":[5.1991363E0,2.6642964E0,1.7381772E0,4.556599E-1,1.9274683E0,6.329925E-1,7.94145E-1,3.3237126E-1,2.2225776E-1,1.0280547E0,6.8066883E-1,0E0,1.6758347E-1,5.045979E-1,1.788038E0,4.2105693E-1,0E0,1.8319494E-1,0E0,0E0,6.151638E-1,8.9580125E-1,1.0113333E-1,3.73044E-2,0E0,0E0,4.9096334E-1,3.7818384E-1,6.674055E-1,0E0,0E0,0E0,4.0557325E-2,0E0,3.343897E-1,0E0,4.319489E-1,2.3615123E-1,0E0,0E0,0E0,1.7031574E-1,0E0,1.8856287E-2,0E0,8.116368E-1,1.3582473E-1,2.5671422E-3,0E0,1.357603E-1,0E0,0E0,4.1065216E-2,5.671656E-2,0E0,3.0416906E-1,0E0,0E0,0E0,2.9153498E-3,6.450671E-1,6.681608E-2,0E0,0E0,0E0,0E0,0E0,0E0,0E0,0E0,0E0,0E0,0E0,1.9376414E-1,1.4642956E-2,3.4498215E-1,0E0,0E0,0E0,4.827658E-3,2.3110081E-1,0E0,2.3226723E-2,0E0,1.5715575E-1,6.272693E-2,0E0,6.832856E-2,0E0,0E0,2.5917124E-2,0E0,1.0271716E-1,0E0,8.663664E-2,0E0,2.90308E-2,0E0,0E0,0E0,0E0,0E0,0E0,1.6597152E-2,0E0,0E0,0E0],"parents":[2147483647,0,0,1,1,2,2,3,3,4,4,5,5,6,6,7,7,8,8,9,9,10,10,12,12,13,13,14,14,15,15,17,17,20,20,21,21,22,22,23,23,26,26,27,27,28,28,32,32,34,34,36,36,37,37,41,41,43,43,45,45,46,46,47,47,49,49,52,52,53,53,55,55,59,59,60,60,61,61,73,73,74,74,75,75,79,79,80,80,82,82,84,84,85,85,87,87,90,90,92,92,94,94,96,96,103,103],"right_children":[2,4,6,-1,10,-1,14,-1,-1,20,-1,-1,-1,-1,28,-1,-1,-1,-1,-1,-1,-1,-1,-1,-1,-1,-1,-1,-1,-1,-1,-1,-1,-1,-1,-1,-1,-1,-1,-1,-1,-1,-1,-1,-1,-1,-1,-1,-1,-1,-1,-1,-1,-1,-1,-1,-1,-1,-1,-1,-1,-1,-1,-1,-1,-1,-1,-1,-1,-1,-1,-1,-1,-1,-1,-1,-1,-1,-1,-1,-1,-1,-1,-1,-1,-1,-1,-1,-1,-1,-1,-1,-1,-1,-1,-1,-1,-1,-1,-1,-1,-1,-1,-1,-1,-1,-1],"split_conditions":[9.255E2,2.915E2,1.17015E4,-0E0,1.5E0,-9.574422E-3,1.0775E3,-5.204526E-3,1.2219934E-3,1.022E3,3.442466E-4,-0E0,-1.118069E-2,-8.438559E-3,1.5025E3,-7.1871984E-3,-0E0,3.482068E-3,-0E0,-0E0,1.6746962E-2,5.9059416E-3,-0E0,-1.1477935E-2,-0E0,-0E0,-1.10544255E-2,1.0979973E-2,-1.2232072E-3,-0E0,-9.278859E-3,-0E0,4.7829896E-3,-0E0,1.7360175E-2,-0E0,9.792184E-3,-2.5277955E-3,-0E0,-0E0,-1.1731185E-2,-1.3341294E-2,-0E0,1.2554034E-2,-0E0,-2.9989423E-3,2.7653694E-3,5.045122E-3,-0E0,1.770124E-2,-0E0,-0E0,1.1198423E-2,-5.9328475E-3,-0E0,-1.4890698E-2,-0E0,-0E0,1.2680968E-2,-0E0,-6.511369E-3,4.8952647E-3,-0E0,5.072033E-3,-0E0,1.7860683E-2,-0E0,1.1355143E-2,-0E0,-0E0,-6.4363605E-3,-0E0,-1.619676E-2,-2.4032059E-4,3.3279724E-4,-7.885612E-3,-0E0,5.709017E-3,-0E0,-0E0,-2.6684997E-3,-0E0,1.6819431E-3,-0E0,-8.514571E-3,7.0528395E-4,-0E0,-4.0637087E-3,-0E0,-0E0,2.6984036E-3,-0E0,-8.802237E-3,-0E0,2.9334389E-3,-0E0,-4.3882197E-3,3.5155134E-3,-0E0,-8.983708E-3,-0E0,-0E0,4.4768364E-3,-4.782511E-3,-0E0,-4.940276E-3,-0E0],"split_indices":[6,5,5,4,6,6,6,2147483647,2147483647,5,5,2147483647,2147483647,5,6,2147483647,2147483647,2147483647,2147483647,0,4,2147483647,2147483647,2147483647,2147483647,2147483647,2147483647,4,5,2147483647,2147483647,2147483647,2147483647,2147483647,2147483647,2147483647,2147483647,2147483647,2147483647,2147483647,2147483647,2147483647,2147483647,2147483647,2147483647,2147483647,2147483647,2147483647,2147483647,2147483647,2147483647,2147483647,2147483647,2147483647,2147483647,2147483647,2147483647,2147483647,2147483647,2147483647,2147483647,2147483647,2147483647,2147483647,2147483647,2147483647,2147483647,2147483647,2147483647,2147483647,2147483647,2147483647,2147483647,2147483647,2147483647,2147483647,2147483647,2147483647,2147483647,2147483647,2147483647,2147483647,2147483647,2147483647,2147483647,2147483647,2147483647,2147483647,2147483647,2147483647,2147483647,2147483647,2147483647,2147483647,2147483647,2147483647,2147483647,2147483647,2147483647,2147483647,2147483647,2147483647,2147483647,2147483647,2147483647,2147483647,2147483647],"split_type":[0,0,0,0,0,0,0,0,0,0,0,0,0,0,0,0,0,0,0,0,0,0,0,0,0,0,0,0,0,0,0,0,0,0,0,0,0,0,0,0,0,0,0,0,0,0,0,0,0,0,0,0,0,0,0,0,0,0,0,0,0,0,0,0,0,0,0,0,0,0,0,0,0,0,0,0,0,0,0,0,0,0,0,0,0,0,0,0,0,0,0,0,0,0,0,0,0,0,0,0,0,0,0,0,0,0,0],"sum_hessian":[2.4E4,9.998673E3,1.4001327E4,3.4878398E3,6.510833E3,3.5733203E3,1.0428007E4,1.3987864E3,2.0890535E3,3.2504834E3,3.2603496E3,4.972486E2,3.0760718E3,1.0401934E3,9.387813E3,1.3125677E3,8.621867E1,1.9070348E3,1.8201875E2,3.9953223E2,2.8509512E3,1.7673538E3,1.4929957E3,3.033295E3,4.2776863E1,6.242367E1,9.7776965E2,1.2335724E3,8.1542407E3,8.493367E1,1.227634E3,1.7561618E2,1.7314186E3,1.4146257E1,2.836805E3,2.8366867E2,1.483685E3,1.4244402E3,6.85555E1,1.0515563E2,2.9281394E3,9.195391E2,5.823057E1,1.1595837E3,7.39887E1,7.359741E3,7.944996E2,1.6995754E3,3.1843111E1,2.8245862E3,1.2218754E1,3.923749E1,1.4444476E3,8.623789E2,5.6206134E2,8.072598E2,1.12279274E2,1.2545617E1,1.1470381E3,4.0756812E3,3.28406E3,7.636371E2,3.0862522E1,1.6905692E3,9.006246E0,2.812683E3,1.1903115E1,1.4335138E3,1.093375E1,6.43624E0,8.559427E2,2.0593723E1,7.866661E2,3.5664397E3,5.092415E2,3.1727837E3,1.1127623E2,7.459515E2,1.7685629E1,1.088583E3,2.4778567E3,2.3479366E1,4.8576215E2,2.3163729E1,3.14962E3,8.734474E2,2.1513564E2,2.3279631E3,1.4989368E2,9.964386E0,4.7579776E2,1.9951221E1,3.129669E3,1.6692558E2,7.065218E2,1.2229979E1,2.3157332E3,4.6904587E2,6.7518783E0,3.1190508E3,1.0618113E1,1.4146257E1,6.9237555E2,2.0638625E3,2.5187047E2,1.995352E3,6.85106E1],"tree_param":{"num_deleted":"92","num_feature":"7","num_nodes":"107","size_leaf_vector":"0"}},{"base_weights":[-0E0,1.3165656E-2,-9.040526E-3,-0E0,1.5668299E-2,-1.1107849E-2,-0E0,1.5806112E-2,-0E0,-1.7146198E-2,-0E0,-0E0,-2.7640805E-2,-0E0,-1.6217021E-2,-7.545775E-3,7.7774627E-3,-0E0,-2.9595228E-2,-0E0,9.5804763E-4,1.2100163E-2,-0E0,-4.1972402E-2,-0E0,4.219118E-3,-0E0,-0E0,1.5388314E-2,-0E0,-4.507917E-2,-2.207428E-3,-0E0,-0E0,7.3443E-3,1.7277174E-2,-0E0,-4.671626E-2,-0E0,7.6958463E-3,-0E0,-0E0,1.8375535E-2],"categories":[],"categories_nodes":[],"categories_segments":[],"categories_sizes":[],"default_left":[1,1,1,1,1,1,0,1,1,1,1,1,1,1,1,1,1,1,1,1,1,1,1,1,1,1,1,1,1,1,1,1,1,1,1,1,1,1,1,1,1,1,1],"id":23,"left_children":[1,-1,5,-1,-1,9,-1,-1,-1,11,-1,-1,-1,-1,-1,-1,-1,-1,-1,-1,-1,-1,-1,-1,-1,-1,-1,-1,-1,-1,-1,-1,-1,-1,-1,-1,-1,-1,-1,-1,-1,-1,-1],"loss_changes":[2.8852158E0,6.503836E-1,3.9810622E-1,0E0,2.1801233E-2,2.888316E-1,0E0,0E0,0E0,1.2105377E0,2.8393367E-1,1.3184957E-1,4.195466E-1,2.7719408E-3,0E0,0E0,1.0916835E-1,0E0,3.4785867E-1,0E0,3.8485948E-2,3.2645747E-2,0E0,4.0922332E-1,4.3139E-3,7.811927E-2,0E0,0E0,4.327987E-2,0E0,2.651248E-1,0E0,0E0,0E0,6.501995E-3,3.2705247E-2,0E0,0E0,0E0,0E0,0E0,0E0,0E0],"parents":[2147483647,0,0,1,1,2,2,4,4,5,5,9,9,10,10,11,11,12,12,13,13,16,16,18,18,20,20,21,21,23,23,24,24,25,25,28,28,30,30,34,34,35,35],"right_children":[2,-1,6,-1,-1,10,-1,-1,-1,12,-1,-1,-1,-1,-1,-1,-1,-1,-1,-1,-1,-1,-1,-1,-1,-1,-1,-1,-1,-1,-1,-1,-1,-1,-1,-1,-1,-1,-1,-1,-1,-1,-1],"split_conditions":[9.535E2,3.9496967E-3,4.85E1,-0E0,4.70049E-3,2.5E0,-0E0,4.741834E-3,-0E0,2.2255E3,-0E0,-0E0,-8.292242E-3,-0E0,-4.8651067E-3,-2.2637325E-3,2.333239E-3,-0E0,-8.878569E-3,-0E0,2.874143E-4,3.630049E-3,-0E0,-1.25917215E-2,-0E0,1.2657355E-3,-0E0,-0E0,4.6164943E-3,-0E0,-1.3523752E-2,-6.6222844E-4,-0E0,-0E0,2.2032901E-3,5.1831524E-3,-0E0,-1.4014879E-2,-0E0,2.308754E-3,-0E0,-0E0,5.5126604E-3],"split_indices":[6,4,4,2147483647,2147483647,2,0,2147483647,2147483647,6,4,6,4,2147483647,2147483647,2147483647,2147483647,2147483647,2147483647,2147483647,2147483647,2147483647,2147483647,2147483647,2147483647,2147483647,2147483647,2147483647,2147483647,2147483647,2147483647,2147483647,2147483647,2147483647,2147483647,2147483647,2147483647,2147483647,2147483647,2147483647,2147483647,2147483647,2147483647],"split_type":[0,0,0,0,0,0,0,0,0,0,0,0,0,0,0,0,0,0,0,0,0,0,0,0,0,0,0,0,0,0,0,0,0,0,0,0,0,0,0,0,0,0,0],"sum_hessian":[2.4E4,1.0083269E4,1.3916731E4,3.14621E2,9.768647E3,1.2445141E4,1.4715912E3,9.686307E3,8.234122E1,6.2054785E3,6.2396616E3,2.2331885E3,3.97229E3,5.160061E3,1.0796006E3,9.1177295E2,1.3214155E3,2.832619E1,3.9439639E3,2.1400706E3,3.0199905E3,1.2915223E3,2.9893156E1,2.158313E3,1.7856509E3,2.3177056E3,7.0228516E2,3.5512106E2,9.364013E2,8.586936E1,2.0724436E3,8.852845E2,9.003664E2,1.0453558E2,2.21317E3,8.878307E2,4.8570602E1,2.0512185E3,2.1224998E1,2.125373E3,8.779687E1,6.109377E0,8.817213E2],"tree_param":{"num_deleted":"34","num_feature":"7","num_nodes":"43","size_leaf_vector":"0"}},{"base_weights":[-0E0,1.3057896E-2,-4.8277737E-3,-0E0,5.0601702E-2,-8.817705E-3,2.9481868E-3,5.2868225E-2,-0E0,-5.6014935E-5,-2.1107279E-2,-0E0,1.3654093E-2,5.5037223E-2,-0E0,2.1647876E-3,-8.075663E-3,-0E0,-2.2065992E-2,1.2566274E-3,-2.8487728E-3,2.0682162E-2,-0E0,6.034987E-3,-0E0,-0E0,-1.2885633E-2,-2.253199E-2,-0E0,2.3988841E-2,-0E0,-0E0,-1.29981255E-2,2.1455346E-2,-0E0,-0E0,1.0297044E-2,-1.031456E-2,-0E0,-3.143342E-2,-0E0,2.4870561E-2,-0E0,-1.8753001E-2,-0E0,-0E0,2.1593029E-2,-0E0,2.084986E-2,-0E0,-2.3635944E-2,-0E0,-4.5773514E-2,-0E0,-3.949463E-2,1.3820389E-2,-4.414819E-3,-0E0,5.4698247E-2,-0E0,-4.8541725E-2,2.1712111E-2,-0E0,-0E0,-7.717163E-3,-0E0,6.219356E-2,-5.0687615E-2,-0E0,-0E0,2.7614195E-2,-9.195869E-3,-0E0,6.386022E-2,-0E0,-1.0103899E-2,-0E0],"categories":[],"categories_nodes":[],"categories_segments":[],"categories_sizes":[],"default_left":[1,1,1,0,1,1,1,1,1,1,1,1,1,1,1,1,1,1,1,1,1,1,1,1,1,1,1,1,1,1,1,1,1,1,1,0,1,1,1,1,1,1,1,1,1,1,1,1,1,1,1,1,1,1,1,1,1,0,1,1,1,1,1,1,1,1,1,1,1,1,1,1,1,1,1,1,1],"id":24,"left_children":[1,3,5,-1,-1,9,-1,-1,-1,15,-1,-1,-1,-1,-1,23,-1,-1,-1,-1,-1,-1,-1,35,-1,-1,-1,-1,-1,-1,-1,-1,-1,-1,-1,-1,47,-1,-1,-1,-1,-1,-1,-1,-1,-1,-1,-1,57,-1,-1,-1,-1,-1,-1,-1,-1,-1,-1,-1,-1,-1,-1,-1,-1,-1,-1,-1,-1,-1,-1,-1,-1,-1,-1,-1,-1],"loss_changes":[1.5134025E0,3.1790943E0,7.3723066E-1,0E0,3.5643673E-1,8.5031855E-1,1.2176782E-1,2.4631023E-1,0E0,3.725228E-1,1.3059223E-1,1.1022029E-2,1.7969632E-1,0E0,0E0,1.11209944E-1,1.6435677E-1,0E0,8.437371E-2,3.3410218E-1,1.6497183E-1,2.2225142E-2,0E0,2.2127995E-1,2.7269728E-2,0E0,6.350356E-1,0E0,0E0,2.0978808E-2,0E0,0E0,1.8317138E-1,6.1896443E-4,0E0,0E0,2.471284E-1,1.001061E-1,0E0,4.7559166E-1,0E0,0E0,0E0,4.594177E-2,0E0,0E0,0E0,1.7148075E-1,2.0503726E0,0E0,0E0,0E0,1.8214703E-1,0E0,0E0,2.0743565E-1,3.9400022E-2,0E0,9.942484E-2,0E0,1.4686966E-1,2.011891E-1,0E0,0E0,2.2352464E-2,0E0,6.4048767E-3,0E0,0E0,0E0,0E0,1.6833179E-2,0E0,0E0,0E0,0E0,0E0],"parents":[2147483647,0,0,1,1,2,2,4,4,5,5,6,6,7,7,9,9,10,10,11,11,12,12,15,15,16,16,18,18,19,19,20,20,21,21,23,23,24,24,26,26,29,29,32,32,33,33,36,36,37,37,39,39,43,43,47,47,48,48,52,52,55,55,56,56,58,58,60,60,61,61,64,64,66,66,71,71],"right_children":[2,4,6,-1,-1,10,-1,-1,-1,16,-1,-1,-1,-1,-1,24,-1,-1,-1,-1,-1,-1,-1,36,-1,-1,-1,-1,-1,-1,-1,-1,-1,-1,-1,-1,48,-1,-1,-1,-1,-1,-1,-1,-1,-1,-1,-1,58,-1,-1,-1,-1,-1,-1,-1,-1,-1,-1,-1,-1,-1,-1,-1,-1,-1,-1,-1,-1,-1,-1,-1,-1,-1,-1,-1,-1],"split_conditions":[2.75E1,1.30345E4,8.56605E4,-0E0,1.5180511E-2,2.9715E3,8.844561E-4,1.5860468E-2,-0E0,5E-1,-6.3321837E-3,-0E0,4.096228E-3,1.6511168E-2,-0E0,3.6552E4,-2.422699E-3,-0E0,-6.6197976E-3,3.7698823E-4,-8.546319E-4,6.204649E-3,-0E0,3.14E2,-0E0,-0E0,-3.86569E-3,-6.7595975E-3,-0E0,7.1966527E-3,-0E0,-0E0,-3.8994378E-3,6.436604E-3,-0E0,-0E0,1.0775E3,-3.094368E-3,-0E0,-9.430026E-3,-0E0,7.461169E-3,-0E0,-5.625901E-3,-0E0,-0E0,6.4779087E-3,-0E0,1.0196E4,-0E0,-7.0907837E-3,-0E0,-1.3732054E-2,-0E0,-1.1848389E-2,4.146117E-3,-1.3244458E-3,-0E0,1.6409475E-2,-0E0,-1.4562518E-2,6.5136338E-3,-0E0,-0E0,-2.315149E-3,-0E0,1.865807E-2,-1.5206285E-2,-0E0,-0E0,8.284259E-3,-2.7587607E-3,-0E0,1.9158067E-2,-0E0,-3.0311698E-3,-0E0],"split_indices":[6,5,5,0,5,6,5,2147483647,2147483647,3,5,2147483647,2147483647,2147483647,2147483647,5,5,2147483647,2147483647,2147483647,2147483647,2147483647,2147483647,5,5,2147483647,2147483647,2147483647,2147483647,2147483647,2147483647,2147483647,2147483647,2147483647,2147483647,0,6,2147483647,2147483647,2147483647,2147483647,2147483647,2147483647,2147483647,2147483647,2147483647,2147483647,5,5,2147483647,2147483647,2147483647,2147483647,2147483647,2147483647,2147483647,2147483647,0,6,2147483647,2147483647,2147483647,2147483647,2147483647,2147483647,2147483647,2147483647,2147483647,2147483647,2147483647,2147483647,2147483647,2147483647,2147483647,2147483647,2147483647,2147483647],"split_type":[0,0,0,0,0,0,0,0,0,0,0,0,0,0,0,0,0,0,0,0,0,0,0,0,0,0,0,0,0,0,0,0,0,0,0,0,0,0,0,0,0,0,0,0,0,0,0,0,0,0,0,0,0,0,0,0,0,0,0,0,0,0,0,0,0,0,0,0,0,0,0,0,0,0,0,0,0],"sum_hessian":[2.4E4,6.481053E3,1.7518947E4,4.8079243E3,1.6731293E3,1.4382811E4,3.136136E3,1.660268E3,1.2861255E1,9.964198E3,4.418613E3,2.336812E3,7.99324E2,1.613298E3,4.696996E1,4.5808066E3,5.383391E3,1.07409996E2,4.3112026E3,1.2151445E3,1.1216676E3,7.684614E2,3.0862522E1,3.6428386E3,9.3796826E2,2.279077E3,3.1043142E3,4.300911E3,1.0291249E1,5.838839E2,6.312607E2,9.136991E1,1.0302976E3,7.6235205E2,6.109377E0,3.0456683E2,3.3382717E3,2.562894E2,6.8167883E2,1.1643533E3,1.9399608E3,5.77132E2,6.7518783E0,1.0158133E3,1.4484346E1,8.363745E0,7.5398834E2,1.9555941E3,1.3826776E3,2.8314966E1,2.2797444E2,3.8829407E2,7.760592E2,7.573593E2,2.5845398E2,7.7754626E2,1.1780479E3,4.9649384E2,8.8618384E2,8.690608E0,7.673686E2,7.550475E2,2.2498777E1,1.309455E2,1.0471024E3,1.7502982E2,7.11154E2,7.609324E2,6.43624E0,2.4437508E1,7.3061E2,1.00174426E3,4.5358093E1,6.7608716E2,3.5066845E1,9.946655E2,7.0787416E0],"tree_param":{"num_deleted":"58","num_feature":"7","num_nodes":"77","size_leaf_vector":"0"}},{"base_weights":[-0E0,-2.8471893E-3,3.9438843E-3,-4.615756E-3,-0E0,-1.08511864E-4,1.2816642E-2,-0E0,-7.828224E-3,-0E0,-1.8360835E-3,1.4838598E-2,-0E0,-2.81554E-5,-0E0,-0E0,-2.6118036E-4],"categories":[],"categories_nodes":[],"categories_segments":[],"categories_sizes":[],"default_left":[1,1,1,1,1,1,1,1,1,1,1,1,1,1,1,1,1],"id":25,"left_children":[-1,-1,-1,-1,-1,-1,-1,-1,-1,-1,-1,-1,-1,-1,-1,-1,-1],"loss_changes":[2.6769644E-1,1.7960536E-1,7.7247256E-1,2.0240074E-1,0E0,1.0531422E-2,2.344765E-1,2.3069802E-6,0E0,0E0,0E0,0E0,0E0,1.658612E-4,0E0,0E0,0E0],"parents":[2147483647,0,0,1,1,2,2,3,3,5,5,6,6,7,7,13,13],"right_children":[-1,-1,-1,-1,-1,-1,-1,-1,-1,-1,-1,-1,-1,-1,-1,-1,-1],"split_conditions":[-0E0,-8.5415685E-4,1.1831654E-3,-1.384727E-3,-0E0,-3.2553562E-5,3.844993E-3,-0E0,-2.3484675E-3,-0E0,-5.508251E-4,4.4515794E-3,-0E0,-8.44662E-6,-0E0,-0E0,-7.835411E-5],"split_indices":[1,2147483647,2147483647,2147483647,2147483647,2147483647,2147483647,2147483647,2147483647,2147483647,2147483647,2147483647,2147483647,2147483647,2147483647,2147483647,2147483647],"split_type":[0,0,0,0,0,0,0,0,0,0,0,0,0,0,0,0,0],"sum_hessian":[2.4E4,1.4179554E4,9.820446E3,1.3825324E4,3.5423026E2,4.188321E3,5.632125E3,5.715957E3,8.1093667E3,1.0497847E3,3.1385364E3,5.266701E3,3.6542352E2,2.9101553E3,2.8058018E3,4.44924E2,2.4652312E3],"tree_param":{"num_deleted":"16","num_feature":"7","num_nodes":"17","size_leaf_vector":"0"}},{"base_weights":[-0E0,-2.8471893E-3,3.9438843E-3,-0E0,-6.7082155E-3,1.0267192E-2,-2.260932E-3,-1.3690133E-2,-0E0,-0E0,2.323083E-2,-0E0,-1.6906792E-2,3.8233788E-3,-0E0,7.3092273E-3,-0E0,-0E0,1.8981345E-2],"categories":[],"categories_nodes":[],"categories_segments":[],"categories_sizes":[],"default_left":[1,1,1,1,1,1,1,1,1,1,1,1,1,1,1,1,1,1,1],"id":26,"left_children":[-1,-1,-1,-1,-1,-1,-1,-1,-1,-1,-1,-1,-1,-1,-1,-1,-1,-1,-1],"loss_changes":[2.6769644E-1,3.1902233E-1,6.495131E-1,0E0,6.649275E-1,8.837912E-1,0E0,1.0524988E-2,4.209524E-2,0E0,0E0,0E0,0E0,4.3719728E-2,0E0,3.0106264E-1,0E0,0E0,0E0],"parents":[2147483647,0,0,1,1,2,2,4,4,5,5,7,7,8,8,13,13,15,15],"right_children":[-1,-1,-1,-1,-1,-1,-1,-1,-1,-1,-1,-1,-1,-1,-1,-1,-1,-1,-1],"split_conditions":[-0E0,-8.5415685E-4,1.1831654E-3,-0E0,-2.0124647E-3,3.0801576E-3,-6.782796E-4,-4.10704E-3,-0E0,-0E0,6.9692493E-3,-0E0,-5.0720377E-3,1.1470137E-3,-0E0,2.1927683E-3,-0E0,-0E0,5.694404E-3],"split_indices":[1,2147483647,2147483647,2147483647,2147483647,2147483647,2147483647,2147483647,2147483647,2147483647,2147483647,2147483647,2147483647,2147483647,2147483647,2147483647,2147483647,2147483647,2147483647],"split_type":[0,0,0,0,0,0,0,0,0,0,0,0,0,0,0,0,0,0,0],"sum_hessian":[2.4E4,1.4179554E4,9.820446E3,4.535863E3,9.643691E3,7.497846E3,2.3225999E3,5.8632607E3,3.7804304E3,4.3956514E3,3.1021943E3,1.982018E3,3.881243E3,2.8796123E3,9.008181E2,1.6062471E3,1.2733652E3,5.324851E2,1.073762E3],"tree_param":{"num_deleted":"18","num_feature":"7","num_nodes":"19","size_leaf_vector":"0"}},{"base_weights":[-0E0,7.1562924E-3,-5.3029703E-3,1.3104161E-2,-0E0,-0E0,-2.0009918E-2,1.4034939E-2,-0E0,2.3064606E-3,-0E0,-1.2926451E-2,-0E0,-2.4446102E-2,-0E0,1.4421287E-2,-0E0,-0E0,1.0728706E-2,-1.3440936E-2,-0E0,-0E0,-2.3236316E-2,4.4089663E-3,-2.3187553E-3,-2.5048582E-2,-0E0,-0E0,1.28895715E-2,-1.48755545E-2,-0E0,-3.168773E-2,-0E0,6.3658194E-3,-0E0,-1.0779038E-2,-0E0,1.4631879E-2,-0E0,-0E0,-1.5811073E-2,-0E0,-3.2849934E-2,1.6968975E-2,-0E0,-0E0,-2.2444926E-2,2.1399807E-3,-0E0,-0E0,1.845763E-2,-0E0,5.291291E-3,-2.374713E-2,-0E0,-0E0,7.6069036E-3,-1.7834279E-3,-0E0,-0E0,-4.0129907E-3],"categories":[],"categories_nodes":[],"categories_segments":[],"categories_sizes":[],"default_left":[1,1,1,1,1,1,1,1,1,1,1,1,1,1,1,1,1,1,1,1,1,1,1,1,1,1,1,1,1,1,1,1,1,1,1,1,1,1,1,1,1,1,1,1,1,1,1,1,1,1,1,1,1,1,1,1,1,1,1,1,1],"id":27,"left_children":[-1,-1,-1,-1,-1,-1,-1,-1,-1,-1,-1,-1,-1,-1,-1,-1,-1,-1,-1,-1,-1,-1,-1,-1,-1,-1,-1,-1,-1,-1,-1,-1,-1,-1,-1,-1,-1,-1,-1,-1,-1,-1,-1,-1,-1,-1,-1,-1,-1,-1,-1,-1,-1,-1,-1,-1,-1,-1,-1,-1,-1],"loss_changes":[9.077512E-1,2.832982E-1,4.562518E-1,8.076632E-2,1.8215042E-2,2.2240151E-1,3.604144E-1,3.93067E-2,0E0,1.7476754E-1,1.16149455E-1,2.6378798E-1,1.4624892E-1,1.1259556E-2,0E0,0E0,0E0,0E0,8.150554E-2,2.3982555E-2,0E0,0E0,3.379105E-1,9.1080844E-2,2.3578942E-1,0E0,0E0,0E0,6.558913E-2,3.3833683E-3,0E0,5.3920507E-2,0E0,1.7590345E-1,0E0,5.9624976E-1,7.339913E-3,0E0,0E0,0E0,0E0,0E0,0E0,3.7144423E-2,1.6844036E-2,0E0,4.8826456E-2,7.88186E-2,0E0,0E0,0E0,1.01873465E-2,0E0,0E0,0E0,0E0,0E0,3.3646375E-2,0E0,0E0,0E0],"parents":[2147483647,0,0,1,1,2,2,3,3,4,4,5,5,6,6,7,7,9,9,10,10,11,11,12,12,13,13,18,18,19,19,22,22,23,23,24,24,28,28,29,29,31,31,33,33,35,35,36,36,43,43,44,44,46,46,47,47,51,51,57,57],"right_children":[-1,-1,-1,-1,-1,-1,-1,-1,-1,-1,-1,-1,-1,-1,-1,-1,-1,-1,-1,-1,-1,-1,-1,-1,-1,-1,-1,-1,-1,-1,-1,-1,-1,-1,-1,-1,-1,-1,-1,-1,-1,-1,-1,-1,-1,-1,-1,-1,-1,-1,-1,-1,-1,-1,-1,-1,-1,-1,-1,-1,-1],"split_conditions":[-0E0,2.1468878E-3,-1.5908912E-3,3.9312486E-3,-0E0,-0E0,-6.0029756E-3,4.210482E-3,-0E0,6.919382E-4,-0E0,-3.8779355E-3,-0E0,-7.333831E-3,-0E0,4.3263864E-3,-0E0,-0E0,3.218612E-3,-4.0322808E-3,-0E0,-0E0,-6.970895E-3,1.3226899E-3,-6.956266E-4,-7.514575E-3,-0E0,-0E0,3.8668716E-3,-4.4626663E-3,-0E0,-9.506319E-3,-0E0,1.9097459E-3,-0E0,-3.2337115E-3,-0E0,4.3895636E-3,-0E0,-0E0,-4.743322E-3,-0E0,-9.854981E-3,5.0906925E-3,-0E0,-0E0,-6.733478E-3,6.4199424E-4,-0E0,-0E0,5.537289E-3,-0E0,1.5873874E-3,-7.124139E-3,-0E0,-0E0,2.2820712E-3,-5.350284E-4,-0E0,-0E0,-1.2038973E-3],"split_indices":[6,2147483647,2147483647,2147483647,2147483647,2147483647,2147483647,2147483647,2147483647,2147483647,2147483647,2147483647,2147483647,2147483647,2147483647,2147483647,2147483647,2147483647,2147483647,2147483647,2147483647,2147483647,2147483647,2147483647,2147483647,2147483647,2147483647,2147483647,2147483647,2147483647,2147483647,2147483647,2147483647,2147483647,2147483647,2147483647,2147483647,2147483647,2147483647,2147483647,2147483647,2147483647,2147483647,2147483647,2147483647,2147483647,2147483647,2147483647,2147483647,2147483647,2147483647,2147483647,2147483647,2147483647,2147483647,2147483647,2147483647,2147483647,2147483647,2147483647,2147483647],"split_type":[0,0,0,0,0,0,0,0,0,0,0,0,0,0,0,0,0,0,0,0,0,0,0,0,0,0,0,0,0,0,0,0,0,0,0,0,0,0,0,0,0,0,0,0,0,0,0,0,0,0,0,0,0,0,0,0,0,0,0,0,0],"sum_hessian":[2.4E4,1.0083269E4,1.3916731E4,4.656935E3,5.4263335E3,1.179983E4,2.1169011E3,4.469754E3,1.8718121E2,3.4240051E3,2.0023284E3,1.3309745E3,1.0468856E4,2.0213942E3,9.550688E1,4.4224683E3,4.72856E1,1.7474574E3,1.6765477E3,6.42893E2,1.3594353E3,4.3052945E2,9.00445E2,6.3972964E3,4.0715596E3,1.9432684E3,7.812567E1,2.4437508E1,1.6521102E3,6.3324426E2,9.648747E0,8.206962E2,7.974876E1,5.316331E3,1.0809655E3,2.2177698E3,1.8537897E3,1.5884353E3,6.3675E1,5.9188713E1,5.7405554E2,7.0787416E0,8.136175E2,1.359051E3,3.95728E3,5.22734E2,1.6950358E3,1.6027413E3,2.5104837E2,1.0135675E2,1.2576943E3,3.355688E3,6.01592E2,1.6008138E3,9.422188E1,1.1381256E2,1.4889288E3,3.20292E3,1.527681E2,4.8105002E2,2.7218699E3],"tree_param":{"num_deleted":"60","num_feature":"7","num_nodes":"61","size_leaf_vector":"0"}},{"base_weights":[-0E0,-1.9474501E-3,9.776891E-3,1.2850806E-3,-7.1352487E-3,1.7989993E-2,-0E0,-0E0,2.0623002E-2,-0E0,-1.6541798E-2,-0E0,1.8693805E-2,-6.706765E-3,-0E0,1.7446115E-3,-9.60258E-3,2.9260647E-2,-0E0,-8.82985E-3,4.858996E-3,-0E0,-2.4142474E-2,1.8987132E-2,-0E0,-0E0,-8.7779835E-3,-0E0,8.520719E-3,-0E0,-1.9063711E-2,-0E0,3.3479463E-2,-0E0,-1.3092276E-2,1.5462389E-2,-0E0,-2.8283343E-2,-0E0,1.5296785E-2,-0E0,-3.9444458E-2,-0E0,-0E0,3.6423787E-2,-1.5192445E-2,-0E0,-0E0,1.9051699E-2,-1.39814075E-2,-0E0,-0E0,-2.9610226E-2,-5.443382E-2,-0E0,2.2894355E-2,-0E0,-1.983623E-2,-0E0,-2.994718E-2,-0E0,-0E0,-6.2287543E-2,2.4245555E-2,-0E0],"categories":[],"categories_nodes":[],"categories_segments":[],"categories_sizes":[],"default_left":[1,1,1,1,1,1,1,1,1,1,1,1,1,1,1,1,1,1,1,1,1,1,1,1,1,1,1,1,1,1,1,1,1,1,1,1,1,1,1,1,1,1,1,1,1,1,1,1,1,1,1,1,1,1,1,1,1,1,1,1,1,1,1,1,1],"id":28,"left_children":[-1,-1,-1,-1,-1,-1,-1,-1,-1,-1,-1,-1,-1,-1,-1,-1,-1,-1,-1,-1,-1,-1,-1,-1,-1,-1,-1,-1,-1,-1,-1,-1,-1,-1,-1,-1,-1,-1,-1,-1,-1,-1,-1,-1,-1,-1,-1,-1,-1,-1,-1,-1,-1,-1,-1,-1,-1,-1,-1,-1,-1,-1,-1,-1,-1],"loss_changes":[4.4411206E-1,5.310252E-1,6.7948836E-1,6.505695E-1,8.6931145E-1,5.475533E-2,2.1576976E-2,2.8360426E-1,3.264835E-1,2.498601E-1,7.3185647E-1,0E0,2.8939486E-2,1.3873639E-2,0E0,1.7287594E-1,5.0592434E-1,1.1847007E-1,0E0,1.564235E-1,5.904926E-1,0E0,1.6788673E-1,0E0,0E0,0E0,0E0,0E0,3.6446387E-1,0E0,5.31685E-1,0E0,4.495454E-2,0E0,1.0011977E-1,2.8715307E-1,2.3423462E-1,1.1269975E-1,0E0,0E0,0E0,5.3675485E-1,0E0,0E0,0E0,0E0,0E0,0E0,2.4231827E-1,1.282943E-1,0E0,0E0,5.117488E-2,1.555134E-1,0E0,1.4434755E-1,0E0,0E0,0E0,0E0,0E0,0E0,0E0,0E0,0E0],"parents":[2147483647,0,0,1,1,2,2,3,3,4,4,5,5,6,6,7,7,8,8,9,9,10,10,12,12,13,13,15,15,16,16,17,17,19,19,20,20,22,22,28,28,30,30,32,32,34,34,35,35,36,36,37,37,41,41,48,48,49,49,52,52,53,53,55,55],"right_children":[-1,-1,-1,-1,-1,-1,-1,-1,-1,-1,-1,-1,-1,-1,-1,-1,-1,-1,-1,-1,-1,-1,-1,-1,-1,-1,-1,-1,-1,-1,-1,-1,-1,-1,-1,-1,-1,-1,-1,-1,-1,-1,-1,-1,-1,-1,-1,-1,-1,-1,-1,-1,-1,-1,-1,-1,-1,-1,-1,-1,-1,-1,-1,-1,-1],"split_conditions":[-0E0,-5.8423507E-4,2.9330675E-3,3.8552418E-4,-2.1405746E-3,5.396998E-3,-0E0,-0E0,6.186901E-3,-0E0,-4.9625393E-3,-0E0,5.6081414E-3,-2.0120295E-3,-0E0,5.233835E-4,-2.8807742E-3,8.778194E-3,-0E0,-2.648955E-3,1.4576988E-3,-0E0,-7.2427425E-3,5.6961398E-3,-0E0,-0E0,-2.6333951E-3,-0E0,2.5562157E-3,-0E0,-5.7191136E-3,-0E0,1.0043839E-2,-0E0,-3.927683E-3,4.638717E-3,-0E0,-8.485003E-3,-0E0,4.5890356E-3,-0E0,-1.1833338E-2,-0E0,-0E0,1.0927137E-2,-4.557734E-3,-0E0,-0E0,5.71551E-3,-4.1944226E-3,-0E0,-0E0,-8.883068E-3,-1.6330147E-2,-0E0,6.8683065E-3,-0E0,-5.9508695E-3,-0E0,-8.984154E-3,-0E0,-0E0,-1.8686263E-2,7.2736666E-3,-0E0],"split_indices":[5,2147483647,2147483647,2147483647,2147483647,2147483647,2147483647,2147483647,2147483647,2147483647,2147483647,2147483647,2147483647,2147483647,2147483647,2147483647,2147483647,2147483647,2147483647,2147483647,2147483647,2147483647,2147483647,2147483647,2147483647,2147483647,2147483647,2147483647,2147483647,2147483647,2147483647,2147483647,2147483647,2147483647,2147483647,2147483647,2147483647,2147483647,2147483647,2147483647,2147483647,2147483647,2147483647,2147483647,2147483647,2147483647,2147483647,2147483647,2147483647,2147483647,2147483647,2147483647,2147483647,2147483647,2147483647,2147483647,2147483647,2147483647,2147483647,2147483647,2147483647,2147483647,2147483647,2147483647,2147483647],"split_type":[0,0,0,0,0,0,0,0,0,0,0,0,0,0,0,0,0,0,0,0,0,0,0,0,0,0,0,0,0,0,0,0,0,0,0,0,0,0,0,0,0,0,0,0,0,0,0,0,0,0,0,0,0,0,0,0,0,0,0,0,0,0,0,0,0],"sum_hessian":[2.4E4,2.0153521E4,3.8464792E3,8.497592E3,1.165593E4,3.235564E3,6.109152E2,6.9349824E3,1.5626091E3,6.3103047E3,5.3456245E3,8.236367E1,3.1532004E3,4.796653E2,1.3124991E2,3.9911016E3,2.9438809E3,1.1575314E3,4.050777E2,1.8557495E3,4.454555E3,1.5804321E3,3.7651926E3,3.1367998E3,1.6400625E1,1.9613132E1,4.600522E2,1.4426885E3,2.548413E3,8.0486945E2,2.1390115E3,1.6765788E2,9.8987354E2,9.907993E1,1.7566697E3,2.9096614E3,1.5448938E3,2.9532656E3,8.1192706E2,2.348292E3,2.0012105E2,8.4134607E2,1.2976654E3,1.1968488E2,8.7018866E2,1.7383303E3,1.8339355E1,2.0195874E2,2.7077026E3,1.1982263E3,3.466675E2,1.302132E2,2.8230525E3,6.229194E2,2.1842673E2,2.337341E3,3.7036148E2,9.213207E2,2.7690558E2,2.816943E3,6.109377E0,1.0710558E2,5.158138E2,2.329631E3,7.7100177E0],"tree_param":{"num_deleted":"64","num_feature":"7","num_nodes":"65","size_leaf_vector":"0"}},{"base_weights":[-0E0,-2.8471893E-3,3.9438843E-3,-0E0,-6.7082155E-3,1.0267192E-2,-2.260932E-3,-1.3690133E-2,-0E0,-0E0,2.323083E-2,-0E0,-1.6906792E-2,3.8233788E-3,-0E0,7.3092273E-3,-0E0,-0E0,1.8981345E-2],"categories":[],"categories_nodes":[],"categories_segments":[],"categories_sizes":[],"default_left":[1,1,1,1,1,1,1,1,1,1,1,1,1,1,1,1,1,1,1],"id":29,"left_children":[-1,-1,-1,-1,-1,-1,-1,-1,-1,-1,-1,-1,-1,-1,-1,-1,-1,-1,-1],"loss_changes":[2.6769644E-1,3.1902233E-1,6.495131E-1,0E0,6.649275E-1,8.837912E-1,0E0,1.0524988E-2,4.209524E-2,0E0,0E0,0E0,0E0,4.3719728E-2,0E0,3.0106264E-1,0E0,0E0,0E0],"parents":[2147483647,0,0,1,1,2,2,4,4,5,5,7,7,8,8,13,13,15,15],"right_children":[-1,-1,-1,-1,-1,-1,-1,-1,-1,-1,-1,-1,-1,-1,-1,-1,-1,-1,-1],"split_conditions":[-0E0,-8.5415685E-4,1.1831654E-3,-0E0,-2.0124647E-3,3.0801576E-3,-6.782796E-4,-4.10704E-3,-0E0,-0E0,6.9692493E-3,-0E0,-5.0720377E-3,1.1470137E-3,-0E0,2.1927683E-3,-0E0,-0E0,5.694404E-3],"split_indices":[1,2147483647,2147483647,2147483647,2147483647,2147483647,2147483647,2147483647,2147483647,2147483647,2147483647,2147483647,2147483647,2147483647,2147483647,2147483647,2147483647,2147483647,2147483647],"split_type":[0,0,0,0,0,0,0,0,0,0,0,0,0,0,0,0,0,0,0],"sum_hessian":[2.4E4,1.4179554E4,9.820446E3,4.535863E3,9.643691E3,7.497846E3,2.3225999E3,5.8632607E3,3.7804304E3,4.3956514E3,3.1021943E3,1.982018E3,3.881243E3,2.8796123E3,9.008181E2,1.6062471E3,1.2733652E3,5.324851E2,1.073762E3],"tree_param":{"num_deleted":"18","num_feature":"7","num_nodes":"19","size_leaf_vector":"0"}},{"base_weights":[-0E0,-2.8471893E-3,3.9438843E-3,-0E0,-6.7082155E-3,1.0267192E-2,-2.260932E-3,-1.3690133E-2,-0E0,-0E0,2.323083E-2,-0E0,-1.6906792E-2,3.8233788E-3,-0E0,7.3092273E-3,-0E0,-0E0,1.8981345E-2],"categories":[],"categories_nodes":[],"categories_segments":[],"categories_sizes":[],"default_left":[1,1,1,1,1,1,1,1,1,1,1,1,1,1,1,1,1,1,1],"id":30,"left_children":[-1,-1,-1,-1,-1,-1,-1,-1,-1,-1,-1,-1,-1,-1,-1,-1,-1,-1,-1],"loss_changes":[2.6769644E-1,3.1902233E-1,6.495131E-1,0E0,6.649275E-1,8.837912E-1,0E0,1.0524988E-2,4.209524E-2,0E0,0E0,0E0,0E0,4.3719728E-2,0E0,3.0106264E-1,0E0,0E0,0E0],"parents":[2147483647,0,0,1,1,2,2,4,4,5,5,7,7,8,8,13,13,15,15],"right_children":[-1,-1,-1,-1,-1,-1,-1,-1,-1,-1,-1,-1,-1,-1,-1,-1,-1,-1,-1],"split_conditions":[-0E0,-8.5415685E-4,1.1831654E-3,-0E0,-2.0124647E-3,3.0801576E-3,-6.782796E-4,-4.10704E-3,-0E0,-0E0,6.9692493E-3,-0E0,-5.0720377E-3,1.1470137E-3,-0E0,2.1927683E-3,-0E0,-0E0,5.694404E-3],"split_indices":[1,2147483647,2147483647,2147483647,2147483647,2147483647,2147483647,2147483647,2147483647,2147483647,2147483647,2147483647,2147483647,2147483647,2147483647,2147483647,2147483647,2147483647,2147483647],"split_type":[0,0,0,0,0,0,0,0,0,0,0,0,0,0,0,0,0,0,0],"sum_hessian":[2.4E4,1.4179554E4,9.820446E3,4.535863E3,9.643691E3,7.497846E3,2.3225999E3,5.8632607E3,